
[LAYER]: conv1.weight | [SHAPE]: torch.Size([1, 1, 3, 3])
tensor([[[[0.1266, 0.2402, 0.2350],
          [0.2776, 0.7615, 0.2845],
          [0.1872, 0.2185, 0.0704]]]])
[LAYER]: conv1.bias | [SHAPE]: torch.Size([1])
tensor([0.0039])
[LAYER]: fc1.weight | [SHAPE]: torch.Size([30, 169])
tensor([[-5.9170e-02,  7.8897e-03, -4.3260e-02,  2.7635e-02, -1.2494e-01,
         -1.8712e-02,  5.2632e-02,  8.5244e-02,  1.1647e-01, -6.8442e-02,
         -5.0462e-02, -5.3154e-02,  3.9535e-02,  7.7933e-02,  3.0099e-02,
          9.9912e-03,  2.1454e-01,  2.4737e-01,  3.1243e-01,  1.7447e-01,
          2.7696e-01,  1.6211e-01, -2.4309e-02, -2.3085e-01, -2.3755e-01,
         -1.9538e-02,  3.9334e-02,  1.8571e-01,  1.3681e-01,  1.8142e-01,
          2.1550e-01,  1.1865e-01,  1.2480e-02,  2.5544e-01,  1.9057e-01,
          1.9954e-02, -1.4780e-02, -2.6554e-01, -2.1474e-01,  1.0224e-01,
          1.9815e-01,  1.3366e-01, -5.6320e-03,  2.3662e-02,  1.0876e-01,
          1.4970e-02,  1.9110e-01,  1.3312e-01,  3.0329e-02, -8.9234e-02,
         -2.7984e-01, -4.2684e-01,  8.4404e-02,  1.9972e-01, -1.3933e-01,
         -3.4030e-01, -4.4192e-01, -6.1808e-01, -3.4464e-01,  2.0341e-01,
          1.8200e-01, -2.7782e-02, -1.4354e-01, -2.8120e-01, -5.4554e-01,
         -3.2727e-02, -1.6211e-01, -6.9825e-01, -8.6004e-01, -6.4785e-01,
         -3.3611e-01, -3.2611e-01,  1.8799e-01,  1.6354e-01, -8.6384e-02,
         -2.4712e-01, -2.3634e-01, -2.9598e-01,  1.9900e-02, -3.4469e-01,
         -4.5699e-01,  1.0121e-01,  2.4788e-01,  1.5979e-01, -8.6424e-02,
          1.9884e-03, -1.4400e-01, -8.4782e-02, -1.8304e-01, -1.4016e-01,
          6.4453e-02, -6.7043e-02,  1.6553e-01,  2.3217e-01,  2.1396e-01,
          7.8645e-02,  2.1746e-03, -8.0895e-02,  8.4544e-03, -2.0632e-01,
         -1.0707e-01, -5.6301e-02,  5.5105e-02,  7.5247e-02,  1.2791e-01,
          3.3615e-01,  1.9533e-01, -4.0460e-02, -1.1475e-01, -1.9585e-01,
         -1.5172e-01, -1.2854e-01, -1.1805e-01,  1.3554e-02, -3.4605e-02,
         -9.0234e-03, -2.0967e-03,  4.1424e-02,  9.8156e-02,  1.0861e-01,
         -8.0033e-02,  3.0877e-02, -1.5814e-01, -6.0295e-02,  9.3931e-02,
          8.4798e-02, -1.6259e-02,  6.2057e-02,  5.0279e-02,  1.8490e-01,
          1.0869e-01,  2.8428e-02, -5.9324e-02, -1.7155e-02, -8.6887e-02,
         -8.0811e-02, -8.0106e-02,  3.9109e-02,  3.9890e-02,  1.0516e-01,
         -1.7054e-02,  1.0314e-01,  6.4263e-02,  1.2249e-01,  5.9200e-02,
         -3.7409e-02,  1.1353e-01,  1.7824e-02, -1.4219e-01, -9.5698e-02,
         -8.3911e-02,  3.5187e-02,  1.6309e-01,  1.8402e-01,  1.9001e-01,
         -1.5389e-02,  1.7055e-02,  3.1724e-04,  4.9725e-03,  1.0779e-02,
          4.9621e-04,  1.0146e-02, -2.3946e-02, -1.1123e-01,  7.9358e-02,
          1.1137e-01,  1.6819e-02,  1.6273e-02,  9.3410e-03],
        [ 4.7616e-02,  1.0842e-01,  4.9124e-02,  1.4583e-01,  1.4784e-01,
          2.3569e-01,  3.1857e-01,  3.1430e-01,  3.8543e-01,  3.2485e-01,
          2.2710e-01,  2.6613e-01,  2.6109e-02,  7.0101e-02,  1.2432e-02,
          3.7745e-02,  1.1138e-01,  8.2106e-02,  6.4010e-02,  1.6953e-01,
          2.0263e-01,  2.1583e-01,  3.5841e-01,  4.1067e-01,  2.3278e-01,
         -4.8304e-02,  8.5386e-02,  5.2498e-03,  1.1498e-03,  1.3660e-02,
         -4.6720e-02, -2.0487e-03, -4.4865e-02,  3.6527e-02,  1.0406e-01,
          1.4216e-01,  5.5253e-02,  1.3266e-01,  1.0965e-02, -6.3886e-03,
          1.3354e-02,  5.3444e-02, -4.7777e-02,  4.0953e-02,  5.6108e-02,
          1.1385e-01,  1.4156e-01,  9.7660e-02,  1.3591e-01,  2.0422e-01,
          9.1518e-02,  2.5504e-01,  4.6474e-02,  2.1538e-03, -6.1577e-02,
         -2.1639e-02, -3.5693e-02,  1.5935e-01,  2.8042e-01, -7.4706e-03,
         -4.8975e-01, -4.5213e-01, -4.7553e-01, -5.6070e-01, -2.3821e-01,
          5.7356e-02, -1.6821e-02,  2.0018e-02, -7.3795e-02,  4.1201e-02,
          9.7684e-02,  3.9273e-02, -3.8591e-01, -4.8033e-01, -5.3888e-01,
         -8.1424e-01, -7.1385e-01, -4.3744e-01,  2.0679e-01,  8.3406e-03,
          1.5488e-01,  7.9648e-02,  7.1588e-02, -1.1825e-01, -2.5275e-01,
         -2.3306e-01,  1.2701e-01,  1.4988e-02, -4.9003e-02,  5.2523e-02,
         -3.4118e-01,  2.7848e-04, -4.1465e-02, -1.8791e-02, -7.3180e-02,
         -3.8350e-02, -1.4733e-01, -2.7175e-01, -1.1314e-01, -2.4380e-02,
          8.6217e-02,  1.1226e-01,  1.9661e-01, -3.5962e-01,  2.1246e-01,
         -7.0015e-02, -2.2290e-01, -1.3523e-01, -1.2246e-01, -1.3458e-01,
         -2.4396e-01, -2.0945e-01, -8.3339e-02,  6.7148e-02,  5.3835e-02,
          9.2426e-02, -2.9379e-02,  1.4556e-01,  1.0325e-03, -4.4221e-02,
         -6.8258e-02, -2.1849e-02, -1.2817e-01, -3.3536e-01, -1.8646e-01,
         -5.7846e-02,  2.9600e-02,  1.8586e-01,  7.7845e-02, -1.7906e-01,
          1.4014e-01,  1.8019e-02, -7.7823e-02,  9.6846e-03,  3.0822e-02,
          1.1371e-01,  2.3734e-01,  7.1179e-02,  4.3549e-02,  8.6701e-02,
          1.5528e-01,  3.7927e-02, -9.4259e-02,  1.2455e-01, -4.2707e-02,
          3.4172e-02,  5.0341e-02,  9.0666e-02,  1.7349e-01,  1.5001e-01,
          9.3499e-02,  2.3641e-02,  2.6573e-02, -2.1788e-02, -9.4582e-02,
         -1.2068e-01,  7.7305e-02,  2.0985e-01,  2.3749e-01,  1.9934e-01,
          2.0218e-01,  1.2485e-01,  6.9932e-02,  5.2109e-02, -2.6788e-02,
          1.4702e-02,  1.5298e-01,  6.2521e-02, -2.4660e-02],
        [ 2.4711e-02,  4.4917e-02, -1.3623e-03, -9.1975e-02, -7.5839e-02,
         -7.8513e-02, -1.2913e-01,  6.0366e-02, -1.1050e-01, -2.1576e-01,
         -2.2225e-01, -4.8465e-02,  2.4785e-02, -5.1575e-03, -2.2013e-02,
         -1.1050e-01, -6.1259e-02, -5.6188e-02, -5.5413e-02, -1.1850e-01,
         -6.0598e-02, -5.6187e-02, -1.5291e-01, -2.9494e-01, -1.4716e-01,
         -1.2246e-01, -2.0810e-02,  1.1511e-02, -1.1484e-01, -1.1088e-01,
         -1.9689e-01, -9.5847e-02, -1.7924e-02, -5.4106e-02, -1.3013e-01,
         -6.6254e-02, -1.3141e-01, -2.0850e-01, -9.6996e-02,  1.1122e-01,
          8.8625e-02, -5.3199e-02, -1.1191e-01, -3.8538e-02,  5.8801e-02,
          4.9840e-02,  4.9765e-02,  3.3384e-02,  1.1025e-01,  2.3230e-02,
         -2.1180e-01, -1.8432e-01,  8.8848e-02,  1.5285e-01, -3.1900e-02,
         -7.0160e-02, -3.0987e-02,  8.1169e-02,  2.4819e-01,  1.7010e-01,
          1.5989e-01,  1.6545e-01, -4.6335e-02,  4.4281e-02, -5.1960e-02,
          1.2434e-01,  2.8523e-01,  2.2157e-01, -2.2420e-02, -1.4628e-01,
         -1.3238e-01,  2.8727e-01,  3.9854e-02,  1.3164e-01,  1.8082e-01,
          5.1879e-02,  3.1595e-01,  3.5326e-01,  2.0621e-02,  2.0202e-01,
          7.8606e-02, -9.9302e-02, -1.8686e-01, -2.9850e-01,  3.3781e-02,
         -1.7168e-01, -1.5094e-01, -1.7335e-01, -1.5646e-01,  1.5346e-01,
          3.9762e-01,  2.9942e-02,  4.5131e-02,  3.6133e-02,  9.9345e-02,
          5.3756e-02, -1.0514e-01, -8.1143e-02, -2.0209e-01, -1.3699e-01,
         -1.0524e-01, -3.4797e-02,  1.9178e-01,  2.7214e-01,  1.4729e-01,
          3.6639e-01,  4.1936e-01,  2.3070e-01,  2.2540e-01, -1.1074e-02,
         -2.1577e-01, -1.1622e-01, -4.0910e-02,  6.7276e-02,  2.1445e-01,
          2.9714e-01,  2.6260e-01,  9.3651e-02,  2.1752e-01,  7.1629e-01,
          8.1432e-01,  3.2227e-01, -1.4667e-01, -1.2098e-01, -7.0685e-02,
          5.1735e-02,  1.3880e-01,  3.7395e-01,  3.7496e-01,  2.1118e-01,
          1.2051e-01,  3.2000e-01,  6.7898e-01,  5.9784e-01,  3.9364e-01,
          7.7432e-02,  9.0872e-02,  6.0893e-03,  3.6145e-02,  1.5783e-01,
          3.2584e-01,  3.1649e-01,  6.6654e-02,  2.2487e-02,  1.6542e-01,
          3.6007e-01,  4.1321e-01,  2.5030e-01,  1.6608e-01,  1.2477e-01,
          1.3213e-02, -1.2925e-02,  4.6439e-02,  1.6619e-02,  1.5933e-01,
          6.3192e-02, -8.6726e-03,  6.2067e-02,  1.4275e-01,  2.2565e-01,
          1.6119e-01,  9.1587e-02,  1.8198e-02,  6.6952e-02,  4.7546e-02,
          1.1614e-01,  1.3199e-01,  6.9305e-02,  4.7541e-02],
        [-5.3665e-02,  2.3386e-02, -4.3984e-02,  1.5049e-01,  2.4146e-01,
          3.1937e-01,  3.4501e-01,  1.6591e-01,  2.5805e-01,  1.9415e-01,
          3.0790e-01,  2.1483e-01,  6.7978e-02, -6.3220e-03,  1.0183e-02,
          2.1116e-01,  5.0652e-01,  6.9307e-01,  4.2778e-01,  4.6476e-01,
          2.7339e-01,  8.5792e-02,  2.3202e-02,  2.1659e-01,  2.3462e-01,
          2.9290e-03, -3.4812e-02, -9.7235e-02,  2.9639e-02,  3.8657e-02,
         -5.7237e-04,  5.6991e-02,  2.7621e-02,  1.8131e-02,  2.4373e-03,
         -1.0928e-03, -8.4571e-02,  8.0803e-02, -8.3597e-02,  1.5862e-02,
         -2.8062e-01, -1.4958e-01, -1.6834e-01, -2.9041e-01, -4.7839e-02,
         -4.0376e-02, -1.7537e-01, -2.2208e-01, -1.2414e-01, -1.8549e-01,
         -1.3041e-01, -6.9637e-02, -1.8805e-02, -1.3051e-01, -1.4188e-01,
         -2.5042e-01, -1.7359e-01, -4.6114e-02,  9.7305e-02,  1.1700e-01,
         -1.5736e-01, -1.5873e-01, -1.9446e-01, -2.6185e-01, -4.8984e-01,
         -3.6900e-02, -2.2689e-03, -1.6435e-01, -1.7097e-01, -1.7429e-01,
          2.7665e-03,  8.6960e-02, -4.0564e-02, -2.3671e-02,  1.1531e-01,
          1.2857e-01,  8.1915e-02, -1.7276e-01, -7.0530e-02, -2.5503e-01,
         -1.5817e-01, -1.2346e-01, -9.6742e-02,  7.0763e-02, -1.6785e-01,
         -2.1250e-01, -1.5218e-03, -1.1147e-02,  8.5004e-02,  2.5021e-01,
         -2.5407e-02,  3.8104e-02, -8.2288e-02,  5.5752e-02, -1.5721e-02,
          4.6461e-02,  1.4718e-01, -2.5530e-01, -1.7419e-01, -4.2712e-02,
          3.1120e-02,  6.3881e-02,  2.0751e-01,  8.9830e-02, -6.1411e-02,
          1.0063e-01,  4.6117e-02,  3.6488e-02,  3.0293e-01,  9.3399e-02,
         -1.0037e-01, -9.7131e-02,  1.4892e-01,  2.6365e-01,  1.5932e-01,
          1.0884e-01,  1.1739e-01, -1.0320e-02,  4.6384e-03,  5.2122e-02,
          1.4953e-01,  2.6065e-01,  3.0650e-01,  1.9053e-01,  1.3545e-01,
          1.6066e-01,  1.4010e-01,  1.5534e-01,  8.9593e-02,  1.1098e-01,
         -4.2291e-03,  1.3816e-01, -3.2332e-02,  1.1612e-01,  1.5634e-01,
          2.3575e-01,  1.2456e-01,  3.0848e-02,  8.2217e-03, -1.0984e-02,
          3.2641e-02, -1.6033e-01,  3.5750e-02,  2.7145e-02, -1.2170e-01,
         -1.9610e-01, -9.9542e-02, -6.0157e-02, -1.7641e-01, -2.7202e-01,
         -2.3978e-01, -3.5457e-01, -5.0941e-01, -4.7337e-01, -3.2917e-01,
         -7.8800e-02, -4.5657e-02, -1.5247e-01, -3.1668e-01, -4.4186e-01,
         -4.4907e-01, -5.2037e-01, -6.1734e-01, -6.8333e-01, -7.1654e-01,
         -6.6689e-01, -4.5511e-01, -2.1227e-01,  2.4031e-02],
        [-1.5864e-02, -1.0697e-01, -1.5114e-01, -1.1217e-01, -1.5018e-01,
         -1.7734e-01, -1.7197e-01, -2.8131e-01, -3.2059e-01, -2.2603e-01,
         -3.0846e-01, -2.3835e-01, -1.4985e-01, -3.8528e-02, -1.1449e-01,
         -2.0722e-01, -4.1514e-01, -5.2673e-01, -4.3092e-01, -2.9822e-01,
         -2.1922e-01, -1.3683e-01, -9.7677e-02, -1.5264e-01,  8.5470e-02,
         -9.1262e-03, -1.2619e-01, -1.5583e-01, -3.2887e-01, -3.3330e-01,
         -1.4281e-01, -1.7380e-02,  2.1293e-02, -1.1984e-02,  4.4890e-02,
         -1.9779e-02,  2.5149e-01,  3.6219e-01,  2.1804e-01, -9.7964e-02,
         -9.9231e-02, -1.0355e-01, -7.4069e-02, -1.3650e-01, -1.3498e-01,
         -8.9950e-02,  5.1700e-02,  2.1349e-01,  2.5046e-01,  3.1092e-01,
          5.0222e-01,  3.7365e-01, -2.2059e-01, -1.0460e-01, -1.0315e-01,
         -1.7955e-01, -7.3338e-02, -9.1363e-02, -1.1166e-01,  5.2400e-02,
          2.1475e-01,  1.8337e-01,  1.9560e-01,  3.7708e-01,  4.2618e-01,
         -1.9071e-01, -2.7549e-01, -4.9869e-02,  1.1631e-01,  2.3639e-01,
          3.0104e-01,  1.7253e-01,  6.9923e-02, -3.3034e-02, -1.5256e-01,
         -1.1223e-01, -4.2080e-02,  3.3036e-01, -6.5317e-02,  1.9078e-01,
          2.5513e-01,  4.2159e-01,  3.4705e-01,  4.5397e-01,  1.3715e-01,
         -1.5077e-01, -1.4649e-01, -6.1201e-02, -1.2149e-01, -6.4774e-02,
         -1.6492e-03, -8.7867e-03,  8.5913e-02,  2.1660e-01,  2.6782e-01,
          2.2637e-01,  5.6580e-02, -1.3626e-01,  6.4905e-02, -1.3702e-02,
         -2.1908e-01, -1.6822e-01, -1.1018e-01, -3.3841e-02, -1.2745e-01,
         -8.2046e-02,  2.6503e-02,  2.3605e-01,  1.2238e-01, -3.1970e-02,
         -2.0485e-02,  1.4177e-01, -3.2394e-02, -6.2219e-02, -6.9595e-02,
         -1.0372e-01, -2.6829e-01, -9.7896e-02, -1.1515e-01, -6.0791e-02,
         -2.5580e-02, -7.2854e-02, -2.0929e-01, -1.5008e-01, -5.5037e-02,
         -1.0237e-01,  4.9612e-05, -1.4672e-02,  2.0874e-02, -4.6375e-02,
         -2.9983e-01, -2.3741e-01, -6.2487e-02, -1.3030e-01, -4.7604e-02,
         -6.9370e-02, -1.1728e-01, -5.8743e-02,  2.2759e-02,  7.2795e-02,
          2.1836e-01,  2.4908e-01, -1.7857e-02, -1.2640e-01, -2.2226e-01,
         -2.1326e-01, -6.3571e-02, -3.3993e-02,  2.0040e-01,  1.3126e-01,
          6.8086e-02,  2.0226e-01,  2.6589e-01,  3.2205e-01,  2.9915e-01,
          8.2635e-02, -1.4986e-01, -1.9232e-01, -1.1022e-01, -8.3386e-02,
         -9.8374e-02, -2.2810e-02,  5.6263e-02,  3.7679e-02,  2.1533e-01,
          2.4807e-01,  2.8871e-01,  1.6110e-01, -4.4020e-02],
        [-1.2493e-01, -6.8806e-02, -6.3533e-02, -4.0400e-02, -2.4708e-01,
         -1.0689e-01,  3.7715e-02, -1.0427e-01, -5.9332e-02, -2.2028e-01,
         -2.6789e-01, -9.2592e-02, -1.2018e-01, -6.9128e-02, -3.5896e-02,
         -6.9380e-02, -3.6115e-02, -1.6613e-01,  2.3150e-01,  2.5422e-01,
          2.1976e-02,  2.3647e-02, -1.0598e-01, -1.8574e-01, -2.2135e-01,
         -2.3187e-03, -1.1609e-01, -1.2079e-01, -3.1246e-01, -1.6703e-01,
         -1.2317e-01, -1.1163e-01,  1.1091e-02,  2.7501e-01,  1.9482e-01,
          4.3088e-02,  7.1005e-02, -1.8337e-01, -2.0665e-01, -4.9525e-03,
         -5.7422e-02, -1.4944e-02, -2.4462e-01, -1.6683e-01, -1.1600e-01,
          1.7720e-01,  2.9610e-01,  3.4192e-01,  2.1508e-01,  3.9119e-02,
          9.2300e-02, -2.2806e-01, -1.3669e-01,  1.0224e-01, -8.3196e-02,
         -1.3162e-01, -2.4904e-01, -2.1440e-01, -1.1200e-02,  3.1885e-01,
          3.7344e-01,  1.8747e-01,  8.9535e-02,  1.5560e-01, -9.3541e-02,
         -9.0783e-02, -7.2013e-02, -8.8441e-02, -2.3265e-01, -1.2339e-01,
         -2.8795e-01, -2.4975e-01, -9.6492e-02,  8.7149e-02,  1.6525e-01,
          1.1230e-01,  1.3854e-01, -1.7213e-02, -1.7075e-01, -2.5731e-01,
         -1.4556e-01, -1.1468e-01, -4.5627e-02, -1.3633e-01, -1.8552e-01,
         -2.1169e-01, -1.4012e-01,  2.1040e-02, -9.0793e-02, -3.8518e-02,
         -4.4851e-02, -3.8895e-02, -1.1129e-01,  7.7783e-02, -4.7666e-02,
         -7.7014e-02,  4.0929e-02, -1.8916e-01, -3.2802e-02, -1.4030e-01,
         -2.8364e-01, -2.2136e-01, -2.1925e-01, -1.5942e-01,  1.2890e-01,
          2.8602e-01,  3.7873e-02, -9.0621e-02, -2.7390e-02, -1.1381e-01,
         -3.0757e-01, -1.0773e-01, -1.6967e-01, -3.3928e-01, -1.5762e-01,
         -2.4466e-01, -1.0906e-01, -3.6656e-02,  3.1019e-01,  2.6875e-01,
          1.5144e-01,  7.6957e-02, -9.1365e-02, -1.8631e-01, -9.1386e-02,
         -5.7677e-02, -5.4996e-02,  1.7316e-02,  1.9141e-03,  1.7249e-02,
          8.0257e-02,  2.4961e-01,  4.2383e-01,  3.9897e-01,  2.9524e-01,
          2.7747e-01,  2.1501e-01,  3.5988e-02,  3.2179e-03, -3.9577e-02,
          1.0734e-01,  2.0713e-01,  4.6668e-02, -3.5111e-02,  8.8627e-02,
          9.5104e-02, -4.5474e-03,  1.4223e-04,  9.1769e-02,  1.5269e-01,
          6.6417e-02, -1.9657e-03,  4.1203e-02,  8.8130e-02,  2.0757e-01,
         -7.5358e-03, -5.4916e-02, -5.1178e-03, -1.2641e-01, -6.4111e-03,
         -2.0310e-02,  2.3352e-02,  1.4421e-01,  2.3892e-02,  9.2067e-03,
         -5.6936e-02, -5.7057e-03,  3.6039e-02,  8.5839e-02],
        [ 6.1504e-02, -2.1765e-02, -1.3817e-02,  5.6553e-02,  1.1914e-01,
          9.7077e-02,  1.5281e-01, -1.0952e-01,  4.7703e-02, -2.8620e-02,
          1.1282e-01,  1.2655e-02,  9.3211e-02,  3.3705e-03, -2.0992e-02,
         -8.9074e-02, -1.1203e-01,  1.7749e-01,  4.0595e-02,  3.3940e-02,
          3.7097e-02,  3.2556e-02,  5.6548e-02,  7.0490e-02, -4.1102e-02,
         -4.6981e-02,  4.7098e-02, -1.4752e-01,  1.1663e-02,  1.7241e-01,
          7.4533e-02,  1.0489e-01,  5.3456e-02,  1.8895e-02, -8.0857e-02,
         -2.5557e-02, -1.6339e-02, -8.9446e-02, -9.3826e-02, -8.6713e-02,
         -8.6695e-03,  1.6785e-02,  7.8654e-02,  7.2789e-02, -2.7425e-02,
         -1.0071e-01,  1.5108e-02,  1.1330e-02, -1.6147e-02,  4.5644e-02,
         -2.4798e-02, -5.5710e-02, -5.1178e-02, -1.0571e-01,  1.9074e-02,
          1.0843e-02, -9.6777e-02,  1.7982e-02,  8.3945e-02,  8.5409e-02,
          8.2130e-02,  1.2341e-01, -5.1862e-02, -3.9690e-02, -2.9091e-01,
         -8.6667e-02, -2.2610e-02,  9.1939e-03,  2.5743e-02,  2.7687e-02,
          8.6877e-02,  7.3579e-02,  1.0501e-01,  1.1978e-01,  1.2562e-01,
          2.0277e-01,  1.7722e-01, -3.5499e-01,  3.0907e-02,  9.5183e-02,
          3.0753e-01,  1.5791e-01, -5.5982e-02, -7.1059e-02, -2.2727e-01,
         -1.7675e-01,  9.7083e-02,  1.1967e-01,  4.1050e-01,  7.3915e-01,
          1.8829e-01, -4.7682e-02,  1.4960e-01,  4.8933e-01,  4.5017e-01,
          7.1534e-02, -9.7450e-02, -2.6214e-01, -1.9630e-02,  5.6940e-02,
          7.9557e-02,  1.0100e-01,  3.5434e-01,  3.5798e-01, -1.0979e-01,
         -2.0354e-02,  5.7430e-01,  8.7242e-01,  9.3026e-01,  3.9078e-01,
          5.8368e-02,  6.2936e-04,  2.5220e-02, -4.6662e-02, -2.5747e-02,
          3.8727e-01,  4.2117e-01, -1.1213e-01, -2.4315e-01, -6.2554e-02,
          1.4312e-01,  4.9691e-01,  8.3154e-01,  4.9714e-01,  1.4447e-01,
         -3.4230e-02, -8.4008e-02,  4.1593e-02,  3.8618e-01,  3.4544e-01,
         -2.7878e-01, -2.3784e-01, -3.3819e-01, -4.1088e-01, -3.0885e-01,
         -1.0800e-01,  8.3019e-02,  4.7898e-02,  1.6076e-03, -8.1102e-02,
          5.8653e-02,  3.3088e-01,  2.9932e-01, -8.8634e-02, -2.8976e-01,
         -2.1601e-01, -1.4192e-01, -2.0594e-01, -1.8776e-01, -7.2305e-02,
         -7.7345e-02,  1.2524e-02,  1.3481e-01,  1.7561e-01,  3.3250e-01,
          7.8723e-02,  3.5548e-02, -1.4731e-01, -1.3164e-01, -1.3313e-01,
         -1.5062e-01,  1.7933e-03,  8.1784e-03,  6.2288e-02,  1.2389e-01,
          8.3979e-02, -1.0182e-01,  4.0786e-02,  8.5295e-02],
        [-4.5473e-01, -3.9197e-01, -3.3556e-01, -3.5572e-01, -1.6275e-01,
         -3.7501e-02, -2.1322e-01, -4.2844e-01, -2.9231e-01, -5.2252e-02,
         -2.1348e-01, -2.0867e-01, -3.1657e-01, -3.9437e-01, -3.2260e-01,
         -1.9817e-01,  7.6241e-02,  1.5520e-01,  1.0964e-01,  1.3245e-01,
          5.2006e-02, -4.9500e-02,  1.3292e-02,  2.0451e-02,  1.3689e-01,
          7.8634e-02, -4.2681e-01, -3.0666e-01, -1.7905e-01, -2.5865e-01,
         -1.4225e-01,  4.1719e-02,  7.3016e-02,  1.0275e-01, -1.8002e-02,
          4.9259e-02, -3.1280e-02,  1.8240e-01,  1.6721e-01, -3.4030e-01,
         -3.3389e-01, -3.0755e-01, -8.5529e-02, -1.5170e-01, -2.5854e-02,
          7.4118e-02,  1.4683e-01, -5.6064e-02, -7.6601e-02, -3.0979e-02,
          6.0567e-02,  1.1174e-01, -3.5147e-01, -2.4104e-01, -1.7384e-01,
         -5.4527e-02,  2.4376e-03, -9.0334e-02, -6.5697e-02, -5.3753e-02,
         -1.5642e-01, -6.1776e-02, -1.7549e-02, -1.4142e-01,  2.9297e-02,
         -3.3239e-01, -1.7847e-01,  1.2270e-01,  1.8849e-01,  1.1498e-01,
         -6.8842e-05, -2.0108e-01, -2.7767e-01, -1.4003e-01,  2.2013e-02,
         -9.1148e-03, -1.8254e-01, -2.5628e-01, -3.5788e-01, -5.7641e-02,
          1.4234e-01,  1.2073e-01,  2.0378e-01,  1.9019e-01,  3.0274e-01,
          6.2606e-03,  2.2527e-01,  1.5441e-01,  3.1137e-01, -1.9347e-02,
         -3.0705e-01, -3.6954e-01,  1.2367e-01,  1.6535e-01,  8.8581e-02,
          2.3817e-01,  4.0369e-01,  2.3633e-01,  6.6979e-02,  7.7083e-02,
         -1.1729e-01, -3.2279e-01, -3.3333e-01, -2.4066e-01, -3.1244e-01,
         -2.3460e-01, -4.8244e-02,  1.3257e-01,  3.5268e-01,  2.4551e-01,
         -4.2650e-02,  8.9878e-02, -3.6741e-02, -2.4057e-01, -1.7398e-01,
         -7.9607e-02, -1.7354e-01, -3.3497e-01, -6.9741e-02,  5.8763e-02,
          9.5405e-02,  1.4524e-01,  1.0770e-02, -5.1321e-02,  5.0154e-02,
          3.6874e-02,  1.0110e-01, -4.0433e-02, -4.5610e-02,  2.4060e-02,
         -4.0465e-01, -9.2286e-02,  7.8060e-02,  1.0616e-01, -4.3717e-02,
         -9.3604e-02, -2.3666e-02,  2.6375e-02,  2.5666e-02,  1.1353e-01,
          1.2181e-01,  7.7357e-02,  1.4270e-01, -3.0409e-01, -5.7711e-02,
         -2.0138e-01, -1.0388e-01, -1.2382e-03, -1.1564e-01, -2.5280e-02,
         -9.9827e-02, -4.0742e-02,  1.3613e-01,  1.5268e-01,  2.4831e-01,
         -7.4814e-02, -4.0404e-01, -1.8683e-01, -1.1394e-01, -7.0998e-02,
         -5.6202e-02, -4.2698e-02, -6.0942e-02, -7.8744e-02,  8.0822e-02,
          1.5284e-01,  1.8662e-01, -4.1459e-02, -1.8857e-01],
        [-2.3080e-01, -2.7957e-01, -2.1594e-01, -1.6444e-01, -1.4372e-01,
         -3.0811e-01, -2.5348e-01, -1.0308e-01, -1.2417e-01, -3.0781e-01,
         -1.3234e-01, -1.7408e-01, -2.8302e-01, -1.7033e-01, -1.7762e-01,
         -1.5312e-01,  4.4113e-02,  1.8865e-01,  6.7804e-02, -6.5241e-02,
         -9.4728e-02, -2.9434e-02, -2.4700e-01, -3.3260e-01, -8.9877e-02,
          8.2847e-03, -1.8336e-01, -1.3108e-01, -1.4414e-01,  5.7080e-02,
          6.0988e-02, -2.4432e-02, -3.8289e-02,  6.4021e-02,  4.6042e-02,
          3.2074e-02,  6.9708e-03, -3.0155e-02,  1.7122e-02, -1.8179e-01,
         -1.7417e-01, -1.5506e-02,  2.8579e-01,  1.6482e-01,  8.2527e-02,
          4.7666e-02,  2.1398e-02,  3.1365e-02, -1.0001e-02,  9.1307e-02,
         -1.1752e-01, -2.3745e-01, -1.2174e-01, -1.6259e-01,  1.0019e-01,
          1.5206e-01,  2.0669e-01,  8.0047e-02, -7.3920e-02,  2.9915e-02,
         -1.4771e-02,  7.1671e-03,  1.1563e-02,  1.4323e-02, -7.6472e-02,
         -2.0142e-01,  2.0786e-01,  2.2479e-01,  1.4587e-01,  1.1465e-01,
         -1.9105e-01,  9.8865e-02,  2.8670e-01,  1.1517e-01,  2.3041e-01,
          1.1646e-01,  2.9745e-01,  1.0653e-01, -3.0386e-01, -3.5884e-02,
         -1.5164e-01, -1.9684e-01, -2.3333e-01, -1.9761e-01,  2.4712e-01,
          2.2665e-01, -2.0494e-02,  1.9058e-01,  2.3871e-01,  3.6508e-01,
          4.9265e-01, -9.0290e-02, -1.6884e-01, -2.4731e-01, -3.2110e-01,
         -2.4651e-01, -8.4838e-02,  2.3697e-01,  1.8581e-02, -1.1502e-01,
         -1.2789e-01, -1.6233e-01,  1.5254e-01,  3.6148e-01,  6.1125e-02,
          1.6277e-01,  1.7584e-01, -1.8896e-01, -2.6071e-01, -3.6732e-03,
          2.7407e-01, -1.7355e-02, -1.7429e-01, -1.0113e-01, -4.6216e-02,
          3.1624e-01,  3.7698e-01,  4.3094e-02,  2.2189e-01,  3.9822e-01,
          3.7449e-01,  2.5007e-01,  1.6546e-01,  2.1036e-01, -1.6163e-01,
         -1.1586e-01,  9.4220e-02,  1.6139e-01,  4.0444e-01,  3.0515e-01,
         -2.8534e-02,  2.3207e-01,  2.1872e-01,  3.4821e-01,  4.8796e-01,
          2.9078e-01, -1.2344e-01, -1.2340e-01,  4.2461e-02,  1.7714e-01,
          3.0900e-01,  8.9446e-02, -6.2196e-02, -2.7478e-01,  1.3574e-01,
          1.2876e-01,  1.3055e-01,  4.2145e-02, -6.4344e-02, -2.0187e-02,
          5.9014e-02,  1.4152e-01,  3.2769e-02,  1.7072e-02,  1.3197e-02,
          1.7679e-02, -1.9224e-01, -1.4245e-01, -1.2250e-01, -1.6286e-01,
         -2.9378e-01, -2.2934e-01, -9.4192e-02, -1.5153e-01, -1.1505e-01,
         -1.6207e-01, -1.2734e-01, -2.1783e-01, -6.2419e-02],
        [-2.3664e-01, -2.6434e-01, -1.2747e-01, -1.8508e-01, -1.2278e-02,
         -2.0773e-02,  4.6982e-02, -3.6187e-02,  1.1179e-03,  2.0886e-01,
          1.0944e-01, -6.9023e-02, -1.7357e-01, -1.6510e-01, -2.5770e-01,
         -1.6857e-02,  2.6325e-01,  3.7930e-01,  3.2268e-01,  2.2839e-01,
          1.6299e-01,  3.9581e-02,  1.9257e-01,  1.4198e-01,  2.1261e-01,
          7.2075e-02, -1.8854e-01, -1.2252e-01,  6.5434e-02,  1.3084e-01,
          2.2905e-01,  2.7358e-01,  2.3895e-01,  2.6827e-01,  4.0779e-01,
          5.2341e-01,  2.5992e-01,  2.9267e-01,  1.9847e-01, -2.1449e-01,
         -3.7750e-02,  3.8094e-02,  3.7932e-02,  1.1052e-01,  2.1953e-01,
          2.5382e-01,  1.4887e-01,  5.3933e-02,  7.3682e-02, -1.2401e-01,
         -1.1846e-01,  1.3632e-01, -1.5149e-01,  2.0886e-02,  1.0820e-02,
          5.6907e-02,  9.7631e-02, -4.8181e-02, -8.7672e-02, -2.2304e-01,
         -4.8703e-01, -2.8622e-01, -2.6573e-01, -3.8389e-01, -9.6844e-03,
         -2.4678e-01,  5.3360e-02,  1.1490e-01,  6.0850e-02,  4.4456e-02,
         -1.9668e-01, -8.7482e-02, -5.7202e-02, -2.3879e-01, -9.4140e-02,
         -1.8389e-01, -2.0541e-01, -3.5866e-01, -2.1295e-01, -4.4278e-02,
         -9.0340e-03, -1.4899e-02, -9.0524e-02, -2.2361e-01,  4.0965e-01,
          5.1995e-01,  1.2848e-01,  2.1694e-01,  7.8590e-02, -1.2389e-01,
         -1.3449e-01, -1.6095e-01,  2.4090e-01,  7.2133e-03, -1.9040e-02,
         -8.0813e-02,  1.1879e-01,  4.6315e-01,  3.2807e-01,  1.4343e-01,
          3.1473e-01,  2.3420e-01, -4.2092e-02,  2.2917e-02,  9.4513e-02,
          1.5526e-01, -4.8782e-02, -3.4485e-02,  5.1248e-02,  2.6651e-01,
          4.3022e-01, -7.5111e-03, -9.2964e-02,  1.5225e-01,  6.0505e-02,
          3.6896e-02, -3.1904e-02, -4.0868e-02,  1.4655e-01, -1.1241e-02,
          7.7945e-02,  4.3869e-03, -2.5867e-02,  9.1056e-02, -2.3795e-02,
         -4.0033e-02,  1.0796e-01, -8.2678e-02, -1.2531e-01,  3.3705e-02,
          9.5618e-02, -2.0505e-02,  1.3431e-02,  8.2710e-02,  7.0308e-02,
          2.2280e-02,  6.8230e-02,  1.4961e-01,  3.1317e-02,  1.4603e-01,
         -7.9916e-02, -1.3981e-01,  4.6574e-03, -4.7795e-02,  1.9771e-01,
         -2.8054e-02,  3.5712e-02,  7.6749e-02,  8.7629e-04,  6.1519e-03,
         -1.4048e-02,  1.6335e-02,  6.2541e-02,  1.2492e-02,  6.4949e-02,
          2.9743e-02, -1.1190e-01, -1.1296e-01,  1.1838e-02,  6.8109e-02,
          5.4768e-02, -1.1910e-01, -1.2202e-01, -4.6035e-02, -3.8914e-02,
          7.8415e-02,  2.6130e-02, -9.5921e-02, -5.3787e-03],
        [-4.5754e-01, -4.4073e-01, -3.8335e-01, -2.3987e-01, -2.2753e-01,
         -1.8833e-01, -4.5619e-01, -4.5006e-01, -3.9851e-01, -2.5890e-01,
         -4.1348e-01, -2.7197e-01, -3.6100e-01, -4.1514e-01, -3.7086e-01,
         -3.1656e-01, -1.4515e-01, -1.6636e-01, -1.8701e-01, -2.2452e-01,
          8.3345e-03,  2.1306e-01,  2.0999e-01,  1.2225e-01,  1.1445e-02,
         -2.0390e-01, -3.2252e-01, -2.1691e-01, -2.9401e-01, -1.6750e-01,
          1.3311e-02, -5.4859e-02,  7.1800e-02,  2.4271e-01,  4.7751e-01,
          4.6125e-01,  5.5253e-01,  3.9584e-01,  4.0691e-02, -2.4464e-01,
         -2.3685e-02,  9.2907e-02,  6.3849e-02,  5.0402e-02,  8.0628e-02,
          1.4239e-01,  1.1543e-01,  2.6938e-01,  5.2627e-01,  5.7937e-01,
          6.8024e-01,  2.3577e-01, -2.0568e-01,  9.4534e-02, -2.0430e-02,
          1.3550e-02,  1.2688e-01,  1.2712e-01, -2.9961e-01, -3.0385e-01,
          2.0058e-01,  4.7830e-01,  4.8299e-01,  5.3070e-01,  3.1648e-01,
         -1.9043e-01, -9.6050e-02, -1.6444e-01, -3.4970e-02, -6.0546e-02,
         -1.8777e-01, -3.7472e-01, -2.0472e-01,  2.3155e-01,  3.4435e-01,
          3.0920e-01,  3.5404e-01,  4.4603e-01, -1.7918e-01, -1.0841e-01,
         -1.3723e-01, -8.3140e-02, -4.1005e-02, -5.6875e-02, -8.9851e-02,
         -4.7183e-02,  1.7712e-01,  6.9036e-02, -2.0140e-02,  8.9956e-02,
         -9.5640e-02, -2.9848e-01, -4.4760e-02, -4.7357e-02,  1.2163e-01,
          4.2101e-02,  1.6508e-01,  5.4273e-02,  2.2651e-02, -3.4621e-03,
         -1.4980e-01, -1.6216e-01, -2.3568e-01, -7.7776e-02, -3.6561e-01,
          1.2084e-02, -6.4268e-02, -6.3532e-02,  3.2442e-02,  2.1864e-01,
          4.7467e-02,  5.4526e-02, -7.9698e-03, -1.5773e-01, -1.2218e-01,
          7.3075e-02,  6.0614e-02, -2.3467e-01,  3.5985e-03,  2.4547e-01,
          3.6976e-01,  3.7132e-01,  1.9455e-01,  2.5245e-02,  1.0475e-01,
          1.0906e-01,  1.2650e-01,  1.6868e-01,  3.2629e-01,  1.0216e-01,
         -2.8738e-01,  1.1449e-01,  2.1386e-01,  2.6546e-01,  2.0267e-01,
         -9.7762e-02, -3.6172e-02,  1.0059e-01,  1.3871e-01,  2.6108e-01,
          3.0607e-01,  3.8779e-01, -6.4219e-02, -3.0415e-01, -1.7743e-02,
          2.3354e-01,  2.5021e-01,  3.5293e-02, -1.0800e-01, -1.8496e-04,
         -3.4371e-03,  5.9236e-03,  1.1469e-01,  4.1135e-01,  3.0997e-01,
         -1.1301e-01, -3.2718e-01, -8.8839e-02,  6.9282e-02, -1.7327e-02,
         -1.8645e-01, -1.2412e-01,  4.6202e-02, -5.3671e-02, -1.1494e-01,
         -7.3093e-03,  5.3039e-02, -1.0375e-01, -3.2358e-02],
        [-1.4836e-01, -6.5056e-02, -1.0208e-01, -4.6162e-03,  7.7906e-02,
          1.8832e-01,  1.8345e-01,  1.9209e-01, -8.1454e-03,  1.3654e-02,
          1.1337e-01, -3.2114e-02, -3.9172e-02, -1.2494e-01, -8.8402e-02,
         -1.5711e-01, -1.0140e-01, -2.4596e-02, -1.2246e-01, -1.2139e-01,
         -7.1651e-02,  8.0193e-02,  1.4949e-01,  7.0027e-02,  1.2900e-01,
         -3.7486e-02, -1.7026e-01, -2.0957e-01, -2.8111e-01, -3.7596e-01,
         -2.2300e-01, -8.2334e-02,  2.0879e-02,  9.6063e-02,  8.2470e-02,
          1.4269e-01,  9.6120e-02,  9.5575e-02,  1.5179e-01, -9.8558e-02,
         -4.1754e-01, -4.4494e-01, -1.6460e-01, -8.7650e-02, -9.9293e-02,
         -6.4525e-02, -6.4612e-02,  4.6765e-02, -5.3589e-02,  1.3041e-01,
          2.3680e-01,  2.0406e-01, -7.6549e-02, -5.1130e-01, -3.2623e-01,
         -3.5633e-02,  1.4670e-01,  2.1279e-01,  2.3624e-02, -5.6675e-02,
         -7.3736e-02,  9.2998e-03,  5.8440e-02,  2.3839e-01,  5.4713e-01,
         -1.6638e-01, -2.8287e-01,  1.3034e-01,  2.4071e-01,  2.2706e-01,
          2.1493e-01,  7.4312e-02, -1.4391e-01, -2.8869e-01, -1.1431e-01,
         -1.4415e-01,  4.3407e-02,  4.6366e-01, -1.3732e-01, -7.4937e-04,
         -2.6184e-02, -1.1434e-02, -1.4314e-01, -7.8155e-02, -1.0514e-01,
         -5.8974e-02, -3.1293e-01, -1.1801e-01, -2.1648e-01, -3.5331e-01,
          2.0091e-01, -1.3901e-01, -4.3708e-01, -5.1257e-01, -3.4175e-01,
         -8.3694e-02,  2.2428e-02,  1.9572e-01, -5.0376e-02, -1.6477e-01,
         -1.4189e-01, -4.3824e-01, -4.5639e-01, -3.2821e-02, -2.2891e-02,
         -2.4228e-01, -4.4906e-01, -2.4251e-01,  1.2146e-01,  1.2243e-01,
          2.2295e-01, -5.8731e-02, -2.4309e-01, -2.4245e-01, -1.6963e-01,
         -3.7381e-02,  1.5769e-01, -4.7897e-02, -1.6995e-02, -4.8305e-02,
         -1.0380e-02,  8.0950e-02, -3.4831e-03,  2.4267e-02, -6.0136e-02,
         -6.9716e-02,  2.8012e-02,  3.6054e-02,  7.7262e-02,  2.4052e-01,
         -1.9525e-01,  3.8482e-02,  9.4804e-02,  1.7837e-01,  1.7291e-01,
         -4.3879e-02,  7.6747e-03,  1.2387e-01,  1.6442e-01,  3.3577e-01,
          2.0959e-01,  4.0008e-01,  2.4081e-01, -6.0340e-02,  8.0622e-02,
          4.5153e-02,  3.8112e-02,  7.6675e-02,  2.6182e-02,  7.4198e-03,
          7.2121e-02,  1.2057e-01,  1.1587e-01,  1.9597e-01,  2.2171e-01,
          3.5075e-02, -1.1393e-01, -4.1689e-01, -3.9346e-01, -2.2571e-01,
         -4.4713e-02,  1.9907e-02, -4.3656e-02, -5.0490e-02, -2.1785e-02,
         -9.4039e-02,  2.8602e-03, -1.1350e-01, -3.2788e-02],
        [-1.3389e-01, -2.0701e-01, -2.3133e-01, -2.4663e-01, -2.1340e-01,
         -2.7981e-01, -3.0514e-01, -4.8464e-01, -4.6856e-01, -2.6851e-01,
         -3.3840e-01, -3.2595e-01, -2.6297e-01, -2.3035e-01, -1.7218e-01,
         -1.1936e-01, -2.9813e-01, -5.3183e-01, -3.6454e-01, -3.1254e-01,
         -2.8932e-01, -1.8914e-01, -1.5079e-01, -9.1896e-02, -2.1805e-01,
         -2.0395e-01, -2.1651e-01, -8.7552e-02, -1.3291e-01, -1.8680e-01,
         -1.5757e-01, -5.7180e-02, -3.6284e-02, -1.6739e-02, -8.2498e-03,
         -4.8221e-03, -4.2142e-02,  4.4613e-02,  4.9290e-02, -1.3263e-01,
         -3.8332e-02,  2.2881e-01,  2.2059e-01,  1.9905e-01,  1.6702e-01,
          4.6340e-02,  1.6815e-01,  2.2105e-01,  1.3407e-01,  1.4013e-01,
          2.4996e-01,  2.0640e-01, -1.4699e-01, -1.6139e-02,  2.1000e-01,
          4.8097e-01,  3.6786e-01,  1.0694e-01,  3.4349e-02,  2.3101e-01,
          2.8650e-01,  2.9493e-01,  2.2647e-01,  5.4041e-01,  3.4424e-01,
         -1.6301e-01,  4.5180e-02,  3.3855e-01,  3.2138e-01,  1.5730e-01,
          6.9230e-02, -5.3602e-02,  3.7267e-02,  2.5483e-01,  2.1642e-01,
          2.2986e-01,  4.5533e-01,  2.9558e-01, -1.3524e-01, -6.0113e-02,
          8.4388e-02, -1.3578e-02,  7.8995e-03,  5.1351e-03, -2.6676e-01,
         -1.1373e-01,  2.3535e-01, -4.7617e-02, -9.4071e-02, -2.2958e-02,
         -7.6781e-02, -8.7674e-02,  3.1901e-02, -4.4666e-02, -1.3299e-01,
         -2.0021e-01, -1.4567e-01, -3.5485e-01,  5.1542e-02,  4.8678e-01,
          6.8502e-02,  1.0873e-02, -8.8756e-02, -1.7710e-01, -1.1699e-01,
         -6.9691e-02,  1.2002e-01, -1.5968e-01, -2.4675e-01, -1.0478e-01,
         -5.9206e-02,  2.3737e-01,  2.4517e-01,  2.1989e-02, -3.9455e-02,
         -7.5571e-02, -3.0719e-01, -1.3586e-01,  5.0026e-02,  3.4551e-01,
         -1.2474e-02, -2.2472e-01,  9.4050e-02,  1.2094e-01,  7.7525e-02,
          1.9645e-01, -9.6841e-03, -9.7212e-03,  7.2512e-02, -2.6808e-01,
         -1.0135e-01,  3.0650e-02, -1.2768e-01,  6.5501e-02,  3.2083e-03,
          2.6362e-01,  1.7103e-01,  4.4601e-02, -5.8008e-03, -4.1517e-02,
          1.2333e-01,  2.3159e-01, -2.2593e-01, -1.2489e-01, -1.0215e-01,
         -1.0265e-01,  4.0522e-02,  1.8229e-01,  1.2515e-01,  1.2946e-01,
          1.2601e-01,  1.4079e-01,  1.5536e-03,  8.9555e-02,  1.8627e-01,
         -7.8870e-02, -1.3591e-01,  1.0871e-01,  1.7175e-01,  1.0771e-01,
          5.1720e-02,  1.3834e-01,  1.7524e-01,  3.4692e-01,  3.6071e-01,
          2.1712e-01,  1.1499e-01,  6.5379e-02, -1.6741e-01],
        [ 4.6194e-01,  4.4782e-01,  5.6242e-01,  5.2499e-01,  4.3902e-01,
          4.9017e-01,  4.2601e-01,  4.4413e-01,  3.8799e-01,  4.7695e-01,
          5.9368e-01,  4.1622e-01,  5.5752e-01,  4.3516e-01,  4.5975e-01,
          3.2554e-01,  1.4365e-01, -4.0290e-02, -2.1012e-01,  3.3706e-02,
         -8.8918e-02, -1.6448e-01,  2.1394e-01,  3.4259e-01,  2.0195e-01,
          7.3736e-02,  5.3767e-01,  2.3446e-01, -6.3987e-02, -1.0062e-01,
         -2.2695e-01, -7.4317e-02,  2.1580e-02,  3.6327e-02, -1.1273e-01,
         -1.3033e-01, -2.6856e-01, -4.5410e-02, -1.2137e-01,  2.7401e-01,
         -9.5589e-02, -3.1779e-01, -2.4120e-02,  7.8262e-02,  1.4014e-02,
          9.4142e-02,  5.9336e-02,  5.6045e-02, -3.3373e-02, -1.6025e-01,
         -5.8137e-02,  8.2363e-02,  3.2653e-01, -2.4594e-01, -9.2793e-02,
         -5.1278e-02,  1.0107e-01,  6.6393e-02, -1.4260e-03,  2.6683e-02,
         -1.3731e-01, -1.4559e-01, -1.5151e-01, -8.9961e-03, -1.0559e-02,
          2.4044e-01, -6.0866e-02,  1.2156e-01,  1.8813e-01,  9.8194e-02,
          1.4845e-01,  7.4860e-02, -4.1000e-02, -1.4493e-01,  1.2935e-02,
          1.6202e-02, -1.1899e-01,  1.4418e-01,  3.8537e-01,  1.8306e-01,
          1.9428e-01,  2.0002e-01,  1.6479e-01, -7.6149e-02, -2.3547e-02,
         -1.3776e-02, -9.5859e-02,  1.9336e-02, -7.4247e-02, -1.5393e-01,
         -1.8819e-01,  3.3582e-01,  1.3402e-01,  2.2601e-01,  4.4894e-02,
         -4.9145e-02, -1.4476e-01, -2.0676e-01, -1.5324e-01, -1.0907e-01,
         -1.1420e-01,  4.3430e-03, -8.8586e-02, -2.4411e-01,  2.3705e-01,
          1.0039e-01,  2.1928e-01,  5.1317e-02, -1.2222e-01, -1.7206e-01,
         -1.9491e-01, -1.6273e-02, -1.3619e-02,  2.0647e-02, -9.7993e-02,
         -2.6553e-01, -2.9613e-01,  2.5884e-01, -4.7822e-02, -1.0695e-02,
          2.7972e-02,  2.7522e-02,  2.9723e-03,  1.2477e-01,  1.0625e-01,
          2.4821e-02, -4.9727e-02, -1.4894e-01, -1.0874e-01, -3.4656e-02,
          2.7347e-01, -3.8434e-02, -1.1086e-01, -1.1394e-01,  3.8011e-02,
         -7.8810e-02, -6.4706e-02, -1.2426e-01, -1.3380e-01, -1.4673e-01,
         -2.7630e-01, -5.2362e-04,  1.4056e-01,  3.0895e-01, -3.5862e-02,
         -3.3773e-02, -9.1451e-02,  4.2643e-02, -9.5599e-02, -1.8314e-01,
         -1.5515e-01, -2.0769e-01, -6.9234e-02, -1.1482e-01,  4.4816e-02,
          2.2131e-01,  3.5569e-01,  1.7474e-01,  2.3193e-01,  7.8951e-02,
          1.6834e-02,  1.2178e-02, -5.3798e-02, -1.0456e-01,  3.0208e-02,
          1.7096e-01,  1.6642e-01,  3.2705e-01,  2.5550e-01],
        [ 2.1669e-01,  1.7877e-01,  1.6551e-01,  1.1020e-01,  1.9661e-01,
          1.3048e-01,  1.2198e-01,  2.2456e-01,  1.9874e-01,  1.6157e-01,
          2.3032e-01,  1.0371e-01,  2.0346e-01,  1.3261e-01,  1.4023e-01,
          2.5489e-01,  2.4510e-01,  1.9395e-01,  7.2701e-02, -3.6930e-02,
         -1.6615e-01,  5.8754e-02, -1.1854e-01,  7.6134e-02,  7.6503e-02,
          1.1215e-01,  9.5762e-02,  1.1452e-01, -6.3947e-02, -9.8892e-02,
         -5.1801e-02,  1.3115e-01,  9.8204e-02,  1.9856e-02,  1.0312e-01,
          8.0297e-02,  3.6397e-02, -1.8039e-01, -4.7386e-02,  1.7424e-02,
         -8.5125e-02, -9.5825e-02, -9.0400e-03, -6.9548e-02,  5.6164e-02,
          5.3939e-02, -1.2157e-03,  4.5584e-03,  5.9775e-02,  6.6359e-02,
         -1.5932e-01, -3.0048e-01,  9.1582e-02, -1.1828e-01,  3.6503e-02,
          4.2409e-02,  1.0699e-01,  1.2324e-01,  7.4810e-02,  2.9677e-02,
         -5.6579e-02, -1.1420e-01,  5.1845e-02, -2.2667e-01, -1.6469e-01,
          4.8231e-02,  1.2124e-01,  1.2027e-01, -3.1290e-02,  8.5771e-02,
         -7.7553e-02, -1.9265e-01, -1.5485e-01, -5.9804e-03, -1.7506e-01,
         -1.0553e-01, -3.3503e-01, -1.6217e-01,  1.3861e-01,  6.5292e-02,
         -1.0680e-01, -3.3021e-01, -5.3725e-01, -5.0985e-01, -3.0725e-01,
         -2.7469e-02, -1.0267e-01, -2.2245e-01, -5.9657e-02,  4.2961e-02,
          3.1743e-01,  5.5863e-02, -2.6246e-01, -6.9735e-01, -7.3741e-01,
         -6.1781e-01, -1.7277e-01,  6.6968e-02, -4.9543e-02, -2.0291e-01,
         -3.5564e-01, -2.0842e-01,  1.1438e-01,  4.5699e-01, -2.9571e-02,
         -3.0420e-01, -5.0366e-01, -5.5835e-01, -1.7448e-01,  2.1030e-01,
          2.0842e-01, -1.2381e-01, -2.1053e-01, -2.1769e-01, -8.8942e-02,
          1.7498e-01,  3.0116e-01,  3.8094e-02, -2.3848e-01, -3.6121e-01,
         -2.8891e-01, -1.3893e-02,  2.5481e-01,  9.1417e-02,  1.9532e-02,
         -6.4512e-02, -1.5928e-02,  9.3206e-02,  1.0053e-01,  2.1250e-01,
         -2.2047e-02, -6.1087e-02,  6.2816e-03,  3.4928e-02,  6.2055e-02,
          4.5746e-02,  3.8400e-02,  1.1872e-03,  1.6458e-01,  1.7509e-01,
          2.4889e-01,  3.4944e-01,  2.9854e-01,  3.8939e-02, -8.9755e-03,
         -4.7376e-02,  9.0889e-03, -2.5014e-02, -4.5828e-02, -5.1152e-02,
         -1.5282e-01,  3.0908e-02,  2.5759e-01,  3.3449e-01,  1.4168e-01,
          1.0282e-01,  1.1567e-01, -2.1316e-01, -2.6791e-01, -2.0379e-01,
         -3.2309e-01, -1.9643e-01, -1.4105e-01, -2.4736e-01, -2.7955e-01,
         -7.1858e-02,  3.0017e-02,  7.9459e-02,  1.3637e-01],
        [ 1.2536e-01,  6.9213e-02,  3.4777e-02,  5.8152e-02,  3.9400e-02,
          2.0119e-01,  6.0004e-02, -5.8114e-02, -9.6491e-02,  9.2096e-02,
          2.1356e-01,  7.5028e-02, -3.7803e-03,  3.3122e-02, -1.2762e-02,
         -5.5298e-02, -8.5992e-02, -4.1483e-01, -6.1067e-01, -4.8035e-01,
         -2.1112e-01,  9.3510e-02,  2.6389e-01,  2.4084e-01,  2.4350e-01,
          3.1564e-02,  3.5833e-02, -9.2663e-03, -1.7244e-01, -3.1195e-01,
         -4.8277e-01, -4.4670e-01, -2.4824e-01, -3.8054e-02,  7.6681e-02,
          4.6197e-02,  7.2346e-02,  1.1537e-01,  8.3219e-02, -7.5175e-03,
         -2.3192e-01, -3.1434e-01, -3.8626e-01, -5.9143e-01, -2.5056e-01,
          4.7739e-02,  1.6722e-01,  1.7354e-01,  5.8865e-02,  4.0232e-03,
          1.1049e-01,  1.4295e-01, -1.1619e-01, -3.0802e-01, -4.5916e-01,
         -4.6665e-01, -3.1722e-01,  4.5197e-02,  1.0873e-01,  1.0875e-01,
          3.4373e-03, -1.0926e-01,  4.1166e-02,  2.4972e-01,  2.8684e-01,
         -6.9363e-03, -4.1480e-01, -6.1041e-01, -4.2259e-01, -2.3822e-01,
          8.4323e-02,  3.6899e-01,  1.3549e-01, -7.6753e-02, -3.1366e-01,
         -2.7798e-01,  1.9722e-01,  3.3560e-01, -3.7760e-02, -2.7052e-01,
         -3.8060e-01, -2.5570e-01, -2.7776e-01,  1.4997e-01,  3.1390e-01,
         -7.0518e-03, -1.6028e-01, -2.9013e-01, -4.9816e-01, -2.6241e-01,
         -2.6673e-01,  4.8743e-02, -1.3916e-01, -3.1521e-01, -1.3424e-01,
         -9.9214e-02,  2.3952e-02, -8.4950e-02, -1.0729e-01, -1.1666e-01,
         -3.3652e-02, -1.0204e-01, -4.0415e-01, -3.9670e-01,  1.2474e-01,
          2.1578e-02,  1.1082e-01,  4.4872e-02, -4.8191e-02, -2.5851e-01,
         -2.5901e-01, -4.1553e-02,  6.1719e-02, -1.0662e-02, -2.7091e-01,
         -1.9611e-01, -3.5550e-01,  1.2142e-01,  1.5464e-02,  6.2430e-02,
          1.9890e-01,  1.1274e-02, -1.5377e-01, -1.2508e-01,  9.3013e-02,
         -6.8585e-02, -1.7181e-01, -2.0175e-01, -1.0283e-01, -2.1576e-01,
         -6.1977e-02, -1.6284e-02,  6.4784e-03, -5.6526e-03,  9.7499e-02,
          2.5593e-02, -4.8902e-02, -8.9751e-02, -8.6433e-02, -1.6063e-01,
         -1.8908e-01, -8.8662e-02, -1.6619e-01, -5.3825e-03, -1.8655e-01,
         -3.8424e-02,  1.7984e-02,  5.3275e-02,  3.7790e-02,  5.9486e-02,
         -2.0598e-02, -1.4432e-02, -6.5440e-02, -6.7722e-02, -5.4648e-02,
          4.3663e-02, -1.3425e-02, -7.5535e-02,  3.6252e-02, -6.2542e-03,
          1.1540e-02, -9.9755e-02, -8.3786e-02,  1.4335e-02,  5.2307e-02,
         -8.3219e-03,  9.5690e-04,  9.6942e-02, -5.2708e-02],
        [-2.3513e-01, -2.1688e-01, -1.8867e-01, -1.5630e-01, -1.4169e-01,
         -1.4178e-01, -1.3614e-02, -1.1637e-01,  1.9911e-02, -1.3327e-02,
         -8.9164e-02, -1.5083e-01, -1.2058e-01, -2.3883e-01, -2.3029e-01,
         -8.7520e-02,  5.0736e-04,  2.3315e-01,  1.8802e-01,  1.9319e-01,
          4.0005e-01,  2.0519e-01,  2.3662e-01,  2.6363e-01,  4.5344e-02,
         -4.3894e-02, -2.1863e-01, -1.4341e-01,  9.1668e-02,  1.1608e-01,
          2.6863e-01,  5.1295e-01,  4.8179e-01,  4.0046e-01,  3.0576e-01,
          2.2924e-01,  2.8198e-01,  5.2575e-01,  5.9251e-02, -7.2500e-02,
          2.0772e-02,  1.6528e-01,  2.4196e-01,  2.6919e-01,  9.2965e-02,
         -1.6631e-02, -2.1658e-01, -1.5124e-01, -2.2641e-02,  8.4655e-02,
          3.9266e-01,  3.3507e-01, -1.9047e-01, -3.2066e-03,  6.3976e-03,
          2.1156e-01,  8.9129e-02, -2.2914e-02, -1.8071e-01, -2.8850e-01,
         -8.4135e-02,  2.3934e-03,  1.1288e-01,  2.9559e-01,  2.6175e-01,
         -2.8533e-01,  9.0598e-02,  6.5493e-02, -4.4892e-02, -8.6967e-02,
          3.0315e-02, -3.5603e-02,  5.0112e-02, -5.8060e-02, -9.3610e-02,
         -1.1605e-01, -4.9976e-02, -5.6800e-02, -1.4991e-01, -2.7267e-01,
         -1.0827e-01, -1.3680e-01, -1.4028e-01,  4.4690e-01,  1.1443e-01,
          1.7976e-02,  7.0493e-02,  1.7726e-02,  9.8728e-02,  2.6823e-01,
          1.4899e-02, -2.4786e-01, -1.3318e-01,  1.9740e-02, -9.5218e-02,
          5.3787e-02,  2.2889e-01, -9.0488e-02, -2.3984e-02,  9.1774e-02,
          2.4089e-01,  4.0463e-01,  4.1845e-01,  2.4158e-01, -3.0725e-02,
          1.5042e-01,  2.8431e-02, -2.9973e-02, -1.0732e-01, -1.8763e-01,
         -7.8267e-02,  5.0520e-02,  4.4049e-02,  3.5430e-01,  6.7111e-01,
          4.5869e-01,  2.4457e-01, -1.6168e-01,  3.1584e-01,  5.2850e-01,
          3.0472e-01,  4.5096e-02, -6.2820e-02, -7.3617e-02,  8.0461e-02,
          1.9556e-01,  3.0623e-01,  4.5487e-01,  2.7933e-01, -3.4299e-03,
         -1.0534e-01,  1.7088e-01,  9.4528e-02,  4.7606e-02,  1.3705e-01,
          2.0022e-01, -3.9429e-02,  1.9074e-01,  4.0206e-01,  3.3878e-01,
          3.5698e-01,  3.2853e-02, -1.1052e-01, -1.1817e-01, -2.1687e-02,
         -2.1627e-01, -1.9986e-01, -3.6657e-02,  9.4627e-02,  1.3575e-01,
          1.6624e-01,  2.7301e-01,  2.7867e-01,  1.9483e-01, -4.2972e-02,
         -1.0125e-01, -8.7474e-02, -1.6806e-01, -3.8502e-01, -2.2694e-01,
         -4.2136e-02, -4.0672e-02, -1.1915e-01, -1.4317e-01, -1.3357e-01,
         -6.3349e-02, -1.2302e-01, -1.5472e-01, -7.0960e-02],
        [-3.4562e-01, -3.5357e-01, -2.3219e-01, -7.1966e-02, -9.5081e-02,
          8.2557e-02,  6.4646e-02, -7.3514e-02, -3.1763e-02, -5.7674e-02,
         -6.5760e-02, -1.9215e-01, -2.0507e-01, -2.6124e-01, -2.3360e-01,
         -1.0360e-01,  2.9414e-01,  5.1408e-01,  4.2549e-01,  5.3056e-01,
          2.1092e-01,  6.7812e-02,  1.0196e-01, -9.8574e-02,  2.6208e-02,
          4.7137e-02, -3.0049e-01, -3.6601e-01, -1.9803e-01, -1.2983e-03,
         -1.1331e-03,  2.3336e-01,  2.7802e-01,  1.0775e-01,  8.6256e-02,
         -2.2353e-02, -4.3136e-03,  9.0365e-02,  3.3095e-02, -2.7076e-01,
         -1.2224e-01, -1.0848e-01, -7.2542e-02, -1.1610e-01,  4.9574e-02,
          9.8585e-02,  1.4148e-01,  1.4301e-01,  9.5045e-02, -3.0441e-02,
          9.3369e-02,  9.9740e-02, -1.6513e-01, -9.7938e-02,  1.8789e-02,
          8.2382e-02,  9.9360e-02,  4.1606e-02,  6.2680e-02,  9.5681e-02,
         -4.7570e-02,  1.2947e-01,  1.6478e-01,  2.9138e-01,  2.5488e-01,
         -2.7301e-01, -1.1294e-02,  6.6574e-02,  9.1935e-02,  7.8425e-02,
         -8.4468e-02,  4.1277e-02, -2.2683e-01, -2.1401e-01, -1.8506e-03,
          2.0639e-01,  5.3711e-01,  3.7765e-01, -2.8455e-01,  1.3682e-02,
          1.4571e-01,  1.4648e-02, -7.1199e-02, -9.0464e-02, -1.8258e-02,
         -3.5087e-01, -2.9504e-01, -1.1595e-01,  1.3733e-01,  2.6899e-01,
          7.4539e-02, -2.0788e-01, -1.8704e-01, -6.6258e-02, -9.5571e-02,
         -8.8908e-02, -9.0716e-02, -7.2956e-02, -2.8440e-01, -2.6880e-01,
         -9.1017e-02, -2.2193e-02, -2.0992e-01, -1.6055e-01, -2.0479e-01,
          1.3748e-02,  3.4728e-02, -1.4839e-01, -1.7341e-01, -7.4343e-02,
         -1.1279e-01, -2.0670e-01, -1.8304e-02,  4.1795e-03, -9.7778e-02,
         -1.1062e-01, -1.1646e-01, -2.9260e-01, -6.6133e-02,  3.9016e-01,
          3.9392e-01,  3.6530e-01,  2.1372e-01,  6.1202e-02,  1.3094e-01,
          2.7048e-01,  3.4402e-01,  2.3706e-01,  2.6764e-01, -6.4337e-02,
         -2.8066e-01, -1.4840e-01,  2.8977e-01,  2.5307e-01,  1.9230e-01,
          2.0537e-01,  3.1913e-01,  3.0821e-01,  2.3993e-01,  2.3856e-01,
          2.6070e-01,  3.5224e-01, -6.1507e-02, -2.0952e-01,  2.6952e-02,
         -4.8723e-02, -1.6548e-01, -1.4510e-01,  8.6835e-02,  2.6864e-01,
          2.5585e-01,  1.2082e-01,  1.3581e-01,  1.0340e-01, -8.9300e-02,
         -7.7219e-02, -1.8962e-01, -2.8828e-01, -3.3466e-01, -2.3212e-01,
         -1.1202e-01, -3.2311e-03,  1.7564e-02,  3.9777e-02,  2.6795e-02,
         -3.1300e-03, -7.5369e-02, -1.1741e-01, -9.2731e-02],
        [ 1.0554e-01,  1.4496e-01,  1.3461e-01,  2.2774e-01,  1.8280e-01,
          5.6754e-02,  1.4578e-01,  1.0752e-01, -9.7559e-02,  8.9772e-02,
          3.8529e-02,  1.5184e-01,  1.2897e-01,  2.4165e-01,  1.8350e-01,
          9.1493e-02, -2.0228e-01, -3.2656e-01, -3.6427e-01, -2.4291e-01,
         -7.4472e-02, -5.2839e-03, -8.6666e-02,  7.4121e-02,  2.5355e-01,
          4.8120e-02,  1.8099e-01, -4.4479e-02, -8.8317e-02, -1.8716e-01,
         -2.0094e-01, -7.7360e-02,  1.2786e-01,  2.9530e-02, -9.2258e-02,
         -3.1640e-02,  5.8588e-02,  1.3649e-01,  6.6546e-02,  4.0220e-02,
         -7.4748e-02, -1.8104e-01, -2.3366e-01, -1.2134e-01,  4.8630e-02,
          1.3006e-02, -1.1532e-01, -1.3092e-01, -1.5228e-02,  2.8325e-02,
          2.8587e-01,  2.4202e-01,  1.9664e-01, -2.1227e-01, -1.8348e-01,
         -2.6798e-01, -7.5334e-02,  2.0681e-01,  8.8282e-02, -1.6411e-01,
         -1.3787e-01, -4.5744e-02,  5.4626e-02,  3.0153e-01,  7.9128e-01,
          1.1351e-01, -2.5696e-01, -5.3528e-01, -4.7440e-01, -5.1453e-02,
          2.8459e-01,  2.6665e-01,  1.0967e-01, -1.3794e-01, -9.3316e-02,
          4.5495e-02,  3.2539e-01,  5.3748e-01,  9.4157e-02,  1.8717e-02,
         -2.4481e-01, -2.7725e-01, -4.9290e-02, -1.1618e-03,  1.6179e-01,
          1.5489e-01, -1.1153e-01, -1.6785e-03, -6.9535e-02, -1.3224e-01,
         -1.7447e-01,  1.2886e-01, -3.0703e-02, -3.9374e-01, -2.2213e-01,
         -1.7891e-01, -1.1338e-01,  1.7105e-01,  7.2368e-02, -1.5203e-01,
         -1.3910e-01, -2.9045e-01, -5.2385e-01, -4.2268e-01,  2.9363e-02,
         -8.6333e-02, -1.0990e-01, -1.8582e-01, -1.7622e-01, -2.3605e-02,
          1.7236e-01, -7.5895e-02, -2.6839e-01, -2.3183e-01, -3.5566e-01,
         -6.7375e-01, -4.1803e-01,  3.3482e-02, -6.6830e-02, -1.3453e-01,
         -1.6077e-01, -6.7954e-02,  1.5872e-02, -1.7857e-02, -2.2239e-01,
         -1.8644e-01, -1.4971e-01, -3.5973e-01, -5.4201e-01, -1.5167e-01,
         -4.0924e-02, -1.8083e-01, -5.2972e-02,  7.5611e-03,  1.2140e-01,
          3.9969e-02,  3.7865e-03, -1.2193e-01, -1.9877e-01, -2.8492e-01,
         -5.1078e-01, -1.8985e-01, -4.4641e-02,  1.1097e-01, -1.2373e-01,
          8.2848e-02,  3.2303e-02,  5.6314e-02,  6.2089e-02,  8.1799e-03,
         -2.0563e-02, -2.3845e-01, -5.0128e-01, -4.4710e-01, -1.8228e-01,
         -1.1821e-01,  8.4443e-02, -2.6263e-01, -6.8556e-04, -8.5826e-02,
          1.8852e-02,  6.1164e-02,  4.0623e-02, -3.2555e-02, -1.6029e-01,
         -2.4835e-01, -1.1128e-01, -5.5834e-02,  4.3130e-02],
        [ 2.9902e-02, -8.9018e-02, -3.5942e-02, -2.9780e-02,  1.2166e-01,
          8.2101e-02,  1.8282e-01, -1.1072e-02,  1.7434e-01,  2.0105e-01,
          1.2280e-01,  1.1780e-01,  6.8282e-02,  1.9419e-02, -6.1994e-02,
          1.0190e-01,  1.3933e-01,  2.9319e-01,  1.2068e-01,  2.1783e-01,
          1.8489e-01,  9.3713e-02,  7.7623e-02,  2.7097e-01,  1.4827e-01,
          1.0975e-01, -1.4443e-01, -8.8895e-02,  1.7195e-01,  1.3598e-01,
          1.1010e-01, -5.3547e-02, -1.6288e-01, -1.1651e-02, -4.5942e-02,
         -5.1399e-03,  2.6716e-02,  1.7665e-01, -1.4214e-02, -9.5723e-02,
          2.0143e-04,  8.6146e-03,  5.6937e-02, -8.4340e-03, -2.2615e-01,
         -3.5376e-01, -1.4337e-01, -2.1000e-02, -1.5231e-01, -1.9108e-01,
         -4.0594e-02,  3.0756e-02, -1.7708e-01, -1.6232e-01, -1.3973e-01,
         -4.4799e-02,  2.3955e-02, -2.6495e-01, -2.9752e-01, -8.9162e-02,
         -1.5637e-01, -2.3336e-01, -2.0155e-01, -2.7458e-01, -2.7096e-01,
         -1.3230e-01, -2.0098e-01, -2.1488e-01, -5.4773e-02, -5.0424e-02,
         -2.1812e-01, -9.2792e-02, -1.5519e-01, -9.8974e-02, -2.1150e-01,
         -6.8632e-02, -3.1503e-01, -3.9700e-01, -1.3479e-01, -1.3619e-01,
         -3.9454e-02,  7.5737e-02,  1.0360e-01,  1.0061e-01, -5.7867e-02,
         -5.0920e-02,  6.8636e-02,  2.3804e-02,  4.9573e-02, -2.4731e-02,
         -1.2542e-04, -1.5364e-01,  8.4416e-02,  1.9986e-01,  1.7311e-01,
          9.2470e-02,  3.3895e-01,  1.8770e-01,  1.2399e-01,  2.4012e-01,
          5.5903e-02,  2.4479e-01,  2.0906e-01,  2.0000e-01, -9.4041e-03,
         -3.5731e-02,  4.4436e-02,  1.8916e-01,  2.3291e-02,  1.8264e-02,
          1.6254e-01,  3.1684e-01,  2.2548e-01,  2.3394e-01,  3.0316e-01,
          2.8432e-01,  2.5013e-01,  1.2920e-02, -5.2469e-02,  4.3382e-02,
          6.1071e-02, -1.7852e-01,  8.3613e-03,  3.7942e-02,  1.0976e-01,
          8.3716e-02, -6.2681e-02, -5.3619e-03,  9.4315e-04,  1.6446e-01,
         -7.8090e-02,  4.4571e-02, -2.2302e-01, -1.8799e-01, -2.1160e-01,
         -1.8782e-01, -9.0037e-02, -1.8334e-01, -1.6517e-01, -3.4817e-01,
         -2.5201e-01, -3.2411e-01, -1.3367e-01, -8.5886e-02, -7.4322e-02,
         -3.1023e-01, -2.2149e-01, -1.9424e-01, -2.0798e-01, -2.8307e-01,
         -2.8619e-01, -3.1440e-01, -2.1116e-01, -1.1182e-01, -2.4691e-01,
         -1.5244e-01, -1.7569e-02, -8.4282e-02, -1.8201e-01, -2.4025e-01,
         -3.4867e-01, -4.9661e-01, -3.3645e-01, -2.8343e-01, -2.1658e-01,
         -2.9643e-01, -2.7634e-01, -2.0652e-01, -5.2001e-02],
        [ 2.7146e-03, -3.3404e-03, -1.0260e-01, -1.5515e-01, -2.3468e-01,
         -1.4998e-01, -2.0992e-02, -4.3991e-02, -1.1752e-01, -2.4539e-01,
         -2.6366e-01, -1.3849e-01, -4.0716e-02, -7.5530e-02, -8.3805e-02,
         -3.0235e-01, -3.1156e-01, -8.8739e-02,  2.0293e-01,  1.9005e-01,
          1.4750e-01,  1.2084e-01,  2.2544e-02, -1.9986e-02, -7.0101e-02,
          7.5069e-02, -9.5409e-02, -5.1120e-02, -1.5803e-01,  2.4050e-02,
         -3.2636e-02,  3.8665e-02,  3.1429e-02,  5.7389e-02,  6.1096e-02,
          3.0477e-01,  2.4566e-01,  7.9590e-02, -1.8973e-02, -1.4268e-02,
          9.4416e-02,  8.1670e-02, -1.3498e-01, -2.0738e-01, -8.9968e-02,
         -1.9487e-01, -3.1134e-01, -8.8316e-02,  1.8327e-01,  3.1603e-01,
          3.0053e-01,  6.2152e-04, -1.7302e-01,  2.2643e-01, -3.6850e-02,
         -1.5920e-01, -1.5733e-01, -4.4758e-02, -1.2299e-01, -3.6583e-01,
          1.1157e-01,  3.5277e-01,  1.9875e-01,  2.6910e-01, -1.6580e-01,
         -1.3733e-01, -5.9942e-02, -3.4378e-01, -2.8481e-01, -2.1240e-01,
         -3.8173e-02, -2.4940e-01, -7.1813e-01,  5.7855e-02,  2.9740e-01,
         -1.5285e-02,  8.0325e-02, -6.1439e-02, -5.2088e-02, -2.5704e-01,
         -1.0957e-01, -6.7485e-02, -2.4804e-02,  2.7014e-01, -2.2497e-01,
         -7.9409e-01, -1.3249e-01,  9.2759e-02, -9.2903e-02,  1.2562e-01,
          1.1306e-01,  6.9571e-02, -1.0229e-01,  8.5130e-02,  9.4273e-02,
          2.0169e-01,  1.0489e-01, -3.4037e-01, -3.4205e-01,  1.4199e-02,
          3.9178e-02,  5.3945e-02,  6.3480e-02,  2.2147e-01, -3.1788e-02,
          5.1252e-02,  5.2880e-02,  4.7948e-02,  6.2961e-02, -1.8779e-01,
         -2.7050e-01,  3.9609e-02,  2.1721e-01,  1.2762e-01,  1.6008e-01,
          1.2453e-01,  1.9505e-01, -6.9909e-02,  1.5925e-01,  1.2784e-01,
          6.0229e-02, -1.6588e-01, -2.4661e-01, -1.6890e-01,  3.6290e-02,
          1.9479e-01,  6.8407e-02,  1.8869e-01, -2.8468e-03,  2.9584e-02,
          5.3611e-02,  2.2453e-01,  7.2445e-02, -5.3754e-02, -1.1616e-01,
         -3.7370e-03, -1.3521e-01, -1.7817e-01, -8.9069e-03,  2.2988e-02,
          8.0730e-02, -1.3043e-01, -2.0147e-01, -1.0038e-01,  1.2181e-01,
         -1.4324e-01,  7.1326e-02,  1.2391e-01,  4.6527e-02, -7.0423e-02,
         -1.1171e-01,  3.0527e-02,  5.6754e-02,  7.2883e-02,  1.2480e-01,
         -1.4140e-01,  1.2799e-02,  8.3695e-03, -1.1250e-01, -7.9413e-02,
          2.9002e-02,  1.4820e-03,  9.6274e-02,  7.6885e-02, -4.1163e-02,
         -1.9797e-01, -1.1924e-01, -6.5286e-02, -2.9602e-02],
        [ 2.5231e-01,  2.7462e-01,  2.5969e-01,  3.3866e-01,  2.9825e-01,
          2.9681e-01,  3.3366e-01,  2.9902e-01,  2.1005e-01,  2.2879e-01,
          3.3909e-01,  2.9198e-01,  2.9995e-01,  2.5908e-01,  1.8229e-01,
          1.6012e-01,  9.1574e-02,  1.7391e-01, -1.6475e-01, -1.5699e-01,
          2.1182e-02, -4.9623e-02,  1.6619e-01,  2.8542e-01,  2.8128e-01,
          2.6699e-01,  1.4422e-01,  1.0692e-01,  8.3469e-02,  5.3153e-02,
          2.2928e-02,  1.4035e-01,  2.7461e-02,  2.9960e-02,  5.6872e-02,
          9.7835e-02,  1.0991e-01,  3.1340e-01,  1.4797e-01,  9.7777e-02,
          7.1395e-03, -1.6688e-02,  1.8781e-01,  2.0817e-01,  1.6623e-01,
          4.0240e-02, -1.9170e-02, -1.4100e-01, -1.2615e-01,  2.3531e-02,
         -3.9378e-02,  1.9106e-02,  2.0582e-01, -1.2880e-02,  1.2043e-01,
          3.3124e-01,  1.9277e-01,  2.0975e-01,  1.3138e-01, -1.4728e-01,
         -1.8728e-01, -2.2045e-01, -2.4603e-01, -1.1982e-01, -1.6190e-01,
          8.5692e-02,  5.1257e-02,  2.4508e-01,  1.2105e-01,  1.1050e-01,
          1.1456e-01, -2.3024e-01, -2.5087e-01, -5.2681e-02, -1.9624e-01,
         -2.0368e-01, -2.8635e-01, -2.8218e-01,  1.2287e-01,  2.1615e-02,
          2.0480e-01, -4.6343e-03,  1.0760e-01,  1.2874e-04, -1.8706e-01,
          6.5626e-02,  4.4301e-03,  3.8970e-02,  1.5956e-01,  3.6545e-02,
          2.3889e-02,  2.1929e-01, -1.7162e-01, -2.2615e-02,  5.9652e-02,
          1.2684e-01,  1.9642e-01,  1.9686e-01,  2.7111e-01,  1.5528e-01,
          2.5163e-04,  1.5017e-01,  5.2722e-02,  2.4511e-01, -1.9218e-02,
         -2.1758e-01, -1.3856e-01,  4.8102e-02,  2.0097e-01,  3.1419e-01,
          2.7615e-01,  1.0987e-01, -9.5498e-02,  5.7411e-02,  1.6950e-01,
          1.5888e-01,  3.4120e-01,  6.9643e-02, -6.3209e-02, -3.1059e-01,
         -3.0646e-01, -9.0952e-02,  1.1615e-01,  6.5918e-03, -9.3193e-02,
         -1.2521e-01,  2.3219e-01,  1.9620e-01,  4.2044e-01,  4.0839e-01,
         -2.4039e-02,  1.9940e-03,  2.4453e-03, -1.2106e-01, -7.5727e-02,
         -3.8708e-02, -8.1780e-02, -2.4674e-02,  2.6302e-02,  3.2818e-01,
          4.1986e-01,  4.7448e-01,  3.7838e-01,  1.1258e-01, -5.0096e-02,
          3.5831e-03, -7.9565e-03, -2.3336e-02, -6.4675e-02, -7.1011e-02,
          7.0899e-02,  2.2817e-01,  4.6007e-01,  4.5944e-01,  3.6629e-01,
          1.6858e-01,  1.4201e-01, -1.2812e-01, -1.1574e-01, -2.4869e-01,
         -2.3894e-01, -2.2254e-01, -1.2190e-01,  1.3289e-01,  2.4362e-01,
          3.8022e-01,  2.6173e-01,  1.6545e-01,  1.3601e-01],
        [-3.4754e-01, -3.6171e-01, -4.4040e-01, -3.6649e-01, -3.5252e-01,
         -5.2701e-01, -5.7788e-01, -6.1978e-01, -3.5455e-01, -4.6676e-01,
         -4.6267e-01, -4.4345e-01, -4.6287e-01, -3.6176e-01, -3.6927e-01,
         -3.0991e-01, -1.1249e-01, -1.3267e-01,  5.8730e-02, -9.6460e-02,
         -1.6669e-01, -9.8486e-02, -1.1777e-01, -8.5812e-02, -1.3013e-01,
         -1.8648e-01, -2.9443e-01, -1.4225e-01,  7.0628e-02,  1.1712e-01,
          1.9444e-01,  2.5585e-01,  6.4829e-02,  2.6200e-02,  1.2079e-01,
         -1.1203e-02, -1.4580e-02, -1.0429e-01, -8.6191e-02, -2.0493e-01,
          1.1499e-01,  9.3718e-02,  1.3782e-01,  2.7071e-01,  2.9423e-01,
          3.4328e-01,  2.3590e-01,  2.4862e-01,  6.3377e-02, -6.4840e-02,
         -2.0074e-01, -2.0072e-01, -2.4424e-01,  1.7231e-01,  2.1553e-01,
          2.9477e-01,  2.4781e-01,  3.3411e-01,  3.0238e-01,  9.1732e-02,
          1.1708e-02,  4.8292e-03, -1.9956e-02, -1.0281e-01, -5.6076e-02,
         -2.0149e-01,  2.8468e-01,  2.9206e-01,  6.6007e-02, -2.3903e-03,
         -1.0240e-02, -2.9686e-03, -2.3226e-02,  1.3900e-01,  3.5837e-03,
         -5.9091e-02, -1.0267e-01, -2.0676e-02, -2.2768e-01,  1.1983e-01,
         -9.7650e-02, -2.5840e-01, -3.5599e-01, -2.0998e-01, -1.0476e-02,
         -1.6650e-02,  2.2616e-01,  3.9670e-02, -2.3970e-01, -3.4938e-01,
         -1.4016e-01, -3.1905e-01, -1.4188e-02, -3.4843e-01, -2.9789e-01,
         -2.8089e-01, -1.2897e-01, -1.5408e-01, -6.8368e-02,  1.5786e-01,
         -1.0492e-01, -1.5297e-01, -2.9201e-01, -1.9476e-01, -1.3293e-01,
         -7.6552e-03, -2.0181e-01, -2.9249e-01, -1.9309e-01, -6.5395e-02,
         -1.1952e-01, -1.7072e-02, -2.4529e-03, -1.0793e-01,  3.7807e-04,
          1.4769e-01, -1.9677e-02, -1.7222e-01, -1.0376e-01, -3.3478e-02,
         -6.4501e-02, -8.1260e-02, -1.2172e-01, -5.1188e-02,  1.0026e-01,
          6.4673e-02,  3.7286e-02,  2.6174e-02,  1.6610e-01, -7.4132e-02,
         -1.1209e-01,  2.7734e-01,  2.7214e-01,  2.2087e-01,  5.4117e-02,
          1.6270e-02,  9.1556e-02,  1.6564e-01,  7.8815e-02,  2.1209e-02,
          8.5718e-02,  6.8402e-03, -1.8832e-02, -2.6718e-01,  1.5576e-01,
          1.2731e-01,  2.1411e-01,  9.7450e-02,  7.1099e-02,  8.2471e-02,
          4.1698e-03, -2.4586e-02, -2.0948e-01, -1.3409e-01,  1.2778e-01,
         -5.1810e-02, -3.5161e-01,  6.5781e-02,  1.3821e-01,  1.5065e-01,
          9.6652e-02,  6.2340e-02,  7.2021e-02,  6.1149e-02,  8.6868e-02,
          1.8741e-01, -1.7089e-02, -1.7932e-01, -2.5473e-01],
        [-1.0823e-01, -8.4040e-02,  3.3961e-02, -2.0042e-01, -1.2682e-01,
         -3.3162e-01, -2.9163e-01, -2.3786e-01, -3.3998e-01, -3.3208e-01,
         -2.4027e-01, -1.8810e-01, -9.1979e-02, -7.2587e-03, -8.8841e-02,
         -8.8871e-02, -2.6351e-01, -1.9976e-01, -2.4194e-01, -4.1408e-01,
         -4.8506e-01, -4.6433e-01, -5.6533e-01, -4.1985e-01, -2.3248e-01,
          2.5162e-02,  3.5928e-02,  9.5935e-02, -1.0110e-01, -8.1613e-02,
         -5.5983e-03, -9.5863e-02, -1.6279e-02, -1.0717e-01, -2.2318e-01,
         -3.1707e-01, -1.5147e-01, -1.8774e-01, -4.9203e-02, -6.3153e-02,
          1.7378e-01, -4.8444e-02, -3.9896e-02, -9.3595e-02,  6.2341e-02,
          2.0812e-01,  1.9123e-01, -5.8175e-02, -8.8901e-02, -7.1483e-02,
         -8.4833e-02, -1.3729e-01,  1.5039e-02,  4.7966e-02, -3.6519e-02,
         -6.1830e-02,  8.0795e-02,  6.0312e-02,  3.3157e-01,  2.3246e-01,
         -3.3461e-02, -1.0940e-01, -8.4264e-03, -5.1818e-02, -7.2834e-02,
          9.6691e-02,  2.3111e-01,  2.6045e-01,  1.5558e-01,  1.5298e-01,
          9.7237e-02,  7.5434e-02, -3.4386e-02, -1.5986e-01,  7.1180e-02,
          8.9498e-02, -5.8717e-02, -2.4460e-01, -4.1845e-02,  7.3500e-02,
         -2.1722e-03, -2.2133e-02, -1.1378e-01, -1.8392e-01, -2.3580e-02,
          3.3722e-02,  1.1779e-01,  1.3541e-01,  1.2044e-02, -1.6874e-01,
          8.4751e-02, -7.1068e-02, -5.4938e-02, -1.6183e-01, -1.9573e-01,
         -2.1134e-01, -7.5813e-03,  2.5194e-01,  4.4700e-02,  1.3139e-01,
          1.2166e-01, -7.4267e-03, -1.1759e-01,  1.1878e-01, -2.2145e-02,
          9.5698e-02,  2.0330e-02, -3.8872e-02, -4.1096e-02,  7.2541e-02,
          2.0192e-01,  1.2326e-01,  1.0871e-01, -4.8637e-02, -8.7380e-02,
         -5.3112e-03,  1.1545e-01, -4.2350e-02, -3.8316e-02,  2.7071e-02,
          4.1248e-02, -6.4692e-02, -1.5684e-01, -3.8024e-02, -8.8805e-02,
         -5.3659e-02,  3.8400e-02,  3.0264e-02,  1.7523e-01,  8.2788e-02,
         -3.2716e-03, -6.1501e-02, -6.5692e-02,  2.6340e-02, -1.2913e-01,
         -3.2979e-01, -2.4704e-01, -1.9977e-01, -1.6224e-02, -7.0829e-02,
          6.5701e-02,  1.0579e-01,  1.8367e-01, -3.9179e-02, -2.6751e-02,
         -2.6168e-02, -6.3020e-03, -1.2817e-01, -1.2466e-01, -1.0441e-01,
         -1.2548e-02,  2.4328e-02,  3.9899e-03,  1.0164e-01,  2.5081e-01,
          1.6830e-01, -7.7562e-02,  7.7478e-02,  1.4956e-01,  1.2558e-01,
         -4.8208e-02, -7.8481e-02, -1.3367e-02, -7.9478e-03,  7.8699e-02,
          2.8104e-01,  3.0712e-01,  1.0764e-01,  1.2917e-01],
        [ 1.9332e-01,  2.4789e-01,  2.3572e-01,  1.3294e-01, -2.7878e-02,
         -1.9582e-01,  4.0456e-02,  1.1885e-01, -6.2064e-02, -2.1930e-02,
          1.7953e-02,  1.3890e-02,  1.9839e-01,  2.0646e-01,  2.8607e-01,
         -4.7313e-03, -1.5900e-01, -4.0898e-01, -2.1809e-01, -1.4039e-01,
         -6.5395e-02,  7.7469e-02,  1.8471e-01,  1.0106e-01,  1.1922e-01,
          1.2699e-01,  2.2554e-01,  1.8626e-01,  1.1114e-01, -9.6915e-03,
         -1.8066e-03, -2.0018e-02, -1.0588e-02, -8.6740e-03, -3.4620e-02,
          1.4781e-01,  3.4403e-01,  4.2312e-01,  3.3137e-01,  1.5645e-01,
          5.4963e-02,  7.6304e-02,  6.3511e-02, -2.6402e-02, -1.7205e-01,
         -1.4714e-01, -1.1198e-01, -5.8527e-02,  4.6468e-02,  1.2888e-01,
          2.9750e-01,  3.4700e-01,  2.7229e-01,  1.1748e-01,  4.8112e-02,
          1.2844e-01,  4.9516e-02, -4.0927e-02, -1.6728e-01, -1.4527e-01,
         -4.3389e-03,  5.4797e-02,  8.3548e-02,  2.7579e-02,  3.1383e-01,
          1.9847e-01, -1.0694e-01, -5.5636e-02,  4.1238e-02,  2.3559e-01,
          3.1034e-01,  2.5399e-01,  4.6652e-01,  1.5594e-01,  6.9686e-02,
         -1.7169e-01, -1.5097e-01,  3.1790e-01,  1.4653e-01, -8.0921e-02,
          5.0670e-03, -3.8367e-02,  1.7971e-01,  2.9374e-01,  3.9568e-01,
          4.6232e-01,  2.5847e-01, -7.6638e-02, -3.3722e-01, -3.6952e-01,
         -1.9705e-01,  1.3595e-01,  1.2641e-01, -1.8241e-01, -2.7780e-01,
         -1.7257e-01,  9.5385e-02,  2.8280e-01,  2.3439e-01,  1.8655e-01,
         -1.4786e-01, -6.5377e-02, -4.1184e-02, -3.2026e-01,  2.8505e-01,
          5.2062e-02, -9.9103e-02, -1.9786e-01, -3.1601e-01, -1.1488e-01,
          1.0494e-01, -4.2256e-02, -2.1769e-01, -1.9830e-01, -1.0221e-01,
          1.5397e-02, -3.8650e-01,  3.3414e-01,  6.6653e-02, -2.3941e-02,
         -9.0580e-02, -3.3314e-01, -2.7088e-01, -7.4192e-02, -9.1808e-02,
         -1.6943e-01, -4.6987e-02, -1.0605e-01, -8.0942e-02, -3.9501e-01,
          1.5205e-01, -1.3085e-01, -9.1624e-02, -1.2622e-01, -7.7413e-02,
         -7.9601e-02,  8.7694e-02,  5.7472e-02,  7.7936e-02, -8.9683e-02,
         -6.9544e-02, -1.3383e-01, -1.8438e-01,  1.9176e-01,  1.7137e-02,
         -1.1573e-01, -1.3999e-01, -8.6650e-02, -1.1034e-01,  1.0321e-01,
          1.7942e-01,  1.6774e-01, -5.2801e-02, -1.3855e-01, -2.1361e-01,
         -9.5472e-02,  3.0554e-01,  1.7225e-01,  3.4289e-02,  1.1951e-01,
          3.1566e-02,  8.7947e-02,  7.6575e-02,  2.9628e-01,  3.7147e-01,
          7.1230e-02,  1.1556e-01, -1.3481e-02,  8.2112e-02],
        [ 8.6560e-02,  3.2059e-02,  2.8957e-02, -1.2724e-02, -5.5582e-02,
         -2.1377e-01, -3.0461e-02,  5.3262e-02, -5.4945e-02, -2.3067e-01,
         -1.5884e-01, -3.5410e-02,  1.0169e-01,  1.5508e-01,  1.0537e-01,
          2.6862e-02,  1.2748e-01, -4.7890e-02,  9.2672e-02, -1.3988e-01,
         -8.1366e-03, -8.3993e-02, -1.8263e-01, -2.7690e-01, -1.4285e-01,
         -1.2188e-01,  1.6967e-01,  6.7261e-02,  1.0683e-01,  9.0059e-02,
          6.4432e-02,  6.7708e-02, -1.1842e-01, -1.7763e-02, -9.3373e-02,
         -1.4081e-01, -1.3443e-01, -1.7721e-01, -2.4142e-01,  1.8274e-01,
          1.7198e-01,  2.6877e-02,  4.1073e-02,  1.5021e-01,  2.6161e-01,
          2.3119e-01,  1.2894e-01,  7.8442e-02, -2.4065e-03,  1.3324e-01,
         -9.7565e-02, -4.2822e-01,  2.2216e-01,  2.4565e-02,  1.3511e-01,
          2.2784e-01,  2.3042e-01,  2.4220e-01,  1.7147e-01,  1.7631e-01,
          8.7383e-02,  2.1331e-02,  5.7822e-02,  5.9197e-02, -3.4384e-01,
          7.8889e-03, -5.0858e-02, -1.0425e-01, -1.0306e-01, -3.2292e-01,
         -5.6524e-01, -5.4810e-01, -2.0505e-01, -1.0184e-01, -8.7990e-02,
         -6.2182e-02, -1.7076e-01,  1.4181e-02,  5.2288e-02, -5.7527e-01,
         -7.9246e-01, -7.3994e-01, -6.5494e-01, -4.6407e-01, -1.8006e-01,
         -1.6220e-01, -8.1650e-02, -1.1604e-01, -2.4645e-01, -3.0849e-01,
          1.0580e-01, -2.1956e-02, -5.1473e-01, -5.4091e-01, -2.6783e-01,
          1.0660e-01,  1.1710e-01,  2.2107e-01, -2.0466e-02, -7.8491e-02,
         -6.2854e-02, -8.1388e-02, -7.7142e-02,  7.8755e-02,  1.1806e-01,
          8.5796e-02,  8.5443e-02,  9.7432e-02,  3.5291e-02,  1.3055e-02,
          1.3265e-01, -4.3865e-02,  2.2383e-02,  5.6324e-02,  2.3032e-02,
          6.2070e-02,  1.1385e-01,  8.9485e-02,  1.4253e-01,  3.4208e-01,
          1.5580e-01,  4.2056e-02, -1.0654e-01,  3.4295e-02,  7.0324e-02,
         -1.7223e-02,  5.3083e-02, -1.3797e-02,  1.9578e-01,  1.7048e-01,
          1.0111e-01,  1.5528e-01,  2.3324e-01,  9.4619e-02,  5.3880e-02,
         -6.3022e-03, -7.5601e-03, -7.8588e-02, -9.6169e-02, -3.3673e-02,
         -1.1162e-01,  1.6008e-01,  8.3036e-03,  5.9735e-03,  1.2961e-01,
          2.2621e-01, -1.3905e-02, -1.1925e-01, -1.3774e-01, -7.1270e-02,
         -1.3597e-01, -1.6348e-01, -1.6908e-01, -1.0099e-02,  8.7551e-02,
          3.4649e-02,  6.0486e-02,  9.6041e-02,  6.3343e-02, -2.1859e-02,
          2.9290e-02,  2.6303e-03, -4.6571e-02,  3.5357e-02,  3.3285e-02,
         -8.4806e-02, -1.6552e-01,  7.7971e-03,  4.7304e-02],
        [ 1.4684e-01,  2.0552e-01,  1.5134e-01,  2.3861e-01,  3.7715e-01,
          2.4068e-01,  3.9414e-01,  3.0059e-01,  3.3612e-01,  2.5194e-01,
          2.4259e-01,  3.3668e-01,  2.4947e-01,  2.4780e-01,  2.0501e-01,
          2.1711e-01,  4.4503e-01,  5.7206e-01,  3.3703e-01,  1.5207e-01,
          7.0518e-02,  9.8414e-02,  1.4827e-01,  6.5242e-02,  6.9635e-02,
         -8.6949e-03,  1.3732e-01,  1.6394e-01, -7.7989e-02,  1.5519e-01,
          2.5533e-01,  1.2610e-01,  2.3715e-02, -1.5961e-02,  6.1281e-02,
          9.6399e-02,  7.3793e-02,  2.4497e-01,  1.0744e-01,  2.2980e-01,
         -2.5961e-02,  7.5799e-02,  8.5164e-02,  6.7968e-02, -4.5442e-02,
         -1.4267e-01, -5.1318e-02,  1.6456e-02,  6.7392e-02,  1.6092e-01,
          1.4359e-01,  1.6428e-01,  1.7915e-01,  2.3084e-02, -2.2286e-02,
          9.7668e-02, -7.5924e-02, -7.2059e-02, -1.9623e-01, -2.2065e-01,
         -7.5271e-02,  7.0920e-02,  9.1198e-02,  3.0074e-01,  2.3765e-01,
          1.9377e-01,  4.2169e-02,  3.1213e-02, -1.1556e-02, -8.7129e-02,
         -1.2177e-01, -1.6890e-01, -1.7141e-01, -1.1333e-01, -1.4017e-01,
         -2.2058e-01,  2.2057e-01,  4.9588e-01,  1.4538e-01, -1.3289e-01,
         -1.0056e-01, -1.6808e-01, -1.0360e-01, -2.7287e-02,  4.2349e-03,
         -1.4656e-01, -1.0643e-01, -2.2876e-02, -2.9764e-01, -2.1589e-02,
          1.9814e-01,  1.6677e-01, -8.8381e-02, -2.6764e-02, -3.7632e-02,
         -2.8146e-02, -9.2597e-02,  3.3825e-02, -8.1964e-02, -9.3470e-02,
          2.7292e-02, -1.1598e-01,  2.4014e-01,  8.1883e-02,  2.9298e-01,
          2.0666e-01,  2.7066e-01, -2.4025e-02, -2.2941e-01, -2.5359e-01,
          6.9444e-02, -2.3770e-02,  7.3079e-02,  5.2157e-02,  2.4758e-02,
          2.2144e-01,  1.0736e-01,  3.1691e-01,  1.8056e-01,  4.1219e-01,
          1.3238e-01,  1.0055e-02,  1.3148e-02,  6.9630e-02,  2.2017e-01,
          1.9012e-01,  1.1873e-01,  2.2642e-01,  2.5433e-01,  1.0893e-01,
          1.9552e-01,  1.8063e-01,  6.6344e-02,  1.3353e-01, -2.0233e-02,
         -4.8937e-02, -1.2729e-01,  2.0710e-02,  1.2577e-01,  2.8138e-01,
          3.4420e-01,  3.4491e-01,  1.4185e-01,  2.1082e-01,  1.6154e-01,
          6.0095e-02, -7.6430e-02, -8.9063e-02, -1.5900e-01, -1.6344e-01,
         -1.3808e-01,  1.1423e-01,  1.9804e-01,  3.6997e-01,  2.8645e-01,
          1.9262e-01,  2.5137e-01,  1.6393e-02, -9.2168e-02, -1.0624e-01,
         -7.3743e-02,  2.7510e-02,  7.1903e-02, -1.2713e-01,  4.5490e-02,
          7.3488e-02,  4.8446e-02,  1.1609e-01,  2.2046e-01],
        [-3.1614e-01, -3.0654e-01, -3.5536e-01, -2.1823e-01, -2.4897e-01,
          4.4072e-02, -6.5139e-02, -2.6589e-02, -7.5951e-02, -9.0934e-02,
         -2.4197e-01, -1.1484e-01, -2.5381e-01, -4.1562e-01, -3.1273e-01,
         -1.7837e-01,  3.1950e-01,  3.0539e-01,  3.2420e-01,  2.8862e-01,
          4.4360e-01,  1.8553e-01,  1.0585e-01,  9.0029e-02, -4.5225e-02,
         -1.5130e-01, -3.1182e-01, -1.8247e-01, -1.5903e-02,  1.5323e-01,
          1.4912e-01,  1.5012e-01,  1.4394e-01,  1.7391e-01,  8.7499e-02,
          7.4344e-02, -1.9768e-01, -1.6483e-01, -6.7510e-02, -2.2570e-01,
         -1.0382e-01, -7.6035e-02, -3.7716e-02,  2.2136e-01,  1.8234e-01,
          2.0070e-01,  3.1395e-01,  9.9353e-02, -1.4102e-01, -2.5116e-01,
         -2.9194e-01, -3.5477e-01, -1.7845e-01, -3.7127e-02, -1.4796e-01,
         -1.6508e-01, -7.7017e-02,  7.4665e-02,  1.0263e-01,  2.6983e-01,
          1.4039e-02, -8.1158e-02, -1.9685e-01, -2.2139e-01, -4.3673e-01,
         -1.5699e-01, -4.9094e-02, -1.9015e-01, -1.9258e-01, -1.6753e-01,
         -9.3450e-02,  8.4518e-02, -1.6243e-03, -9.9195e-02, -1.2864e-02,
         -9.1083e-02, -3.2787e-02, -3.2984e-02, -1.3244e-01, -3.7864e-02,
         -1.9050e-01, -1.6716e-01, -3.2800e-02,  3.5263e-01,  2.2202e-01,
         -3.1810e-02, -3.7849e-02, -5.2453e-02, -7.4081e-04,  6.7627e-02,
         -1.0922e-01, -2.1391e-01,  6.5406e-04, -4.9649e-02,  9.2086e-02,
          3.9134e-01,  3.6548e-01,  8.3482e-02,  6.6595e-02, -2.7081e-02,
         -2.2705e-01, -1.3038e-01, -1.9065e-01,  1.1022e-01, -1.5132e-01,
          9.0764e-02,  1.3958e-01,  2.0068e-01,  2.7900e-01, -8.2368e-02,
         -1.1047e-01,  1.5525e-01,  1.1494e-01, -2.8820e-02,  1.4375e-01,
          4.4003e-01,  2.6788e-01, -1.8549e-01,  1.4089e-01,  7.4131e-01,
          4.8269e-01,  8.1913e-02, -2.7594e-02,  2.8112e-02,  2.4845e-01,
          3.6731e-01,  3.9071e-01,  5.3811e-01,  6.3975e-01,  2.6735e-01,
         -1.9504e-01,  2.8948e-01,  1.2741e-01,  3.1285e-02,  2.0184e-02,
          1.2428e-01, -4.0104e-02,  1.7861e-02,  1.1103e-01,  2.0491e-01,
          3.4931e-01,  4.0955e-01,  1.5753e-01, -2.9029e-01,  8.3591e-02,
         -1.2312e-01, -1.0523e-01, -6.7912e-03, -1.4285e-03, -1.3277e-01,
         -1.7065e-01, -9.4983e-03,  7.8235e-02,  2.6197e-01,  2.2855e-01,
          8.1186e-02, -2.2075e-01,  8.8420e-02,  1.3276e-01, -8.4906e-03,
         -5.9764e-03,  4.0005e-02, -2.9493e-02, -2.8233e-02,  7.2466e-02,
         -1.1450e-02,  1.2025e-01,  6.4443e-02, -5.2091e-02],
        [-5.3326e-02, -4.6928e-04,  7.1746e-02,  3.3068e-02, -9.0229e-02,
         -4.7207e-02,  5.2018e-03, -8.7691e-02, -1.6605e-01, -1.2400e-01,
         -3.0225e-02, -3.5540e-02, -2.1850e-02, -5.5493e-02, -3.2050e-02,
         -5.9524e-02, -1.3856e-01, -2.7011e-01, -5.7774e-02, -1.0408e-01,
         -1.7507e-01, -8.1232e-02,  9.6792e-02,  4.8800e-02, -8.3719e-02,
          1.0008e-02,  1.9679e-02, -1.3288e-01, -4.2339e-01, -1.0422e-01,
          2.0786e-02,  1.8384e-01,  5.2040e-03, -6.3703e-03, -9.5392e-02,
         -8.8561e-02,  1.5196e-01,  1.8264e-01,  1.3086e-01, -8.6417e-02,
         -2.7707e-01, -1.8192e-01, -1.1718e-01,  1.1769e-01,  2.2495e-01,
          2.3404e-01,  7.1364e-02, -3.2216e-03,  5.6568e-02,  1.2106e-01,
          1.3847e-01,  5.2030e-02, -7.1833e-02, -1.0170e-01, -6.3130e-02,
          7.1279e-02,  2.5435e-01,  2.0539e-01, -9.8502e-02, -5.2742e-02,
         -8.6624e-02, -1.0938e-01,  1.4759e-02, -3.4924e-02,  2.7810e-02,
         -1.6738e-02, -7.6994e-02,  1.0955e-01,  2.9241e-01,  3.6406e-01,
          3.8509e-02, -4.5164e-01, -1.6151e-01, -5.7063e-02, -1.5669e-01,
         -2.6228e-02,  1.5803e-03,  8.4780e-02,  1.7699e-01,  2.2883e-01,
          2.7541e-01,  2.5596e-01,  5.4653e-02, -1.6529e-02, -3.8053e-01,
         -3.4525e-01, -9.3237e-02,  3.6511e-02,  1.2090e-01,  5.7647e-02,
         -7.3811e-02,  5.1822e-03,  5.1773e-02,  1.9536e-01,  1.2324e-01,
          1.2175e-01, -1.7371e-02, -1.9131e-01, -4.2036e-01, -2.3732e-01,
          4.1829e-02,  1.1858e-01,  1.6991e-01, -1.7782e-01, -6.2463e-02,
          1.0808e-02,  6.1064e-02, -1.5876e-01, -3.9486e-02,  1.7586e-01,
         -2.4588e-01, -4.3004e-01, -6.7716e-02,  1.4277e-01, -2.5912e-02,
          6.0674e-02, -6.2446e-02,  4.1895e-02,  1.8379e-02, -4.1960e-02,
         -1.2829e-01, -2.3415e-01, -2.4038e-01, -5.5778e-01, -3.6592e-01,
          1.0948e-01,  9.0756e-02, -2.1356e-02,  7.3234e-02, -1.1799e-01,
         -3.1227e-03,  5.6981e-02, -5.3877e-02, -8.7829e-02, -1.0612e-01,
         -1.6838e-01, -2.9270e-01,  6.7821e-02,  1.7818e-01, -3.1374e-02,
         -6.7808e-03,  2.0711e-01, -4.3459e-02, -4.4484e-02, -9.9454e-02,
         -7.4223e-02, -8.5689e-02, -4.8202e-02, -6.1845e-02,  9.6773e-02,
          2.1095e-01,  7.7823e-02,  7.6540e-02,  5.3993e-02,  1.2423e-01,
          1.1221e-02, -2.6111e-02,  9.5967e-02,  1.5161e-01, -1.1097e-01,
         -6.4516e-02, -1.8630e-02, -3.6782e-02,  3.7257e-02,  1.4924e-01,
          1.9297e-01,  2.9422e-01,  1.4008e-01,  3.0346e-02],
        [ 1.3598e-01,  6.9274e-02,  1.1751e-01,  2.9853e-02, -1.3153e-01,
         -2.5309e-01, -2.8255e-01, -2.2383e-01, -1.6217e-01, -9.2308e-02,
          3.8285e-02,  1.6098e-02,  8.7304e-02,  9.1018e-02,  1.0767e-01,
         -8.0686e-02, -2.2084e-01, -3.2250e-01, -3.1453e-01, -5.0802e-01,
         -4.1772e-01, -1.8704e-01, -4.0491e-01, -1.2734e-01, -3.4492e-03,
          7.9804e-02,  1.8417e-01,  6.9658e-02,  3.5360e-02,  3.5374e-02,
          2.0084e-01, -2.9525e-02,  3.3947e-02, -2.9302e-02, -1.0412e-01,
         -1.4928e-01, -4.8011e-03,  1.2469e-01,  2.0797e-03,  2.6358e-02,
          1.3617e-01,  1.9917e-01,  1.4464e-01,  1.0755e-02, -5.1146e-02,
         -1.2200e-01, -7.7273e-02,  8.2869e-02,  3.8529e-02,  6.0429e-02,
          3.3019e-03, -8.3855e-02,  1.7627e-01, -3.3296e-02,  8.1163e-04,
         -7.8446e-02,  8.7175e-02,  4.9811e-02, -7.3981e-02, -1.5349e-01,
          8.7504e-02,  1.6568e-02,  1.9299e-02, -2.2065e-01, -2.1978e-01,
          8.5288e-02, -1.5491e-02, -3.5524e-02, -2.3917e-02,  8.5294e-02,
          1.5108e-01, -4.3694e-01, -1.1406e-01,  2.0948e-01,  6.3371e-02,
         -7.1057e-02, -4.1780e-01, -2.5434e-01,  1.1417e-02, -1.2371e-01,
         -9.8498e-02, -1.0642e-02,  1.4153e-01, -8.2200e-02, -4.2510e-01,
         -5.7817e-02,  2.9080e-01,  1.4534e-01, -1.3690e-01, -4.0911e-01,
          1.3845e-02,  1.4813e-01,  5.8030e-02,  7.4976e-02, -1.6615e-02,
         -1.3487e-01, -2.4694e-01, -2.5045e-01,  1.4428e-01,  3.3811e-01,
          1.6220e-01, -4.9110e-02,  8.0628e-02,  4.1004e-01,  3.9598e-03,
         -9.0828e-02, -2.1116e-02, -2.6073e-02, -3.0506e-01, -4.1835e-01,
         -6.9442e-02,  3.4650e-01,  1.2717e-01, -1.1992e-02,  1.2404e-01,
          1.4860e-01,  2.0012e-01,  4.6010e-02,  8.0737e-03, -1.4831e-01,
         -2.0440e-01, -2.8230e-01, -1.9717e-01,  5.7445e-02,  4.5438e-02,
         -1.2805e-01, -2.3846e-01, -2.4705e-01, -1.2013e-01,  1.8577e-01,
          3.3990e-02, -9.6104e-02, -4.3519e-01, -3.8539e-01, -1.1386e-01,
         -2.2000e-01, -1.0474e-01, -3.0610e-04, -5.7704e-02, -9.3725e-02,
         -8.5405e-02, -1.2302e-01,  1.7341e-01,  4.9500e-02, -2.7691e-01,
         -1.8678e-01, -1.0661e-01, -1.1878e-02, -1.4372e-01, -1.8961e-01,
         -2.4272e-02, -2.0381e-02,  4.8566e-02,  1.1299e-01,  4.5961e-02,
          5.6418e-02,  9.0313e-02, -2.4982e-02,  5.2504e-02, -2.5133e-02,
         -1.3681e-01, -2.6331e-02, -1.0485e-01, -1.1111e-01, -6.9322e-02,
          4.2000e-02,  4.6926e-02,  3.0349e-03,  6.8775e-02]])
[LAYER]: fc1.bias | [SHAPE]: torch.Size([30])
tensor([ 0.1052,  0.2301,  0.1296,  0.1001, -0.2437, -0.0668, -0.0460, -0.6221,
        -0.1784, -0.2389, -0.4835, -0.0413, -0.3248,  0.6066,  0.2074, -0.0366,
        -0.1635, -0.2189,  0.0913, -0.0219, -0.0973,  0.2404, -0.5729, -0.1642,
         0.3395,  0.1870,  0.4243, -0.4772,  0.0369,  0.0391])
[LAYER]: fc2.weight | [SHAPE]: torch.Size([30, 30])
tensor([[ 2.6374e-01,  4.4358e-01,  2.7874e-01,  7.5194e-02, -2.1846e-01,
          5.1291e-02, -5.8984e-01, -2.8392e-01, -2.6626e-01, -3.4626e-01,
          4.8873e-02, -1.8698e-01, -1.9647e-01,  4.7362e-01, -3.6377e-01,
         -1.5060e-01, -3.1968e-01, -2.4735e-01,  5.1656e-02, -3.9892e-01,
         -1.6123e-01, -1.0962e-01, -2.5554e-01,  5.7068e-02,  6.4532e-01,
          2.6819e-01,  3.4494e-01, -1.6395e-01,  1.3750e-01, -4.3745e-01],
        [ 2.4446e-01,  1.0066e-03,  3.0966e-01,  1.7155e-01,  1.1531e-02,
          4.9409e-01,  1.4239e-01, -3.4563e-01,  2.3074e-01, -3.5380e-01,
         -5.5255e-02,  5.0909e-01,  3.8801e-02,  2.3722e-01,  6.2420e-01,
         -1.8751e-01,  4.0002e-01,  1.6407e-01, -2.2971e-01,  7.6397e-02,
          2.9415e-01,  2.6929e-01,  1.6634e-02,  6.5825e-02, -2.5276e-01,
          3.5943e-01,  1.9925e-01, -5.1667e-02,  2.0143e-01,  4.1252e-01],
        [-2.7183e-01, -2.6312e-01, -4.3027e-03, -1.5848e-01,  4.8349e-01,
         -7.3972e-02, -1.6037e-01, -1.9879e-01, -5.0681e-01, -4.3913e-01,
          1.2013e-02, -4.7739e-01,  2.4074e-01,  2.9694e-01, -2.2752e-01,
          5.3496e-02,  1.1191e-01, -6.7839e-01,  2.5826e-01, -2.6423e-01,
          4.6702e-01, -3.9073e-02,  6.1306e-02, -3.9215e-01, -1.2148e-01,
         -3.6990e-01, -2.2272e-01, -1.0690e-01,  6.0263e-01,  1.7935e-01],
        [-2.6596e-01,  4.4158e-01, -2.0818e-01,  1.9319e-01, -4.5324e-01,
          7.3365e-02, -5.1215e-01,  2.9730e-01, -2.7146e-01,  2.0873e-01,
         -1.1688e-01, -2.4479e-01,  2.2365e-01,  8.7909e-02, -3.6277e-01,
          1.7561e-01, -5.3775e-01, -8.6619e-02, -2.6427e-01, -2.5924e-01,
         -3.9580e-01, -4.0296e-01,  4.8277e-02, -3.6778e-02, -3.0452e-01,
         -2.9661e-01, -9.6705e-02,  5.8731e-01,  2.9919e-01, -1.9506e-01],
        [-1.0145e-01,  2.0130e-01,  4.3527e-01,  3.2591e-01,  5.3085e-02,
          4.4259e-01,  1.3237e-01,  3.9073e-01,  1.0168e-01, -4.0811e-01,
          3.9508e-01,  2.3830e-01,  3.4099e-01, -1.6582e-01, -2.6578e-01,
          1.6983e-01, -1.9247e-01,  3.7864e-01, -5.1368e-01, -2.6809e-01,
         -8.6635e-02, -2.8950e-01,  5.8655e-01, -8.8167e-03, -2.7033e-01,
         -9.0289e-02,  1.4227e-01,  7.8933e-01,  1.9572e-01, -5.5647e-01],
        [ 1.7966e-02,  4.6377e-01,  2.8325e-01,  2.6095e-01, -2.6960e-01,
          1.8874e-01,  2.5460e-01, -7.2233e-03, -2.2713e-02,  1.6473e-01,
         -4.5913e-01,  4.0807e-01, -2.5690e-01,  2.4319e-02,  2.5983e-01,
         -2.1622e-01,  6.9208e-02,  1.0057e-01, -4.6462e-01,  2.8660e-01,
         -1.8245e-01,  2.1188e-01, -2.5995e-01,  9.2212e-02, -1.3326e-01,
          3.4175e-01, -9.0488e-02, -1.4716e-01, -4.1638e-01,  2.3185e-01],
        [-2.2621e-01, -3.3985e-01, -2.8934e-01,  3.6557e-01,  3.1605e-01,
          1.3203e-01,  4.3883e-01,  5.6997e-01,  2.6367e-01,  1.8544e-01,
          8.7425e-02,  2.0223e-01, -3.5972e-02, -4.3093e-01,  3.9660e-01,
          1.5727e-01,  3.8155e-01,  2.8569e-01,  1.0557e-01,  5.5475e-01,
          3.9062e-01,  1.7103e-01, -5.8125e-02,  1.6109e-01, -6.0324e-01,
         -5.9145e-01, -3.3815e-01,  1.2409e-01, -1.5419e-02, -7.3422e-02],
        [-9.5970e-02,  1.4932e-01,  3.0057e-01, -4.0729e-01, -1.3790e-01,
          1.4199e-01, -9.2955e-02, -7.6780e-01,  4.1288e-01, -3.7386e-01,
         -3.8400e-01, -1.2695e-01,  8.0411e-02, -1.4395e-01, -9.6031e-02,
         -5.2449e-02, -4.2364e-02,  2.6082e-01,  5.7212e-02, -4.9032e-01,
         -3.0993e-01, -4.2919e-01,  3.5011e-01, -1.6156e-01,  5.9855e-01,
          2.8952e-01, -5.8946e-02, -3.3606e-01,  3.4655e-01, -4.5224e-01],
        [ 2.2808e-01,  6.6863e-01,  1.4759e-01,  3.2190e-01, -5.3251e-01,
          1.9652e-01, -5.0874e-01,  7.7971e-02,  1.7241e-01,  4.7668e-01,
          1.5828e-02,  9.0000e-02, -5.4581e-01,  1.0052e-01,  2.5366e-01,
         -1.3848e-01,  4.3278e-01,  3.3001e-01, -2.2112e-01,  4.4395e-01,
         -4.3899e-01, -4.1572e-02, -3.1746e-01, -2.4852e-01,  2.8170e-01,
          1.6669e-01,  6.4014e-01, -3.5125e-02, -4.5847e-01,  2.0524e-02],
        [ 3.2620e-01, -1.0575e-01, -2.6880e-01, -5.5220e-01,  2.9589e-01,
          1.8533e-01, -1.3762e-01,  1.7707e-01,  9.6500e-02,  2.1171e-01,
         -6.8770e-01,  7.6835e-02, -3.7056e-01,  4.4383e-02,  4.2512e-01,
          8.8608e-02, -3.2911e-01, -6.6289e-01,  5.6314e-01, -2.3376e-01,
         -2.4601e-01,  3.2541e-01, -1.4227e-01,  1.1717e-01,  2.1004e-01,
         -2.2669e-01, -3.8028e-01, -2.1686e-01, -1.7564e-01,  5.7843e-01],
        [ 3.0997e-02, -5.0629e-01, -3.1684e-01,  6.7644e-02,  6.6381e-02,
         -5.5117e-01, -6.7748e-02,  5.0865e-01,  1.5047e-01,  7.0684e-01,
         -9.3303e-02, -2.0864e-01,  7.6538e-02, -5.0783e-01, -2.9208e-01,
         -9.2345e-03,  2.3270e-01, -2.2171e-01, -2.7555e-01,  5.8913e-01,
         -6.4918e-02, -1.5879e-01,  2.8658e-01,  1.8477e-01, -1.1802e-01,
         -3.1992e-01, -7.2388e-02,  2.8478e-01, -3.7186e-01, -2.2341e-02],
        [ 1.5156e-02, -8.5180e-02,  3.7308e-01, -1.3151e-01,  1.9789e-01,
         -8.0570e-02, -4.5373e-01,  3.7267e-01,  3.4998e-01,  2.5854e-01,
          1.1753e-01,  5.0079e-01, -4.2312e-01,  6.3930e-02,  1.4712e-01,
          1.5667e-01, -4.2267e-01,  3.4717e-01,  2.1369e-01, -2.2306e-01,
         -3.4228e-01,  9.2803e-02,  1.0606e-01,  5.2790e-01,  6.4801e-01,
          2.7017e-02,  3.7690e-01,  2.1712e-01, -3.5533e-01, -5.8555e-01],
        [ 3.5054e-01, -2.4972e-01,  3.9988e-01, -2.4102e-01,  1.2013e-01,
          4.7587e-02,  5.2754e-02, -2.6402e-01, -3.3732e-01,  5.8338e-02,
         -5.3781e-01, -4.5441e-01,  2.7908e-01,  8.1859e-03, -3.7911e-01,
         -4.1723e-01,  2.2609e-01, -4.9113e-01, -4.5836e-01, -1.2058e-01,
          6.5675e-01, -2.7428e-01,  1.4025e-01,  2.4901e-01, -5.4112e-02,
          1.6785e-01, -1.8963e-01,  1.5169e-01, -3.5928e-02,  1.6135e-01],
        [ 2.2576e-01, -3.2231e-01, -4.0107e-01,  1.4742e-01,  2.1250e-01,
         -2.5882e-01, -1.5739e-01,  1.9406e-01,  2.6073e-01,  1.3260e-01,
          5.0923e-01,  4.2392e-01, -2.8095e-01, -6.3409e-01, -5.9093e-02,
          1.9003e-01,  5.7859e-01,  3.0224e-01,  2.3616e-01,  2.7339e-01,
          3.5458e-01,  1.7386e-01, -4.0304e-01, -3.2579e-01,  3.4193e-01,
         -1.6411e-01,  4.2020e-01, -1.4363e-01, -4.7973e-01,  7.7488e-02],
        [-7.9692e-02, -3.0511e-01,  1.4453e-01, -1.2587e-01, -1.5368e-01,
         -2.8592e-01,  5.1168e-01, -3.1060e-01, -2.8761e-01,  4.0720e-02,
         -2.9021e-01, -1.4822e-01, -8.7746e-02,  8.2235e-01,  5.2543e-02,
          1.0956e-01, -3.2418e-01, -7.1928e-01, -7.5158e-02,  2.6042e-01,
         -3.1912e-01,  3.6866e-01, -8.6151e-01,  9.4127e-02, -3.9740e-01,
         -8.0144e-03,  5.6796e-02, -1.3392e-01, -3.6169e-01,  3.8674e-01],
        [ 3.0003e-01,  1.7560e-01,  3.1548e-01,  4.6340e-01, -2.9559e-01,
          2.8760e-01,  3.6633e-01, -5.9997e-01, -2.6939e-02, -1.2974e-01,
         -3.3499e-02, -2.6917e-01,  2.5514e-01, -2.7078e-01,  1.3619e-01,
         -2.9712e-01,  5.1007e-01, -3.1978e-01, -6.7678e-01,  5.5977e-01,
          3.5868e-01, -5.5954e-03,  1.8258e-01, -7.8638e-02, -2.7992e-02,
          2.7834e-01, -1.1911e-01,  7.4495e-02, -2.4003e-01,  9.0807e-02],
        [-2.2558e-01, -3.2074e-01, -4.5488e-01,  8.0778e-02,  3.8618e-01,
          3.1378e-01,  1.0952e-01,  7.4435e-01, -7.2096e-02,  5.2405e-01,
          2.6330e-01, -2.8555e-01,  4.4858e-02, -5.3633e-02,  6.3653e-02,
          2.8457e-01, -3.4831e-03, -4.4654e-02,  4.6245e-02,  2.7359e-01,
          2.8643e-01,  1.8911e-01, -1.1004e-01, -1.3087e-01, -6.8497e-01,
         -6.2202e-01, -1.8242e-01,  5.0832e-01,  1.9713e-01,  2.2336e-01],
        [-8.2938e-01,  1.8006e-01, -5.1993e-01,  8.4122e-02,  9.6982e-02,
         -2.8366e-02,  5.7618e-02,  2.7303e-01,  2.6077e-01, -9.4164e-02,
          1.6914e-01,  8.5353e-02,  3.4239e-01,  1.7512e-01, -1.9719e-01,
          8.2139e-01, -2.2111e-02,  2.5102e-01,  7.0330e-01,  8.4046e-02,
         -4.2253e-01,  1.5545e-01, -1.9863e-01, -1.7322e-01, -2.3854e-01,
         -3.7680e-01, -1.5398e-01,  2.8611e-01,  3.5684e-01, -1.7769e-01],
        [-2.4857e-01, -4.9078e-02, -4.0172e-01, -2.0620e-01, -2.0314e-01,
         -8.2757e-01, -4.1448e-01,  2.2580e-01, -1.7132e-01,  1.5019e-01,
          5.0392e-01, -5.3838e-02,  2.2916e-01, -2.9043e-01, -4.7606e-01,
          1.3619e-01, -5.5937e-02,  1.9919e-01,  5.6658e-01,  1.0272e-01,
         -2.1617e-01,  6.7114e-02,  1.7163e-01, -6.4948e-02,  9.3715e-02,
         -1.3563e-01,  1.9781e-01, -7.6760e-03,  2.0247e-01,  5.4325e-02],
        [ 1.3416e-01, -5.9234e-01,  1.8938e-01, -5.3417e-01, -9.4809e-02,
         -4.0033e-03,  5.1448e-02,  5.4286e-01,  5.0717e-01,  4.6644e-01,
         -6.6267e-01,  2.6821e-01, -3.0838e-01, -1.5504e-01,  4.0367e-01,
         -3.0682e-01, -3.2012e-01,  5.2001e-02, -8.1714e-02, -3.2641e-01,
         -2.8561e-01, -9.0436e-02,  4.8415e-01,  3.7865e-01, -1.0576e-01,
          2.7290e-01, -3.8893e-01, -2.2455e-01, -6.3676e-01,  1.5931e-01],
        [ 7.4413e-02,  3.1611e-01, -7.9997e-03,  5.5258e-01, -4.1582e-01,
          5.4459e-01,  6.8221e-01, -1.6877e-01,  3.7050e-01,  1.7569e-01,
         -2.0209e-01, -8.2310e-02, -2.5059e-01, -3.0995e-01,  2.1499e-01,
          4.3127e-02,  3.5743e-01, -1.1930e-01, -5.2264e-01,  2.2833e-01,
          2.1687e-01, -3.8429e-01,  1.3210e-01, -2.4101e-01, -2.8303e-01,
         -3.8688e-01, -3.7211e-01,  1.3577e-01, -1.3633e-01, -9.7036e-03],
        [ 9.7313e-02, -5.0829e-02,  2.5263e-01,  1.9285e-01,  6.3778e-01,
          2.2976e-01, -5.6507e-01,  3.9972e-01,  3.2578e-02,  4.2233e-01,
          4.5301e-01,  1.4970e-01,  2.3158e-01, -3.5546e-01, -5.1688e-01,
          6.8688e-01,  9.3872e-02,  2.3701e-02, -1.3594e-01, -1.5888e-01,
          1.9171e-01, -4.2431e-01,  5.6175e-02,  7.5373e-02,  2.7226e-01,
         -3.8726e-01,  2.1704e-01,  5.8741e-01,  1.7285e-01, -3.6457e-01],
        [ 5.4944e-01, -1.3292e-01,  5.8762e-01,  1.9387e-01, -2.6574e-01,
          4.9206e-01,  1.7052e-01, -2.5390e-01,  1.0356e-01, -5.3058e-01,
         -1.2650e-01, -9.8961e-02,  2.3683e-01,  1.2350e-01, -3.6005e-02,
         -3.6900e-01,  3.6748e-01,  3.3158e-02, -5.3937e-01,  5.0647e-02,
          3.7522e-01, -1.4844e-01,  6.1750e-01,  4.1023e-01, -4.3463e-02,
          6.6941e-01, -3.7798e-02,  1.7525e-01,  1.7446e-02, -5.3308e-02],
        [-8.2654e-02, -3.3059e-01,  3.7381e-02, -5.2578e-01,  3.4342e-01,
          2.3585e-01,  6.9245e-01,  2.2262e-01,  4.2870e-01, -1.5270e-01,
          1.1635e-02,  3.7776e-01, -5.3847e-03,  6.4320e-02,  4.4073e-01,
         -3.5928e-01, -1.1392e-01,  2.5043e-01, -2.1393e-01, -5.4864e-02,
          1.4014e-01,  2.9582e-01,  2.9642e-01,  3.2157e-01, -2.5107e-01,
          2.4975e-01, -1.5598e-01, -1.6368e-01, -1.5921e-01,  3.0298e-01],
        [ 3.4846e-01, -1.3395e-01, -2.7827e-01,  2.6120e-01,  1.2499e-02,
         -1.7189e-01,  1.7488e-01, -1.6879e-01, -2.2374e-01,  5.8758e-01,
         -3.4467e-01,  6.4915e-02, -4.0742e-01, -1.3221e-01,  3.0461e-01,
         -1.2811e-01,  6.9768e-01, -8.0406e-02,  8.3170e-02,  5.4156e-01,
          2.3372e-01,  3.9331e-01, -6.4794e-01, -2.7321e-01,  2.7729e-01,
         -2.7975e-01,  1.7660e-01, -4.7584e-01, -5.4836e-01, -3.4448e-02],
        [-3.4535e-01, -1.6663e-01, -4.5808e-01,  6.6872e-03,  1.7059e-02,
         -1.3629e-02,  7.3771e-01, -1.3009e-01,  3.1337e-01, -1.7718e-01,
         -2.9185e-02, -3.3554e-01,  8.0182e-02, -3.1217e-01, -7.3752e-02,
          2.3794e-01, -2.0932e-01,  7.5341e-02,  4.6669e-01, -1.3048e-01,
          1.3277e-01, -7.2700e-02,  2.0716e-01, -3.2067e-01, -3.1838e-01,
         -4.7456e-01, -6.1512e-01, -7.3046e-02,  1.1151e-04, -9.2218e-02],
        [ 5.3592e-01, -2.4546e-01,  3.7925e-01,  7.1465e-02, -1.1072e-01,
          4.6615e-01,  2.2272e-01, -2.3226e-01,  3.1532e-01,  2.7250e-02,
         -4.1423e-01,  2.3925e-01, -5.0635e-01, -4.0335e-01,  1.1834e-01,
         -4.9352e-01,  7.0615e-03,  2.5392e-01, -8.0569e-02, -3.3209e-01,
          1.9724e-01, -2.5350e-01,  4.7657e-01,  4.0001e-01,  1.2817e-02,
          4.3434e-01, -3.9862e-01, -3.4434e-01, -3.4502e-01, -2.0444e-01],
        [ 4.1495e-01, -8.0727e-01,  1.9144e-02, -4.9988e-01,  1.2460e-01,
          2.7076e-01,  6.1812e-03,  4.4560e-02,  2.7713e-01,  5.0852e-01,
         -6.4871e-01, -2.2140e-01, -1.4141e-01, -3.2668e-01,  1.2643e-01,
         -5.0913e-01,  8.4134e-02, -2.7041e-01,  1.5190e-01, -2.2449e-01,
          2.1121e-01,  6.5459e-02,  3.4083e-01,  2.3599e-01,  9.4016e-02,
         -1.7270e-01, -4.5337e-01, -2.0944e-01, -5.3849e-01,  4.1717e-01],
        [-2.9506e-01, -1.6681e-01, -2.8958e-01, -2.9128e-01,  1.0212e-01,
         -4.9325e-01, -4.4362e-01,  2.0577e-01, -2.0890e-02,  1.6975e-02,
          3.5858e-01, -3.0440e-01,  5.9825e-01, -3.2495e-01, -3.9616e-01,
          7.1391e-02, -3.1813e-01,  9.3139e-03,  3.6007e-01, -2.9852e-02,
          1.0066e-01, -3.4147e-01,  4.4738e-01,  2.0865e-01,  3.0391e-01,
         -1.1699e-01, -1.6493e-01,  1.3926e-01,  1.4387e-01,  6.8678e-02],
        [ 1.1129e-01,  5.6093e-01,  2.4328e-01,  1.5785e-01, -1.7290e-01,
          1.9266e-01, -4.7297e-01, -1.6057e-01, -4.6613e-02, -3.4580e-02,
          1.5203e-01,  2.2806e-01, -3.9354e-01, -2.6761e-01, -3.2170e-02,
          5.6550e-01, -9.3914e-02,  6.4636e-01, -3.2643e-02, -2.4175e-01,
         -4.4761e-01, -4.7657e-01, -2.1038e-01, -5.2317e-01,  4.1676e-01,
         -3.5200e-01,  2.6508e-02,  2.7398e-01,  2.8033e-01, -5.8098e-01]])
[LAYER]: fc2.bias | [SHAPE]: torch.Size([30])
tensor([ 0.4819, -0.0777,  0.2279, -0.1110, -0.1225,  0.2203, -0.2335,  0.0960,
         0.0817,  0.1804, -0.5391,  0.1129, -0.1087,  0.0178,  0.4345,  0.0707,
        -0.3388, -0.1436, -0.2393, -0.1791, -0.0995, -0.0890, -0.0845, -0.2644,
         0.3336, -0.3048,  0.0757, -0.0039, -0.3905, -0.1168])
[LAYER]: fc3.weight | [SHAPE]: torch.Size([10, 30])
tensor([[-1.5691e-01,  6.0688e-01,  8.4837e-01,  4.0799e-01,  1.3862e-01,
         -2.9495e-01,  7.0207e-01, -4.1733e-02, -8.1869e-01, -8.2322e-02,
         -3.9913e-01, -5.5243e-01,  3.3960e-01, -2.9111e-01, -5.7174e-01,
          6.4868e-01,  7.2656e-01,  6.2955e-01, -5.0878e-01, -2.7170e-01,
          1.0554e+00,  1.7084e-01,  4.5376e-01, -3.0986e-01, -2.8265e-01,
          8.0134e-01, -2.3103e-01, -2.4120e-01, -3.3902e-01,  5.2909e-01],
        [ 9.2318e-01,  1.6820e-01, -3.5127e-01, -3.4797e-01, -5.8191e-01,
          4.9011e-01, -5.4507e-01,  5.3636e-01,  8.0404e-01,  6.4813e-01,
         -9.5608e-01,  2.9467e-01, -5.5311e-01,  3.2736e-01,  4.5142e-01,
         -5.8607e-01, -4.7305e-01, -4.1001e-01, -8.0062e-01,  5.6740e-01,
         -2.6970e-01, -1.5289e-01, -7.7650e-01, -6.4533e-02,  7.3703e-01,
         -5.2476e-01,  6.6070e-01,  2.1911e-01, -1.0365e+00,  9.1216e-01],
        [-4.8110e-01,  7.8084e-01, -4.0808e-01, -1.0448e+00,  7.1464e-02,
          6.6811e-01,  5.8600e-01, -4.5723e-01,  3.9429e-01, -6.3130e-02,
          4.0173e-01,  1.4800e-01, -1.3027e-03,  1.6886e-01, -2.3821e-01,
          6.2060e-01,  4.0628e-02, -6.1018e-01, -7.5100e-01,  5.4269e-01,
          6.5955e-01, -2.9225e-01,  6.1532e-01,  6.2188e-01,  2.1575e-01,
         -6.9858e-01,  3.0831e-01,  7.0486e-01, -6.1150e-01, -5.1892e-01],
        [ 7.4585e-01, -3.9023e-01, -3.7028e-01,  4.1465e-01,  3.5509e-01,
         -1.3121e-01, -4.7798e-01,  5.0966e-01,  5.0189e-01, -2.4873e-01,
          6.3956e-01,  4.1646e-01,  6.8807e-01, -1.5475e-01, -3.9040e-01,
          5.0839e-01, -4.2223e-01, -9.1962e-01,  9.6463e-02,  1.1361e-01,
         -1.4304e-01,  5.2569e-01,  4.6337e-01, -6.4351e-01, -1.0685e-01,
         -7.2152e-01,  5.2052e-01,  4.1383e-01,  2.5120e-01,  3.8569e-01],
        [-4.9675e-01,  3.7138e-02,  5.5769e-01, -6.8190e-01, -7.4094e-01,
         -3.3798e-01,  9.1581e-02, -6.2474e-01, -5.4864e-01,  4.0497e-01,
          5.0184e-01, -3.7220e-01,  3.7215e-01,  9.5752e-01,  5.3393e-01,
          7.2425e-02,  4.5657e-01, -7.6198e-02,  2.8650e-01, -1.3669e-01,
         -2.6497e-01,  5.3599e-01, -3.2916e-01, -1.2222e-01,  7.8849e-01,
          1.6825e-01, -2.9594e-01,  2.1336e-01,  1.4477e-01, -4.9082e-01],
        [ 6.1529e-01, -4.1281e-02,  1.0924e-01,  1.6465e-01,  4.9714e-01,
         -1.9925e-01, -5.2357e-01,  2.6610e-01,  1.8597e-01, -7.3479e-01,
         -4.1561e-01,  4.8797e-01, -5.6218e-01,  3.9256e-01, -2.3911e-01,
         -3.6404e-01, -6.3740e-01,  4.1240e-01,  5.1986e-01, -1.2589e+00,
         -7.1655e-01,  3.5249e-01,  5.7398e-02, -4.0035e-01, -4.9976e-01,
         -5.1368e-01, -2.9451e-01, -1.3222e+00,  2.3423e-01,  4.5711e-01],
        [-2.4828e-01, -1.1661e-01, -5.3259e-01,  5.7526e-01, -3.0798e-01,
          6.7901e-01,  6.0241e-01, -4.4213e-01,  6.0041e-01, -1.0690e-01,
          1.2535e-01, -2.9987e-01, -7.7738e-01,  3.3971e-01,  3.0613e-01,
          3.4077e-02,  5.4570e-01,  8.2231e-01,  1.7801e-01, -3.0448e-01,
          6.3300e-01, -6.0447e-01, -6.1936e-01, -5.1753e-01,  4.3117e-01,
          2.8540e-01, -6.6430e-01, -6.4228e-01, -4.7083e-01,  4.3926e-01],
        [ 2.7165e-01, -2.5214e-01,  1.3946e-01, -6.3690e-01, -2.8609e-01,
          1.4956e-01, -6.5228e-01,  7.0787e-01, -4.7557e-01,  3.7139e-01,
         -8.3738e-01, -8.2652e-01,  6.1262e-01, -6.0967e-01,  5.8520e-01,
          1.8831e-01, -4.0063e-01, -5.1227e-01, -3.3498e-02,  3.7384e-03,
         -2.4151e-01, -1.2423e+00,  3.9670e-01,  5.0798e-01, -1.1613e-01,
          2.3369e-01,  1.5542e-01,  4.5701e-01,  3.0341e-01, -6.5513e-01],
        [-7.9205e-01, -4.3622e-01, -6.1490e-01, -3.1664e-01,  3.1017e-01,
         -4.1695e-01,  5.0178e-01,  3.1534e-01, -1.3408e-01, -2.6983e-01,
          4.0761e-01,  3.9569e-01, -3.7858e-01,  4.7026e-01, -8.3693e-01,
         -4.9691e-01,  1.9589e-01,  2.3131e-01,  3.5159e-01,  5.3892e-01,
          1.2389e-01, -1.6726e-01, -3.5379e-01,  7.7427e-01, -2.7988e-01,
          7.9368e-01,  2.4391e-01,  3.5181e-01,  4.7592e-01,  4.7072e-01],
        [ 5.0504e-02,  7.7215e-03,  5.6343e-01,  7.3665e-01,  5.6015e-01,
         -4.4814e-01, -4.2399e-01, -3.4593e-01, -3.0151e-01,  4.8615e-01,
          4.4104e-01,  1.3325e-01,  3.2664e-01, -8.0975e-01,  5.5464e-01,
         -5.0056e-01,  6.2334e-01,  3.4840e-01,  2.6407e-01,  6.6191e-01,
         -4.2143e-01,  3.5502e-01, -2.0443e-01,  2.0033e-01, -8.7966e-01,
         -4.0443e-02, -5.4077e-01,  3.0672e-01,  1.3271e-01, -1.8274e-01]])
[LAYER]: fc3.bias | [SHAPE]: torch.Size([10])
tensor([-0.1465, -0.0641,  0.3543, -0.1772, -0.1026, -0.0452, -0.0846,  0.1937,
        -0.3353, -0.0315])