
[LAYER]: conv1.weight | [SHAPE]: torch.Size([1, 1, 3, 3])
tensor([[[[0.1068, 0.1962, 0.1551],
          [0.2715, 0.5159, 0.2822],
          [0.1366, 0.1880, 0.0864]]]])
[LAYER]: conv1.bias | [SHAPE]: torch.Size([1])
tensor([-1.0484e-05])
[LAYER]: fc1.weight | [SHAPE]: torch.Size([30, 49])
tensor([[ 4.1643e-01,  4.5260e-02, -4.3075e-01, -1.5097e-01, -3.0500e-01,
         -3.2274e-01, -2.4099e-01,  2.8705e-01, -3.2004e-02,  1.0471e-02,
          4.6631e-02, -6.3214e-02, -9.1299e-02, -4.2909e-02,  3.6152e-02,
         -9.9940e-02, -1.3778e-01,  6.0453e-02,  1.9471e-01, -9.1965e-02,
         -3.5936e-01,  3.0961e-01,  1.6797e-01,  1.3086e-01,  3.9878e-02,
          7.3657e-02, -6.2906e-02, -3.2305e-01,  2.1282e-01,  6.3772e-02,
         -4.2398e-01,  7.6041e-03,  1.3074e-01, -1.2615e-01, -1.4927e-01,
          2.1544e-01, -1.4267e-01, -4.0789e-01, -3.1169e-01, -1.2333e-01,
         -1.9493e-01, -1.7778e-01,  5.2261e-01,  2.7760e-01,  4.0678e-01,
          1.1564e-01,  3.8000e-02,  1.4664e-01,  1.4842e-01],
        [-1.1162e-01,  4.7102e-02,  3.6034e-01,  1.3591e-01,  4.0781e-02,
         -1.8254e-02, -2.0417e-01,  6.4188e-02, -1.7892e-01,  1.0018e-01,
          2.9606e-01,  2.5909e-01, -3.0688e-01, -4.2615e-01,  9.8850e-02,
          2.0658e-01, -3.3017e-02,  1.6672e-01,  6.3258e-02,  1.5115e-01,
          9.9093e-02,  2.6136e-01, -6.2748e-02,  3.8819e-02, -3.1102e-04,
         -1.4066e-02,  1.7650e-01, -7.1081e-02,  2.1973e-01, -2.0024e-01,
          2.0237e-01, -5.3574e-01,  4.8002e-02, -2.2094e-01, -9.3548e-02,
          6.5670e-02,  2.7966e-01,  1.6525e-01, -9.0942e-03,  7.6600e-02,
          6.6026e-02, -5.1847e-02,  1.6589e-01,  2.4840e-01,  4.0574e-01,
          3.4661e-01,  1.9445e-01,  1.7370e-01,  1.8665e-01],
        [-4.8207e-02,  3.6342e-01,  5.7904e-01,  3.8959e-01,  3.3379e-01,
          2.0033e-01, -2.0904e-01,  2.3776e-01,  2.8877e-01,  1.0289e-01,
          1.5814e-01, -3.4618e-02, -1.0878e-01, -7.9192e-02,  9.5793e-03,
          6.7324e-03, -1.4361e-01, -3.1444e-01, -3.2191e-02, -2.4625e-01,
         -2.0504e-01, -2.3250e-01, -2.2277e-01, -6.9994e-03,  6.4194e-01,
          1.4929e-01, -1.6926e-01, -4.1795e-01,  3.1600e-01,  3.8126e-02,
         -2.6473e-01,  2.1208e-01, -5.9415e-02,  1.9902e-01, -6.0437e-02,
          2.3773e-01,  1.6316e-01, -2.4831e-01,  8.0888e-02,  2.8378e-01,
          2.9100e-01,  1.0955e-01, -4.1215e-02,  1.2383e-01,  7.5021e-03,
         -2.1767e-01, -2.0576e-01, -1.5235e-01, -2.4122e-01],
        [-8.2823e-02, -2.7074e-01, -2.3745e-01, -6.4273e-02, -6.8151e-02,
         -2.2003e-01, -2.7427e-01, -4.8723e-02, -6.3223e-02,  9.2220e-02,
         -2.1727e-01, -1.4792e-01, -1.1211e-02, -5.2470e-02,  3.1456e-01,
          2.3974e-01,  6.5891e-02,  4.1074e-01,  1.6025e-01,  1.4433e-01,
          4.3077e-01, -1.2776e-01, -2.2313e-01, -2.1358e-01, -2.7953e-01,
         -4.0457e-01,  6.7608e-02, -4.4977e-02,  1.5142e-01,  5.7884e-02,
         -3.1264e-01, -4.3570e-01,  1.3598e-01,  1.4241e-01,  1.7521e-01,
          1.4688e-01,  1.1414e-01,  1.1569e-01,  2.1555e-01, -2.5890e-03,
         -2.1683e-01, -2.1065e-01,  2.3912e-01,  3.0994e-02,  8.6734e-02,
          1.7278e-01,  4.5426e-03, -2.9286e-01, -2.7043e-01],
        [-2.1538e-01, -3.4134e-02,  2.4408e-01,  4.6320e-01,  7.6138e-02,
         -1.9064e-01, -1.5417e-01, -3.3250e-01, -3.4745e-01, -1.7257e-01,
          2.5751e-01,  1.4175e-01, -3.6483e-01, -2.7498e-01, -1.3524e-01,
          8.2153e-02, -9.5501e-02,  2.2939e-01,  1.2173e-02,  8.6456e-02,
          2.9849e-01, -6.7427e-03, -1.7665e-01, -9.6814e-02,  8.5273e-02,
         -3.8035e-01, -3.2599e-01, -6.3760e-02,  4.4313e-01,  3.0666e-01,
          1.0615e-01, -1.5675e-01,  1.8878e-01,  2.3250e-01,  6.3476e-01,
          3.7336e-01,  5.2847e-01,  2.0838e-01,  5.9113e-02,  3.5495e-01,
          5.2757e-01,  6.0582e-01,  7.4919e-02, -1.6553e-01,  2.5470e-02,
          8.5148e-02, -3.1963e-02,  2.1202e-01,  7.2157e-02],
        [-2.1057e-01, -6.5090e-02,  9.6074e-02,  3.3024e-01,  2.4542e-01,
          3.6510e-01, -3.6434e-02, -3.6214e-01, -2.1433e-01, -7.0778e-02,
         -5.1322e-02,  1.2412e-02,  1.3450e-01, -2.4345e-02, -4.5427e-02,
          2.1849e-01,  1.4274e-01, -9.8834e-02, -6.8555e-02,  6.2225e-02,
         -1.3038e-01,  3.0817e-02, -5.3545e-02, -3.1905e-01,  5.3511e-01,
          2.0423e-01, -2.4137e-02,  1.3935e-01, -2.9711e-01, -6.2045e-02,
          2.8327e-01,  4.2298e-01, -1.9693e-01, -2.5992e-01, -1.7155e-01,
         -3.3216e-01,  4.5857e-02, -2.3462e-01, -6.8474e-02,  1.4031e-02,
          5.6834e-02, -2.2970e-03, -1.5763e-01, -1.1234e-01, -1.6944e-02,
          8.6452e-02,  1.2638e-01,  9.2394e-02, -9.9138e-03],
        [ 1.9192e-01,  7.1454e-02,  4.8006e-02,  3.7420e-02,  3.9324e-02,
          1.3100e-01, -5.9491e-02,  8.0280e-02,  4.5505e-02,  4.2228e-02,
         -1.1351e-01, -1.4378e-01,  6.3102e-03,  3.3307e-01, -4.3182e-01,
          2.3129e-02,  1.9627e-01, -6.1017e-02, -3.8933e-01, -3.3084e-01,
          2.7131e-01, -1.0397e-01, -3.0927e-03,  3.8319e-01,  3.3888e-01,
         -9.6026e-02, -1.0042e-01, -6.2939e-02, -2.0392e-01, -1.1607e-01,
         -4.4038e-01, -1.9029e-01, -2.2786e-03,  1.0046e-01, -8.1968e-02,
         -2.7970e-02, -2.0638e-01, -3.0539e-02, -7.2546e-02,  2.7568e-01,
          7.7441e-02,  7.5001e-02,  1.1681e-01, -2.2732e-01,  3.7337e-02,
         -1.2290e-01,  5.8991e-02, -7.1573e-02, -1.2642e-01],
        [-2.6183e-01,  4.6318e-01,  6.0037e-01,  1.2264e-01,  4.7048e-02,
          4.8675e-01,  5.0224e-01,  7.3268e-02,  3.0625e-01, -8.4350e-02,
          7.1870e-02, -9.4972e-02, -1.7258e-01,  7.8578e-02, -2.4518e-01,
         -3.9126e-02,  2.7611e-03, -1.0486e-01, -2.1344e-01, -2.1327e-01,
         -2.2882e-01,  6.8401e-02,  1.0785e-01,  3.6985e-01,  1.0706e-01,
          2.4641e-04,  2.5717e-01,  2.5065e-01, -3.8465e-01, -6.3803e-02,
          1.5854e-01,  8.3317e-02,  8.9420e-02,  4.6958e-02,  2.0670e-01,
         -1.8364e-01,  6.5421e-02,  1.9748e-01,  2.4065e-01,  3.9461e-01,
          5.6565e-01,  3.4573e-01, -2.9032e-01, -1.3593e-01, -7.1370e-02,
         -1.9135e-01, -1.7445e-01,  4.6831e-02,  8.2083e-02],
        [ 2.9385e-02, -1.0744e-01, -4.5216e-01, -2.7357e-01,  7.4918e-02,
          2.4721e-01,  2.1724e-01, -2.9550e-02,  5.2129e-02, -2.4497e-01,
         -1.1497e-01,  2.4766e-02,  9.7689e-02,  1.5474e-01, -2.3539e-01,
         -2.8006e-01,  1.8296e-02, -2.5704e-01, -1.6162e-01, -2.8019e-02,
         -2.9878e-01,  4.7414e-02,  3.1321e-01,  2.2421e-01,  5.2769e-02,
          3.6411e-01,  2.5769e-01, -5.9079e-02, -2.2211e-01,  3.0269e-01,
          2.7555e-01,  3.9070e-01,  1.6987e-01, -1.1418e-01, -6.9797e-02,
         -5.8203e-02, -4.3392e-01, -3.2786e-01, -2.7337e-01, -2.0746e-01,
         -5.7401e-02, -1.1803e-01, -4.7849e-02, -1.3193e-01, -1.4336e-01,
         -2.6053e-01, -1.1202e-01,  1.5141e-01,  7.5659e-02],
        [ 3.8035e-01,  4.2739e-01,  3.9870e-01,  1.9904e-01, -9.3602e-02,
          8.5813e-02,  2.4942e-01,  4.2870e-01,  4.2711e-01,  9.5537e-02,
          2.4658e-02, -2.1301e-01, -6.2293e-02, -3.2458e-01,  3.1271e-01,
          6.9243e-02, -3.0661e-01,  8.8966e-02,  9.5149e-02, -1.1529e-01,
         -5.5653e-01,  2.8366e-01,  5.6131e-02, -1.0521e-01, -1.4497e-01,
          2.6363e-01,  5.4527e-02,  1.6771e-01,  1.4864e-01, -2.4627e-01,
         -3.2667e-02,  7.3385e-03,  8.9938e-02,  4.4068e-02, -1.6137e-01,
          1.9172e-01, -1.8354e-01, -7.4179e-02,  1.5241e-01,  1.6921e-02,
         -2.0883e-01, -6.2748e-01,  2.2578e-01,  4.0062e-01,  2.7026e-03,
         -1.6798e-01, -8.4858e-02, -1.3450e-01, -1.7050e-01],
        [-1.6404e-02, -4.3963e-01, -5.9985e-01, -7.0306e-01, -5.6507e-01,
         -4.0650e-01, -2.9987e-02,  5.7986e-02, -1.4329e-03, -9.3216e-02,
          1.5591e-01, -7.4986e-02, -1.1062e-01, -1.9831e-01,  7.2893e-02,
          3.1774e-01,  4.2733e-01,  2.5031e-01,  1.8493e-01,  1.0515e-01,
         -1.0231e-01,  2.8108e-02, -1.8782e-01, -3.7568e-01, -3.1553e-01,
          1.8954e-01, -9.9415e-02,  7.9784e-02, -6.2880e-02, -3.3892e-01,
         -9.1682e-02,  2.4768e-01, -1.7327e-02, -1.8251e-01,  2.0752e-01,
         -1.7674e-01, -1.0572e-01, -1.3473e-01, -3.1882e-01, -1.8599e-01,
         -8.6199e-02,  8.9515e-02,  3.1222e-02,  5.7237e-02,  1.1011e-01,
          5.2364e-02,  1.8246e-01,  1.8435e-01,  1.5684e-01],
        [-1.0494e-01,  3.4370e-02,  1.2197e-01,  1.7430e-01, -1.2744e-01,
         -4.0965e-01, -3.7447e-01,  3.7816e-01,  2.3030e-01,  7.5315e-02,
          2.4663e-01, -7.2643e-02, -1.7185e-01, -4.7094e-01,  4.6379e-01,
         -4.5382e-02, -3.1109e-01,  1.0231e-01,  5.5627e-01, -2.0874e-02,
         -4.6734e-01, -5.0135e-02, -2.9896e-01, -3.2160e-01,  2.4135e-01,
          8.2123e-02, -3.4654e-01, -2.5623e-01,  2.4546e-01, -2.2945e-01,
         -1.0126e-01,  6.8730e-02, -2.3981e-03, -8.3247e-02,  3.0561e-02,
          2.3502e-01,  1.0135e-01,  1.3282e-01, -1.3066e-01,  5.0197e-02,
         -3.5257e-02,  8.1386e-02,  3.1220e-01,  2.7333e-01,  3.7911e-02,
          7.7143e-03, -4.3336e-03, -1.0462e-02,  3.0562e-02],
        [ 2.0629e-01, -1.8495e-01, -2.1687e-01,  1.9674e-01, -5.7889e-02,
          1.6744e-01, -1.3738e-01,  7.2753e-02, -9.0893e-02, -2.0862e-01,
         -1.1726e-01, -1.9139e-01,  1.1304e-03, -3.3921e-01,  7.4822e-02,
         -1.2406e-01,  7.0741e-02,  2.9358e-01,  1.2303e-01, -1.3116e-01,
         -2.6535e-01,  2.0250e-01,  1.1831e-01, -3.8986e-01, -1.6265e-01,
          1.2210e-01,  5.6020e-02, -8.7161e-02, -1.3501e-01, -2.5321e-01,
          1.2700e-01, -1.3001e-01, -9.8069e-02, -2.8390e-01, -7.5187e-01,
         -5.6728e-02, -4.0118e-02, -6.6300e-02,  5.9708e-02, -3.9598e-01,
         -7.3304e-01, -4.0789e-01,  3.2538e-02,  1.7640e-01,  1.6109e-01,
          1.1471e-01,  1.9597e-02, -3.0349e-01,  3.6614e-02],
        [-1.7208e-01,  9.1300e-02,  2.7412e-02,  1.8031e-02,  2.1870e-01,
         -9.8879e-02, -1.4875e-01,  1.0824e-01,  2.9221e-02,  5.5297e-02,
         -9.8140e-02, -7.4902e-02,  2.1665e-01,  2.2261e-01,  1.0656e-02,
         -1.7024e-01, -6.2754e-02, -3.2009e-01,  4.9089e-03, -5.4642e-02,
         -5.5103e-02, -3.4449e-01, -4.4319e-01, -1.3193e-01,  4.0595e-01,
          4.7931e-02,  8.1237e-03,  1.0877e-01,  1.1614e-01, -2.6073e-01,
          1.2381e-02,  4.7082e-01, -1.7550e-01, -1.8064e-01,  1.0894e-02,
          4.1829e-02,  4.0780e-01,  1.5706e-01,  3.8563e-02,  9.8062e-02,
          7.9845e-02, -4.0796e-02, -1.2247e-01, -1.8194e-01, -3.0407e-01,
         -1.4893e-01, -1.7909e-01, -1.6808e-01, -2.1694e-01],
        [-9.2734e-02, -6.3251e-02,  1.0441e-01, -1.3974e-01, -2.6384e-01,
         -6.7918e-02,  2.0686e-01,  1.1924e-01,  2.7062e-01,  1.2716e-01,
         -1.6386e-01,  4.2707e-03,  3.0242e-02,  1.9301e-01,  8.7779e-02,
         -4.3981e-03,  3.3063e-03, -1.6671e-01,  3.4422e-01,  3.5880e-01,
          4.2390e-02,  7.5881e-02, -3.3743e-02,  1.9327e-01, -6.6960e-02,
          3.1526e-01,  1.4604e-01,  3.2145e-01, -7.9738e-02,  2.2980e-01,
          4.0437e-01,  4.8349e-01,  5.3815e-02, -2.1466e-01, -6.6342e-03,
         -9.6537e-02, -2.5109e-01, -1.2695e-01,  6.8474e-02, -1.1447e-01,
         -1.2355e-01,  5.3046e-02, -2.3926e-01, -6.4311e-02, -1.5597e-01,
         -3.2534e-01, -2.7453e-01, -4.1285e-02, -1.7006e-03],
        [ 1.0584e-01, -3.1232e-01, -4.2415e-01, -3.3887e-01, -9.0466e-03,
         -1.3361e-01, -1.8994e-01,  3.0783e-01,  1.5311e-01,  2.6550e-01,
         -1.0105e-03,  1.5912e-01,  4.6993e-01,  6.2833e-01,  2.8586e-01,
         -1.0008e-01,  1.1470e-01,  5.7610e-02,  1.0532e-01,  2.4177e-01,
          7.1797e-01,  1.0020e-01,  1.0169e-01,  3.4182e-01,  1.9185e-02,
          2.3412e-01, -1.6202e-01, -3.3277e-01,  5.6054e-01,  5.2675e-01,
         -4.2650e-01, -2.0375e-01,  7.1413e-02,  1.7802e-02, -1.3477e-01,
          5.1922e-01,  6.5569e-01,  7.1494e-03, -1.5573e-01, -4.3382e-02,
          2.2621e-01,  1.5321e-01,  1.3212e-01,  2.2053e-01,  6.2638e-01,
          3.0093e-01,  5.0173e-01,  5.2885e-01,  3.6463e-01],
        [-1.5300e-01,  2.6805e-01,  9.3491e-01,  7.7316e-01,  4.1929e-01,
          4.5028e-01,  2.9277e-01, -6.3365e-02, -1.2747e-01,  1.1652e-01,
          1.2164e-01, -5.9851e-02, -1.6589e-02, -1.3284e-02, -6.3448e-02,
         -1.1731e-02, -1.8895e-01, -1.1857e-02, -1.9367e-01, -1.9888e-02,
          2.9617e-01, -3.4984e-01, -2.4686e-01, -1.3875e-01,  4.3647e-01,
         -2.6935e-01, -8.3693e-02,  8.1970e-02, -5.4284e-03, -1.4105e-01,
          5.9547e-02, -7.6097e-03,  2.1785e-02, -1.3843e-01,  5.7011e-02,
          1.8761e-02,  4.0985e-01,  3.3968e-01,  2.8396e-01,  3.1405e-01,
          3.3006e-01,  2.0605e-01, -8.1911e-02, -2.1316e-02, -2.4531e-02,
          1.7642e-02, -6.9205e-02, -1.5706e-01, -4.8149e-02],
        [ 2.6994e-01, -3.4808e-02, -2.3039e-01, -1.1754e-01, -2.5523e-01,
          5.8665e-02, -2.8253e-02,  1.3860e-01,  2.0621e-01,  2.5301e-01,
         -1.5329e-01, -2.5070e-01, -1.4568e-01,  1.3555e-01, -8.9514e-02,
          2.9813e-01,  3.4574e-01,  3.6719e-01, -3.6992e-02, -3.5919e-01,
          1.1277e-01,  1.8727e-01,  3.7977e-01,  5.0773e-02,  1.3271e-01,
          3.8625e-01, -4.6101e-02, -7.9443e-02, -2.7254e-01, -1.2630e-01,
         -1.0791e-01, -4.0727e-03, -1.1345e-02,  2.9740e-01, -5.1689e-02,
         -1.1504e-01, -3.1839e-01, -3.0178e-01, -2.4635e-03, -1.4692e-01,
         -2.1859e-01, -3.2252e-01,  3.3339e-01,  1.0480e-03, -1.4432e-01,
         -1.4881e-01, -7.1763e-02, -1.1952e-01,  4.2710e-02],
        [ 5.6414e-02, -6.6905e-02, -1.9705e-01, -3.5433e-01, -6.4317e-01,
         -2.7051e-01, -4.4006e-03, -9.8382e-02, -1.3123e-01,  1.3456e-01,
          7.8784e-02,  1.3073e-01, -1.8523e-01, -1.9215e-01,  2.1629e-01,
          2.5266e-01,  1.2882e-01,  1.1376e-01,  1.7921e-01,  1.0504e-01,
          3.0093e-02,  1.9149e-01,  2.8449e-01, -1.2898e-01,  9.7106e-02,
          2.2683e-01,  3.9041e-02, -1.5613e-01, -1.1473e-01, -3.6970e-01,
         -1.1044e-02,  9.6107e-02, -2.9073e-01, -3.6732e-01, -3.9365e-01,
         -3.7782e-01, -1.1329e-02, -4.2522e-02, -1.3289e-01, -7.1159e-02,
          4.3458e-02, -9.7220e-02,  5.4818e-02,  3.8568e-01,  2.9270e-01,
          4.4543e-01,  4.8870e-01,  3.8426e-01,  1.4814e-01],
        [-1.5192e-01, -3.3814e-01, -3.2427e-01, -2.3886e-01, -2.0786e-01,
          1.3123e-01, -6.1463e-02, -6.4010e-01, -6.5062e-01, -2.3608e-01,
          3.3587e-01,  1.4428e-01, -7.7273e-02,  1.2310e-01, -4.8789e-01,
         -8.1481e-02,  4.1006e-01, -4.5713e-02, -3.7041e-01,  2.7557e-02,
          2.9791e-01,  9.6928e-02,  2.5673e-01,  1.9074e-01,  2.1683e-01,
         -1.2728e-01, -1.5131e-01, -1.5554e-01, -4.6717e-01, -1.3093e-01,
          1.0703e-01, -1.6894e-01, -4.5007e-02, -2.2672e-01, -3.7434e-01,
         -5.6781e-01, -2.2465e-01, -5.5783e-02, -2.3509e-02, -8.3515e-02,
          1.0141e-01,  8.7122e-02, -2.9733e-01, -1.1725e-01, -7.9161e-02,
          5.1375e-02,  1.9256e-01,  2.7527e-01,  3.3070e-01],
        [-2.0889e-01,  1.4930e-01,  2.3555e-01,  2.3813e-01,  9.8006e-02,
         -7.7248e-02, -5.4968e-02,  1.2264e-01,  2.0898e-01, -8.5455e-02,
          3.2935e-02,  1.2375e-01, -1.7029e-01, -4.1583e-01,  5.0766e-01,
          5.0370e-01, -1.8387e-01,  2.7571e-02,  1.6463e-01,  2.1272e-01,
         -2.1925e-01,  2.4000e-01,  1.6296e-01, -3.8499e-01, -3.4416e-01,
         -2.4361e-02,  3.8884e-01,  7.4691e-01,  1.9125e-01,  3.8124e-01,
          3.0587e-01,  2.4804e-01, -1.8953e-01,  2.3652e-01,  7.3933e-01,
         -1.0496e-01,  1.3126e-01,  1.4585e-01, -1.8533e-02, -5.7792e-03,
          4.1123e-01,  4.5337e-01, -1.5389e-01, -5.8702e-02, -1.2601e-01,
         -5.5925e-02,  8.2623e-02,  1.0991e-01, -2.3398e-02],
        [ 3.2262e-01, -3.2667e-01, -4.3219e-01, -1.6380e-01, -1.7277e-01,
          1.6603e-01,  2.0535e-01,  1.0175e-01, -8.3523e-01, -7.8549e-01,
         -3.1059e-01, -5.8542e-02,  1.1727e-01,  9.7758e-02, -1.1496e-01,
         -8.8783e-01, -3.8829e-01,  3.6689e-01,  2.0416e-02, -1.0745e-01,
          4.1634e-01, -7.5904e-02, -5.8229e-01, -3.1968e-01,  3.1471e-01,
         -2.7866e-01, -6.4693e-01, -7.8092e-01,  5.8160e-03,  6.3495e-02,
         -3.5403e-01,  1.3994e-01, -6.6986e-02, -4.9585e-01, -9.1062e-01,
         -3.9346e-02,  2.8429e-01,  9.5102e-02,  6.7632e-02, -4.0980e-01,
         -8.8663e-01, -5.4208e-01,  1.0000e-01,  3.0399e-01, -3.5661e-02,
         -1.5913e-01, -4.4621e-01, -4.4666e-01, -2.7957e-02],
        [-2.8462e-03,  1.0829e-01, -1.4128e-02, -7.7339e-02, -7.6609e-01,
         -3.7847e-01, -8.7485e-02,  9.3999e-02,  1.8763e-01,  1.2663e-01,
          8.5425e-02, -4.6637e-01, -8.7857e-01, -7.4152e-01,  1.8286e-01,
          9.3831e-02, -6.0773e-02,  2.7714e-01,  2.7667e-01, -8.3448e-01,
         -9.6156e-01, -5.6595e-02, -8.1594e-02, -2.9475e-01,  1.4877e-02,
          1.6467e-01, -3.1660e-01,  1.2228e-01, -3.7736e-01, -4.8704e-01,
         -9.9466e-02,  3.3482e-01, -1.2639e-01,  6.6853e-02,  1.8877e-01,
         -3.8608e-01, -6.5859e-01, -1.7982e-01, -1.8231e-02, -2.1946e-01,
         -3.2971e-01, -3.4422e-01, -6.0976e-02, -1.6769e-01, -2.6511e-02,
          1.2322e-01,  1.7145e-01,  6.0426e-02, -8.5489e-02],
        [-6.6993e-02, -1.3581e-01, -5.9813e-01, -3.3988e-01, -2.8454e-01,
         -1.3561e-01, -3.6453e-01,  2.7312e-01,  2.1111e-01,  2.3758e-01,
          1.8564e-01,  2.6960e-01,  1.1003e-01,  1.8541e-01,  4.3903e-01,
          1.0608e-01,  1.6295e-01,  2.1666e-01,  4.2608e-01,  4.1519e-01,
          2.2351e-01,  3.8407e-01,  2.5340e-01,  2.8108e-01, -9.2455e-02,
          1.6396e-01,  8.9814e-03, -4.2658e-01,  2.7171e-01, -3.2669e-02,
         -3.4700e-01, -3.8484e-01,  4.6877e-02, -7.9546e-02, -2.7132e-01,
          1.4872e-01,  1.0389e-01, -1.9870e-01,  3.3983e-02,  7.4677e-02,
         -1.4441e-01, -1.2171e-02,  1.1774e-02,  1.5534e-01,  3.5308e-01,
          7.2871e-01,  4.9381e-01,  3.3246e-01,  1.0684e-01],
        [-4.1047e-01, -1.3969e-01, -8.1241e-02,  2.1653e-01, -3.2714e-02,
         -3.8954e-01, -1.3917e-01, -6.2685e-02,  2.2271e-01,  3.2793e-01,
          1.2657e-01,  2.1619e-01,  4.0108e-01,  4.8822e-01,  9.7462e-02,
          1.4749e-01, -8.6873e-02,  3.7600e-02, -1.6574e-02,  1.4071e-01,
          6.0827e-01, -3.4149e-01, -5.7158e-01, -2.3833e-01, -1.0200e-02,
         -2.3172e-01, -4.9199e-01, -2.7440e-01,  3.9182e-01,  1.0405e-01,
         -2.0105e-01,  2.0180e-02, -5.1917e-02,  2.5426e-02,  2.6788e-01,
          2.1505e-01,  4.3392e-01,  2.8295e-01,  1.5254e-02,  3.5370e-02,
          1.9187e-01,  2.7578e-01, -1.5032e-01, -2.4242e-01, -2.4927e-02,
          2.2592e-01,  9.7770e-02, -2.1502e-01, -1.2225e-01],
        [ 1.0963e-01, -5.1210e-02, -1.9143e-01, -2.4063e-01, -1.1257e-01,
          5.3713e-01,  4.9123e-01, -3.3248e-01, -1.8227e-01, -2.7387e-01,
         -3.1040e-01, -2.9219e-02,  7.4172e-02,  4.2486e-01, -4.3046e-01,
          1.5902e-01,  4.4676e-01,  4.2343e-02, -2.9029e-01,  1.5364e-01,
          3.5530e-01,  2.7370e-01,  4.2202e-01,  1.6942e-01,  1.3403e-01,
          3.4488e-02,  2.9470e-01,  7.0962e-01, -5.8622e-01, -2.9865e-01,
          3.5312e-01,  9.8399e-02, -1.8431e-01, -2.1124e-01, -3.6201e-01,
         -3.9787e-01, -3.5938e-01, -1.6401e-02,  2.4371e-01,  5.7816e-02,
         -1.1571e-01, -1.3588e-01, -4.0408e-01, -2.1207e-01, -7.4223e-02,
          1.2170e-01,  1.4510e-01, -1.3684e-01, -9.2866e-03],
        [ 5.4905e-02,  2.5349e-01,  3.4349e-01, -3.2092e-02,  1.0231e-02,
         -1.2206e-01, -1.6834e-01,  7.7779e-01,  4.0772e-01,  6.0688e-02,
          1.4732e-02, -1.4095e-01, -1.9073e-01, -1.8742e-01,  4.4032e-01,
          4.8768e-02, -6.0053e-01, -3.1819e-02,  1.8965e-01, -1.1558e-01,
         -6.1508e-01,  1.4081e-01, -6.0446e-02,  6.2017e-02,  1.4140e-01,
          2.4296e-01,  5.0211e-03, -7.0183e-02,  4.6450e-01,  2.4562e-02,
         -1.7138e-01, -2.2761e-02,  2.3840e-01,  1.5596e-01, -1.8611e-01,
          4.0953e-01, -1.5478e-02, -2.4723e-01, -3.3730e-03, -2.7006e-02,
         -2.3180e-01, -5.8016e-01,  4.4870e-01,  2.7789e-01,  7.7208e-02,
         -1.6304e-01, -3.4969e-01, -1.7386e-01, -2.7646e-01],
        [ 1.1993e-01, -2.9253e-01, -1.8135e-01,  2.1909e-02, -1.1106e-01,
         -1.5871e-01, -1.4698e-01, -2.2863e-01, -2.5406e-01, -1.9578e-01,
         -4.8288e-02, -7.3926e-02,  9.4542e-02, -6.3970e-02, -2.0983e-01,
         -2.1640e-02,  1.4693e-01, -3.0794e-02,  1.6581e-01, -1.6033e-01,
          1.7810e-03,  1.7223e-02,  2.3244e-01, -3.2258e-01, -2.7295e-01,
         -1.7143e-01, -3.1234e-01, -2.7912e-01, -3.8617e-01, -2.5391e-01,
         -2.2142e-01,  3.2984e-01, -4.7491e-01, -2.5745e-01, -1.5481e-02,
         -1.8186e-01,  1.2336e-01, -5.3684e-02, -1.1956e-01,  1.2217e-01,
          4.0773e-01,  5.0103e-01,  2.0916e-01,  1.6704e-01, -1.0435e-01,
         -5.8580e-02,  3.7893e-01,  3.1024e-01,  3.8228e-01],
        [ 1.3966e-01, -3.0055e-01, -2.5806e-01,  9.5971e-02,  4.7185e-02,
          3.6016e-04, -1.4857e-01,  6.7812e-02,  1.2728e-01,  8.2486e-02,
         -7.9209e-02, -1.8587e-01,  2.1161e-01,  3.6279e-01,  3.2677e-01,
          3.1806e-01,  2.4512e-01,  2.2061e-01,  2.1780e-03, -1.6776e-02,
          4.4141e-01, -1.0447e-01, -1.3846e-01, -1.5130e-01,  5.0546e-01,
          2.5746e-01, -2.5239e-01, -3.3601e-01, -6.4301e-02, -2.9558e-01,
         -2.5686e-01, -5.4651e-02, -3.2408e-01, -2.1510e-01, -7.1149e-02,
         -2.1463e-01, -1.1101e-01, -1.2499e-01, -2.0838e-02,  2.2876e-01,
         -1.3909e-02, -1.9439e-01, -3.6303e-02, -3.0400e-01, -1.8593e-02,
          2.2411e-01,  4.1320e-01,  2.3867e-01,  1.7247e-01],
        [ 3.6635e-02, -2.0128e-02, -4.5998e-01, -3.3847e-01, -3.7664e-01,
         -8.7504e-02, -3.6395e-01, -5.1259e-02, -2.4349e-01,  9.7222e-02,
          2.5967e-01,  2.5977e-02, -1.0308e-01, -2.6053e-01,  2.1913e-01,
          1.6922e-01,  2.0815e-01,  1.8634e-01,  1.3663e-01, -5.1116e-02,
         -7.1826e-02,  1.5984e-01, -5.3103e-02, -3.7836e-01,  2.0754e-01,
          2.6175e-01,  1.0128e-01, -3.8925e-02, -3.1903e-02, -1.2978e-01,
         -2.9327e-01,  1.0480e-01, -1.8043e-01, -1.6872e-02,  5.0062e-04,
         -2.0378e-03,  1.1092e-01, -1.3946e-01, -2.8338e-01, -1.3963e-01,
          9.5963e-02,  1.2345e-01,  4.1278e-01,  5.3886e-01,  3.0301e-01,
          2.5562e-01,  3.9203e-01,  4.1911e-01,  2.0331e-01]])
[LAYER]: fc1.bias | [SHAPE]: torch.Size([30])
tensor([ 0.2305, -0.4237, -0.0990,  0.0346,  0.0036, -0.2886,  0.3010, -0.3424,
        -0.1607,  0.1017, -0.2409, -0.3305,  0.2957,  0.0607, -0.3207, -0.1547,
        -0.2498,  0.2782, -0.1725, -0.2889,  0.0410,  0.3635,  0.1003, -0.1344,
        -0.0636, -0.0762,  0.1664,  0.4861,  0.0642,  0.0595])
[LAYER]: fc2.weight | [SHAPE]: torch.Size([30, 30])
tensor([[ 5.1349e-02, -5.1130e-01,  2.4876e-01, -4.9284e-01,  3.8390e-02,
          1.0336e-01,  6.0836e-01,  2.8848e-01,  3.8251e-01, -4.8010e-02,
         -2.3031e-01, -6.1430e-01,  2.1579e-02, -5.7991e-02, -1.5454e-01,
          3.7874e-02, -1.9100e-01,  7.2381e-01, -1.5345e-01,  4.0729e-01,
         -2.8437e-01,  6.8540e-01, -6.2024e-01, -3.7740e-01, -5.0093e-01,
          4.2859e-01, -1.1771e-01,  4.4746e-01,  2.0769e-01,  3.1221e-01],
        [ 4.9000e-02,  7.9044e-02, -8.0922e-01, -1.6674e-01, -4.5269e-01,
         -2.5492e-01, -4.0124e-01,  4.7575e-02,  3.0650e-01,  2.9967e-02,
          5.3595e-02, -1.8734e-01,  2.8965e-02, -1.9729e-01,  3.5758e-01,
         -7.3387e-02, -4.0703e-01, -2.3239e-01,  1.9579e-01, -2.4423e-01,
          2.6553e-01, -4.9759e-01,  3.6194e-01,  5.6666e-01, -4.4218e-01,
          4.4861e-01, -1.0874e-02, -3.2214e-02, -4.9737e-01, -2.8037e-01],
        [ 1.6286e-01,  2.8843e-01, -1.6031e-01, -3.5870e-01, -4.3475e-01,
          4.3860e-01, -2.2448e-01, -4.6408e-01,  3.2823e-01, -7.9463e-03,
          2.6611e-01, -3.5832e-02,  7.0699e-01,  3.1756e-01, -9.1283e-02,
         -1.8663e-01, -2.0023e-01, -4.0924e-02,  6.5100e-01,  5.4935e-01,
         -1.5127e-01,  7.1506e-01,  4.5733e-01,  1.4406e-01, -3.5514e-01,
          2.5922e-01,  9.9084e-03,  3.3403e-01, -1.9134e-01,  5.5591e-01],
        [-2.1371e-01,  2.9440e-01, -2.5055e-01, -3.3272e-01,  7.8076e-02,
          2.0434e-01, -6.3551e-01,  6.5584e-01,  3.5444e-01,  2.7922e-02,
          4.0344e-01,  3.2478e-01, -2.7049e-01, -3.7887e-02,  5.9163e-01,
         -3.1617e-01,  9.3810e-02, -5.0896e-01,  2.5071e-02, -2.1038e-02,
          5.0222e-01, -7.1713e-01,  4.6233e-01,  3.6280e-02,  1.2992e-01,
          7.1889e-02, -4.2349e-02, -5.3327e-01, -2.7151e-01, -2.8661e-01],
        [-3.6045e-01,  4.2711e-01, -3.6551e-01, -2.8264e-01, -3.0049e-02,
          9.6456e-04, -6.4238e-01,  4.5620e-01,  3.7358e-01, -1.9337e-01,
         -1.0928e-01, -3.0061e-01, -2.6957e-01, -3.6856e-01,  3.6308e-01,
         -4.6881e-01, -4.4934e-02, -7.8301e-01, -1.0083e-01,  3.3389e-01,
          2.6287e-01, -1.3233e-01,  5.5929e-02, -4.3317e-01, -2.7685e-01,
          2.1147e-01, -4.2128e-01, -1.4964e-01, -8.3586e-01, -3.5263e-01],
        [ 4.0849e-01,  3.1457e-03,  2.7452e-01,  3.1320e-01, -9.4474e-02,
         -2.6996e-01,  2.1407e-01, -6.6604e-01,  5.6577e-02,  3.2444e-01,
         -1.5792e-01, -1.8090e-01,  8.9248e-02,  3.6760e-02, -3.6364e-01,
          4.7347e-01, -3.9235e-01,  3.9944e-01, -1.8815e-01, -5.5370e-01,
         -3.0726e-01,  5.9692e-02, -2.0760e-01,  3.4449e-01,  1.0647e-01,
         -6.3033e-01,  6.4777e-01, -3.0510e-01, -3.8024e-02,  2.4861e-01],
        [ 2.3540e-01, -2.2561e-01, -1.9168e-02, -4.1982e-01, -1.2668e-02,
          1.5100e-01, -1.1912e-01,  9.8515e-02,  4.0392e-01, -3.1142e-01,
          7.0330e-01,  8.7953e-02, -1.1956e-01,  1.0095e-01,  4.4105e-01,
          4.1858e-01, -3.8304e-01, -9.8875e-02,  3.8586e-01,  1.0339e-01,
          3.0742e-01, -6.0537e-01,  4.4901e-01,  7.2370e-02,  3.5428e-02,
         -1.6919e-01, -1.2112e-01,  4.4213e-01,  1.5563e-01,  7.5257e-01],
        [ 8.4858e-02,  1.2710e-01,  1.7534e-01, -7.4408e-01, -7.3451e-01,
          4.1158e-01,  1.1704e-01,  1.3781e-02,  5.3854e-01,  3.2096e-01,
         -2.5398e-01, -3.0772e-01,  4.3796e-01,  2.2567e-01,  2.1271e-03,
         -5.0282e-01,  1.2101e-01,  2.7879e-01,  5.3363e-01,  3.9371e-01,
         -4.4333e-01,  8.1927e-01,  2.1484e-01, -3.1197e-01, -7.1004e-01,
          5.1520e-01, -1.0113e-01,  1.9940e-01,  7.3590e-03,  2.7963e-01],
        [-4.3392e-02, -7.5135e-02, -5.0097e-01,  2.6283e-01,  6.9773e-02,
         -2.7386e-01, -2.9622e-01, -1.2631e-01, -3.0434e-01,  3.4079e-02,
         -5.7547e-02,  1.0574e-01,  2.1709e-01,  1.8144e-01, -3.4906e-01,
         -5.0040e-01,  8.8087e-02, -1.4200e-01, -2.3268e-03, -5.1233e-01,
          5.9989e-01, -1.5632e-01,  3.2852e-01, -3.6259e-01, -1.2547e-02,
          3.1844e-02, -1.4317e-01,  4.6191e-01, -3.2486e-01, -1.0143e-01],
        [-4.6052e-01, -2.7805e-01, -5.9866e-01,  6.4973e-01,  1.2187e-01,
         -1.8935e-01,  1.9587e-01, -2.5004e-01,  1.3004e-01, -1.8026e-01,
         -2.6735e-01, -9.4462e-01,  8.5883e-02, -4.8738e-01,  1.0703e-01,
          2.4905e-01, -2.1068e-01,  1.4876e-01, -4.2850e-01, -8.8275e-02,
          1.4077e-01, -4.9267e-02, -6.8217e-01,  7.2703e-02,  3.9818e-01,
          3.1748e-01, -4.0791e-01, -3.6974e-01, -9.4883e-02, -3.3116e-01],
        [ 2.7145e-01,  7.2321e-01, -1.3020e-02, -6.8926e-02,  4.0997e-01,
         -3.6261e-01,  2.3279e-02,  1.8503e-01,  2.3800e-01, -1.0242e-01,
         -9.5635e-02,  9.3998e-02, -1.0704e-01, -1.0182e+00, -3.7321e-01,
          1.2672e-01,  2.6720e-02,  8.1502e-02,  5.4121e-02,  5.5524e-01,
         -2.8712e-01,  3.1390e-01, -3.5359e-01,  3.3736e-01, -6.6405e-01,
         -5.7643e-02,  3.0658e-01, -1.8892e-01, -3.5964e-01, -1.2553e-01],
        [ 1.2638e-02,  2.1289e-01, -4.6932e-01, -3.7651e-03, -3.8563e-02,
         -2.7510e-01, -1.8957e-01, -6.6805e-02,  2.3304e-01, -2.7504e-01,
          3.1880e-01, -2.7474e-01,  2.5985e-01, -4.5572e-01,  1.4174e-01,
          3.1948e-01, -5.2096e-01,  1.1610e-01,  3.9262e-01,  4.8162e-01,
         -1.9085e-01,  1.6301e-01, -2.7288e-01,  7.1429e-01,  1.3543e-02,
          4.3823e-01, -4.1135e-01,  1.7936e-01,  7.3817e-02,  2.2463e-02],
        [-3.6586e-01,  2.1441e-01, -2.0721e-01, -3.0256e-01, -3.1521e-01,
          4.2690e-01, -1.5585e-01,  5.1013e-01,  2.8207e-01,  2.6497e-01,
         -3.8230e-02, -5.9380e-02,  3.4071e-01, -9.2199e-03,  6.9968e-01,
         -3.1945e-01, -7.5225e-02,  4.4948e-01,  2.6241e-01,  7.0272e-02,
         -2.7175e-01,  7.9642e-02,  2.4086e-01,  1.9935e-01, -5.2184e-01,
          4.1091e-01, -8.0584e-02, -6.8302e-01,  8.9600e-02,  4.4451e-02],
        [ 3.6484e-01, -2.1882e-01, -4.2846e-01,  5.6412e-01,  2.2364e-01,
         -6.8612e-01,  6.1199e-01, -5.1987e-01, -4.1645e-01, -5.7014e-02,
         -2.3622e-01, -5.1810e-01,  3.4828e-01, -3.0205e-01, -7.8590e-01,
         -2.2837e-02, -4.0313e-01,  1.7148e-01, -3.8455e-01, -1.3350e-02,
          1.3419e-01,  2.7342e-01, -2.8575e-01,  5.2137e-02,  3.4391e-01,
         -2.6325e-01, -2.3662e-01,  7.5946e-01,  1.2559e-01, -1.4573e-01],
        [-5.3425e-01,  5.0396e-02, -6.7877e-01,  6.6239e-01,  1.2099e-01,
         -1.4845e-01, -2.8126e-01, -9.5236e-02, -7.2987e-01, -1.6353e-02,
          3.5555e-01,  3.4690e-02,  5.6561e-01,  8.7974e-02, -3.8330e-02,
         -5.2733e-01,  8.5802e-02, -1.8838e-02,  9.5404e-02, -5.8265e-02,
          4.0264e-01, -2.1879e-01,  2.9640e-01, -1.4760e-01,  1.7977e-01,
          2.7751e-01, -5.1416e-01,  4.0002e-01,  2.6575e-01,  9.6683e-02],
        [ 4.5784e-02,  6.6590e-02,  3.5463e-01,  8.8064e-02,  4.3459e-01,
         -3.1735e-01,  6.9291e-03,  2.9413e-01, -1.2390e-01, -1.5549e-01,
         -2.9007e-01,  7.8704e-03, -4.0887e-01, -1.6388e-01, -2.6799e-01,
          6.3544e-03,  2.4423e-01, -2.4756e-01, -4.4025e-01, -4.3843e-01,
          6.0887e-02, -3.2879e-01, -1.1104e-01, -3.8489e-01, -3.6455e-02,
         -3.6620e-01,  1.2053e-01, -2.1197e-01, -2.5000e-01, -1.6449e-01],
        [-6.6352e-02, -1.1527e-01, -6.4617e-01,  1.3794e-02,  3.1394e-02,
         -2.3243e-01, -4.5531e-02,  1.0077e-01, -2.8017e-01,  1.9297e-01,
         -3.3021e-01, -6.3406e-01,  2.3757e-01, -6.3060e-01, -3.5449e-01,
         -5.1540e-01, -1.1037e-01,  2.9601e-01, -1.9908e-01,  2.2159e-01,
         -6.5137e-02,  1.5238e-01,  2.5590e-01, -1.6037e-01, -5.3999e-01,
          6.6296e-01, -6.9861e-02,  1.0861e-01, -2.0442e-01, -1.9802e-01],
        [ 6.4755e-01,  3.1520e-01,  3.4657e-03, -2.5819e-02,  5.2355e-02,
         -4.2079e-01, -2.0557e-01, -4.0614e-01, -2.8606e-02,  2.3450e-01,
          2.4992e-01,  2.8012e-01, -4.1627e-02, -5.3931e-01, -2.2287e-01,
          8.9094e-02, -5.8266e-01,  2.0363e-01,  3.9227e-01, -1.8901e-01,
          1.1872e-01, -2.4968e-01,  3.5568e-01,  1.7719e-01, -4.5392e-01,
         -5.3862e-01,  6.1072e-01, -1.7228e-02, -5.0224e-02,  3.3351e-01],
        [-1.8188e-02, -6.1850e-01, -8.8876e-02, -3.8286e-01, -5.0842e-01,
         -3.6032e-01,  6.0108e-01,  3.5194e-01,  6.2949e-01, -2.7586e-03,
         -6.4950e-01, -5.2360e-01, -2.6996e-01,  1.0967e-01,  2.0442e-02,
         -2.2970e-01, -8.7335e-02, -6.3143e-02, -4.9681e-01,  6.5674e-02,
         -4.4110e-01,  6.3857e-02, -1.7183e-01, -9.2766e-02, -2.6407e-01,
          3.6536e-01,  3.0936e-01, -3.2515e-01, -1.6818e-01, -5.7988e-01],
        [-1.8859e-03,  4.8334e-01,  6.0038e-01,  2.3297e-01,  4.1714e-01,
          2.7882e-01,  4.4192e-01,  6.5860e-02, -6.3182e-01, -2.8140e-02,
         -2.5170e-01,  1.2697e-01, -1.0733e-01,  1.7036e-01, -6.2127e-01,
         -8.8952e-02,  6.7833e-01, -2.5782e-01,  1.2386e-01,  5.6799e-01,
         -4.0912e-01,  3.6694e-02, -3.6954e-01, -3.2884e-01,  1.0187e-01,
          1.5864e-01, -7.9047e-02, -3.2496e-01,  4.7117e-01,  9.9455e-02],
        [ 3.8099e-01, -5.5455e-01, -4.2920e-01, -5.9682e-01, -7.1765e-01,
         -1.7122e-01, -3.2649e-02, -3.7656e-01,  8.6547e-01,  1.4732e-01,
          3.7408e-01, -1.1561e-01,  4.6239e-01, -2.3908e-01,  4.5483e-01,
          1.8367e-01, -9.7062e-01,  2.8522e-01,  2.7058e-01, -1.2105e-01,
          4.5904e-02, -3.2744e-01,  5.2578e-01,  2.0991e-01, -4.2095e-01,
         -1.7094e-01, -7.3279e-02,  1.1389e-01, -2.1501e-01,  4.3935e-01],
        [-4.6749e-01,  3.2895e-01,  1.5479e-01,  1.6997e-02, -3.1380e-02,
          3.1071e-01, -5.0367e-01,  3.0417e-01, -2.9058e-01,  7.7421e-02,
         -1.0262e-01,  2.0587e-01, -8.5899e-03,  4.0160e-01, -7.5413e-03,
         -5.5438e-01,  5.8357e-01, -4.5019e-01, -9.5170e-02, -2.3185e-01,
          5.2986e-01, -2.9490e-01,  3.6055e-01, -4.8740e-01,  4.0741e-01,
          2.9288e-01,  1.4172e-01, -5.4982e-01, -7.8340e-02, -8.9919e-02],
        [ 3.6412e-01, -4.2105e-01,  2.9933e-01, -3.1097e-01, -5.2568e-01,
         -1.5009e-01, -1.5122e-01,  3.4837e-02,  1.8582e-02,  2.8136e-01,
          7.1328e-02,  3.5755e-01, -3.0664e-01,  4.5494e-01,  1.9721e-01,
         -1.0002e-01, -2.4795e-01, -1.5925e-03, -2.0805e-02, -7.7550e-01,
          1.7613e-01, -7.1298e-01,  1.8740e-01, -2.4253e-01, -1.1837e-01,
         -2.3374e-01,  3.3002e-01,  8.3902e-01,  1.0280e-01,  1.5264e-01],
        [ 4.3894e-01,  1.3484e-01,  3.2179e-01, -1.9853e-01, -1.3918e-01,
          1.4015e-01, -2.1219e-01, -1.2592e-01,  3.0287e-01, -2.9310e-01,
          6.0787e-01,  3.0591e-01, -3.7509e-01,  6.0918e-02,  5.0639e-01,
          5.0699e-01, -5.1504e-01, -1.0467e-01,  1.2899e-01,  2.0113e-01,
          3.9948e-02, -5.0446e-01,  3.9601e-02,  6.1860e-01,  1.5331e-01,
         -4.4477e-01,  1.4071e-01, -3.7401e-01,  6.6987e-02,  9.9232e-02],
        [ 8.6965e-02,  1.1006e-01,  3.2548e-01,  2.7284e-01, -2.3718e-01,
          3.4851e-01,  4.5318e-01, -4.2532e-01, -1.7188e-01, -2.7652e-02,
         -3.4480e-01,  2.7480e-01,  2.7680e-01,  1.3720e-01, -3.4264e-01,
          3.9137e-01,  1.8345e-01,  6.2533e-01,  2.1890e-01, -1.3380e-01,
         -5.1634e-01,  8.7121e-01, -4.5588e-01,  4.0700e-01, -1.1636e-01,
          4.6257e-01,  4.2304e-01, -5.6337e-01,  7.5702e-01, -9.3053e-02],
        [ 1.7190e-01, -2.0874e-01,  1.7106e-01, -4.6544e-02, -1.6031e-01,
          4.4383e-02, -2.3440e-01, -3.9906e-01, -1.6789e-01, -2.8841e-01,
          4.0646e-01,  1.2639e-01,  1.9474e-01,  5.7377e-01, -2.6038e-02,
         -1.6730e-01,  2.3782e-02, -5.4311e-01, -7.6343e-02, -4.0482e-01,
          5.3826e-01, -6.0953e-01,  4.6115e-01, -4.0031e-01,  3.2823e-01,
         -3.9529e-01,  1.7109e-01,  2.9556e-01, -2.2120e-01,  1.7283e-01],
        [ 1.7839e-01,  5.5251e-01, -2.1788e-01,  6.3473e-01,  1.8420e-01,
         -4.7721e-01, -4.0753e-01, -2.6478e-01, -3.1420e-01,  2.6024e-01,
          2.7424e-01,  3.4369e-01,  3.8871e-01, -4.7226e-01, -4.0699e-02,
         -4.6270e-03, -3.3966e-01, -2.3355e-01, -2.3379e-02, -5.3501e-01,
          2.0289e-01, -2.1748e-01,  2.5185e-01,  3.8530e-01, -5.5092e-02,
         -2.7528e-01,  5.7125e-01, -4.2484e-01, -3.2179e-01,  9.6465e-02],
        [-2.1797e-01,  1.8764e-01, -5.9966e-02, -1.6248e-01,  7.1390e-01,
          4.4839e-01, -1.4834e-01, -1.3652e-01, -1.2872e-01, -4.4678e-01,
          3.9387e-01, -1.9197e-01, -3.0928e-01,  1.2365e-01, -4.1654e-01,
         -1.1558e-01,  1.2347e-01, -2.6547e-01,  2.2267e-01,  6.9186e-01,
          4.1467e-01,  8.3074e-02, -4.2464e-02, -1.0419e-01,  3.3877e-01,
         -1.1271e-01, -5.6348e-01,  4.7907e-01,  4.9699e-02,  4.9831e-01],
        [-3.6676e-02,  5.9664e-01, -5.8404e-01,  3.9731e-01, -6.8186e-02,
         -1.7418e-01, -5.3173e-01, -2.3781e-01, -1.8380e-01,  7.7460e-02,
          7.4612e-01,  7.4798e-02,  1.7903e-01, -4.3805e-01,  2.8342e-01,
          4.2262e-01, -5.6996e-02,  3.1452e-01,  4.3332e-01,  3.1267e-01,
          5.8472e-02, -6.0235e-02,  4.8988e-02,  5.8819e-01,  2.1027e-01,
          2.6834e-01, -5.8187e-01, -2.4057e-01,  9.5395e-02,  2.0775e-01],
        [ 1.5384e-02, -6.2520e-01, -3.7552e-03, -7.1877e-02,  4.5799e-03,
         -1.6086e-01,  7.8092e-02,  4.0974e-01,  6.8962e-01, -3.4450e-02,
          1.6392e-01, -2.1537e-01, -1.7941e-01,  2.2502e-01,  4.3299e-01,
         -3.6169e-01, -4.4022e-02, -2.5433e-01, -5.3827e-01, -8.0912e-02,
         -5.4697e-02, -3.0126e-01, -1.3701e-01, -5.2550e-01, -3.4722e-01,
         -6.0973e-02,  1.7357e-01,  7.5383e-02, -6.3557e-01, -4.2831e-01]])
[LAYER]: fc2.bias | [SHAPE]: torch.Size([30])
tensor([ 0.3458, -0.0311, -0.1065, -0.3151, -0.2705,  0.1946,  0.1587,  0.1178,
         0.4726, -0.0687,  0.1406, -0.0627, -0.1533,  0.3875,  0.1180,  0.0673,
         0.3265, -0.0615, -0.1151, -0.4101, -0.0060, -0.0833,  0.1683, -0.4401,
        -0.1058,  0.1714,  0.0744,  0.1370, -0.1646, -0.1453])
[LAYER]: fc3.weight | [SHAPE]: torch.Size([10, 30])
tensor([[-0.7665,  0.8683, -0.2950,  0.4363,  0.6277, -0.3061, -0.6095, -0.0658,
          0.5962, -0.1678,  0.4221,  0.5574, -0.2513,  0.5193,  0.3269,  0.2570,
          0.6038, -0.1521,  0.4885, -0.0777, -0.4154,  0.2512, -0.2576, -0.5388,
         -0.3678, -0.4901,  0.7672, -0.2228,  0.5828, -0.0683],
        [ 0.6802, -0.3418,  0.5681, -0.7665, -0.4369, -0.2478,  0.2990,  0.9566,
          0.6917, -0.6914, -0.4121, -0.6700, -0.5608,  0.4045,  0.2765, -0.0936,
          0.1310, -0.2727, -0.6128,  0.1421, -0.5038,  0.2063,  0.6401, -0.9784,
          0.4987,  0.6346, -0.6060,  0.4832, -1.0407, -0.4729],
        [-0.6033,  0.0789, -0.4202,  0.8208,  0.3526, -0.5124,  0.7335, -0.5577,
          0.4978, -0.3265, -0.6117, -0.2011, -0.7226, -0.4637,  0.5395,  0.2828,
         -0.2995, -0.1010, -0.0059,  0.0857,  0.0460,  0.5020,  0.7083,  0.3873,
         -1.3315,  0.9195, -0.2041,  0.1184, -0.4560,  0.7764],
        [-0.7355, -0.3083, -0.2188,  0.1252, -0.4005,  0.4340, -0.3381, -0.5435,
         -0.4558, -0.0986,  0.2016, -0.5064, -0.3253,  0.1086, -0.3838,  0.3577,
         -0.3259,  0.6538, -0.4344,  0.4696, -0.2404, -0.0456,  0.0399,  0.2305,
          0.5623,  0.1593,  0.7466, -0.1575, -0.3149, -0.0283],
        [ 0.4899,  0.1408, -0.1192, -0.1407, -0.0370,  0.0634,  0.3935,  0.2374,
         -0.3663, -0.1701, -0.1375,  0.4917,  0.3077, -0.4819, -0.8033, -0.2377,
         -0.2991, -0.3086,  0.6889, -0.4845,  0.5002, -0.5238,  0.6858,  0.4108,
          0.1739, -0.2666, -0.6340, -0.9317,  0.0673,  0.2104],
        [ 0.5600, -0.5181, -0.7221, -0.6335, -0.5503,  0.2043, -0.4696, -0.5535,
         -0.0373,  1.0271,  0.2923, -0.0313, -0.4200,  0.9922, -0.0047, -0.0044,
         -0.2571, -0.5595,  0.0311, -0.0344, -0.2340, -0.6585, -0.6590, -0.3565,
          0.2348, -0.5547, -0.4305,  0.4356, -0.0091, -0.0181],
        [ 0.8579,  0.0195, -0.2413,  0.0944,  0.6711, -0.5675, -0.7194,  0.6738,
          0.3067, -0.2944,  0.2908, -0.3718,  0.2652, -0.1965, -0.1459,  0.4682,
          1.0305, -0.3897,  0.7347,  0.3327, -0.3446,  0.6935, -0.0310, -1.0837,
          0.2260, -0.3123, -0.2339, -0.4350, -0.3759,  0.5533],
        [-0.5027,  0.4968,  0.3026, -0.3932, -0.7159,  0.5741,  0.6187, -0.2755,
          0.1667, -0.0895, -0.7350,  0.0945,  0.4445,  0.8789,  0.7261, -0.3897,
          0.7929,  0.6381, -0.3518, -1.0463,  0.8171,  0.1861,  0.4468,  0.1192,
          0.0715,  0.4429,  0.8559, -0.6503,  0.3088, -0.5316],
        [-0.5475, -0.3318,  0.0319,  0.5860, -0.0409, -0.6522,  0.0959, -0.1638,
         -0.5642,  0.0535, -0.3789,  0.0751,  0.6369, -0.8037,  0.4527, -0.5330,
         -0.6268, -0.5184, -0.3768,  0.6038, -0.3850,  0.2081, -0.3806,  0.1610,
          0.4853, -0.6645, -0.5450,  0.4765,  0.2121, -0.3708],
        [ 0.3452, -0.1099,  0.8138,  0.1156,  0.2029, -0.0684,  0.3279,  0.6077,
         -0.3793, -0.6274,  0.8660,  0.4901,  0.4461, -0.5011, -0.6893, -0.3914,
          0.0933,  0.6524, -0.5971, -0.1270,  0.4968, -0.6966, -0.5935,  0.3606,
         -0.2347, -0.5127,  0.2469,  0.4552,  0.6441, -0.2650]])
[LAYER]: fc3.bias | [SHAPE]: torch.Size([10])
tensor([-0.2232, -0.0220,  0.2048,  0.0831, -0.0279,  0.1795, -0.1852,  0.0024,
        -0.2397, -0.0285])