
[LAYER]: conv1.weight | [SHAPE]: torch.Size([1, 1, 3, 3])
tensor([[[[0.1252, 0.1962, 0.1636],
          [0.2829, 0.5315, 0.2433],
          [0.1197, 0.2026, 0.1497]]]])
[LAYER]: conv1.bias | [SHAPE]: torch.Size([1])
tensor([-0.0019])
[LAYER]: fc1.weight | [SHAPE]: torch.Size([30, 49])
tensor([[-3.5366e-02, -3.0733e-01, -2.6740e-01, -3.3257e-01, -5.2183e-01,
         -3.3594e-01, -1.5293e-01,  2.1209e-01,  2.3033e-01,  1.3219e-01,
          1.6582e-01, -3.8536e-02, -3.3182e-02,  5.7047e-02,  2.8107e-01,
          1.9809e-01,  1.6061e-01,  2.2624e-01,  1.3147e-01,  1.9887e-01,
          4.3257e-02,  1.9634e-01,  1.0669e-01,  4.2618e-02, -5.5131e-02,
          1.6219e-01, -1.8751e-01, -1.7695e-01,  9.1996e-02, -7.5633e-02,
         -3.5250e-01, -3.1983e-01,  5.9003e-02, -7.4194e-02, -2.3366e-01,
          8.7578e-02,  2.2473e-01,  1.1365e-02,  2.4387e-01, -1.0195e-01,
         -1.9881e-01, -1.9857e-01,  1.3736e-01,  8.4193e-01,  7.3977e-01,
          3.5005e-01,  4.0567e-01,  2.5111e-01,  2.1500e-01],
        [ 3.1959e-03,  2.3886e-01,  2.5471e-01,  3.1154e-01,  3.3626e-01,
          2.0181e-01,  2.5430e-01,  3.5525e-02, -5.8138e-02, -1.9817e-01,
         -2.2895e-01, -7.2454e-03, -1.6508e-01, -1.6121e-01,  9.0458e-03,
         -2.1261e-02, -2.1535e-01, -1.1912e-01, -5.9784e-02, -3.0967e-01,
         -6.4283e-01,  5.8644e-02,  3.1076e-01,  2.3986e-02,  9.9335e-02,
         -8.0517e-02,  4.6539e-01,  6.3951e-02, -2.9506e-01, -9.6985e-02,
          2.3768e-01,  2.5233e-01, -5.9187e-02,  2.4101e-01,  2.8160e-01,
         -5.3501e-01, -3.3350e-01, -2.9726e-01, -3.3097e-01, -2.9590e-01,
         -1.8617e-01,  3.8297e-01, -3.0731e-01, -6.0301e-01, -4.8363e-01,
         -5.5387e-01, -9.1844e-01, -7.8385e-01, -3.2276e-01],
        [-1.2306e-01,  2.2699e-01, -1.5481e-01, -2.3525e-01, -2.9641e-01,
         -3.0702e-01,  1.8075e-01,  2.5241e-01,  1.5197e-01,  8.3521e-02,
         -8.7501e-02, -5.6534e-02, -5.3302e-02, -5.2585e-02, -5.9970e-02,
         -8.1352e-02,  1.0546e-02, -7.5087e-02,  1.2741e-01,  1.5566e-01,
         -3.8695e-01,  2.9902e-01,  2.4193e-01,  4.5012e-02, -2.2173e-01,
          3.1218e-01,  4.5492e-01,  2.8424e-01,  2.1075e-01,  2.5294e-01,
         -5.2521e-02,  2.3518e-01,  4.0302e-01,  1.6358e-01,  4.5384e-01,
         -3.8195e-02, -2.3572e-01, -2.1201e-01, -2.1670e-01, -4.1305e-01,
         -6.1230e-02,  5.1757e-01,  2.1797e-02,  1.4027e-01, -1.0361e-01,
         -9.9835e-02, -6.6763e-02,  3.6665e-01,  4.3080e-01],
        [-2.1002e-03,  3.8457e-01,  6.6859e-02,  2.1244e-01,  1.2735e-01,
         -3.8803e-01, -1.6772e-01,  7.6458e-01,  9.3795e-01,  2.2845e-01,
         -2.0142e-01, -1.3643e-02,  2.0394e-01,  2.9143e-02,  8.1685e-01,
          2.4129e-01, -2.0300e-01, -9.3795e-02,  2.3084e-01,  1.6068e-01,
          1.7754e-01,  8.6949e-02,  1.2387e-01, -2.4070e-01, -1.9006e-01,
          8.8642e-02,  1.0362e-01,  8.0278e-01,  9.8480e-01,  1.7758e-01,
         -2.7760e-01,  4.7058e-02,  1.8199e-01,  5.8275e-01,  7.5340e-01,
          5.8082e-01,  1.5739e-01,  8.6664e-03,  1.0244e-02,  2.4285e-02,
          1.7492e-01,  4.4892e-01,  3.5824e-01,  2.2062e-01,  3.4901e-02,
         -7.4608e-02, -9.3966e-02, -8.8489e-02,  3.5813e-02],
        [-2.7745e-02, -2.9860e-01, -4.4043e-01, -5.2339e-01, -8.3571e-01,
         -6.2150e-01, -2.8592e-01, -1.9487e-01, -4.2120e-01, -7.4493e-02,
         -5.2765e-02, -7.6001e-02, -3.9697e-01, -6.8954e-01,  5.9636e-02,
          9.1384e-02,  1.4152e-01,  4.7081e-01,  3.1691e-01,  1.9885e-01,
         -2.6623e-01,  2.7280e-01,  1.5102e-01, -2.7784e-01, -2.7645e-01,
         -7.4561e-02, -6.8668e-02, -1.6701e-01,  5.7770e-03, -4.1703e-02,
         -1.7580e-01, -1.6510e-01, -5.9797e-02, -2.5550e-01, -3.8193e-02,
          1.1050e-01, -6.8151e-02,  7.1622e-02, -1.8230e-01, -1.8766e-01,
         -1.6152e-01, -1.7714e-01,  1.6196e-01,  3.1021e-01,  2.2175e-01,
          1.1004e-01,  2.1954e-01,  2.0559e-01,  6.5132e-02],
        [ 2.0719e-01,  2.9282e-01, -1.3221e-01, -2.5397e-01, -8.8553e-02,
          3.0094e-03,  9.1785e-02,  2.0266e-01,  3.5615e-01,  1.8783e-02,
         -1.0457e-01, -4.4364e-01, -4.0618e-01, -2.3737e-01,  2.8708e-02,
         -2.2032e-01,  9.9277e-02,  8.5102e-02,  1.2013e-01, -5.2769e-01,
         -8.4555e-01,  3.1789e-01,  3.5211e-01,  1.9285e-01, -3.9008e-02,
          3.1509e-01,  2.0672e-02, -5.1708e-01, -1.4147e-01, -7.1041e-02,
         -3.0082e-02,  1.0746e-01,  5.2005e-01, -1.1159e-02, -2.0649e-01,
         -8.8286e-02, -4.1976e-01, -3.0544e-01, -2.0337e-01, -2.1248e-01,
         -4.8367e-01, -2.7176e-01, -6.7071e-02,  7.7188e-02,  8.8563e-02,
         -9.8849e-02, -2.4778e-01, -5.1656e-02,  2.2236e-01],
        [-6.7584e-02,  4.1248e-01,  3.4989e-01,  3.7139e-01, -1.3334e-01,
         -2.8655e-01,  2.7811e-02,  2.9946e-01,  8.4548e-01,  6.7417e-01,
          2.8027e-01, -8.6572e-03, -1.2869e-01, -3.0698e-01,  6.8982e-01,
          1.1263e+00,  2.8069e-01, -1.4968e-01,  3.2889e-02, -1.0364e-01,
         -5.5957e-01,  4.8450e-01,  1.0655e+00, -4.4599e-02, -3.3179e-01,
          3.2992e-01,  5.6768e-01,  4.0614e-01, -2.4626e-02,  3.9841e-01,
          1.9340e-01, -1.1146e-01,  2.6213e-01,  6.3079e-01,  6.8801e-01,
          5.2387e-02, -1.2923e-01, -5.2166e-02,  6.6783e-02,  3.4266e-01,
          1.0136e+00,  4.1195e-01,  2.0964e-01,  2.0835e-02,  1.4797e-01,
         -3.3918e-02,  4.8603e-01,  4.8134e-01,  4.8862e-02],
        [ 2.7028e-01,  5.6002e-01,  5.5047e-01,  2.4780e-01,  1.4844e-01,
          1.9112e-01,  9.6208e-02,  7.6939e-02,  1.9933e-01,  8.3745e-02,
          2.2213e-01, -7.4015e-02, -2.2868e-01, -1.2946e-01,  6.1642e-02,
         -7.5695e-02, -2.0184e-01, -1.1484e-01, -1.3271e-01, -3.1441e-01,
         -7.7417e-02, -8.6467e-03,  1.1576e-01,  9.6119e-02, -7.0608e-02,
         -1.2612e-01,  6.8183e-02, -9.7003e-02,  2.4646e-01,  5.9081e-03,
         -1.5688e-01, -3.0365e-01,  2.7079e-01,  2.8753e-01, -3.5299e-02,
          3.1136e-01,  2.1307e-01,  3.1516e-01,  8.8359e-02,  1.7764e-01,
          1.2146e-01,  1.5129e-01,  2.5706e-01, -5.3340e-02,  2.7775e-01,
         -1.2285e-01, -1.6761e-01, -2.4138e-01, -3.5054e-01],
        [ 2.4150e-02,  9.2406e-02,  8.5616e-02,  1.7252e-01,  2.8716e-01,
         -3.1614e-01, -8.9332e-02,  2.6399e-01,  1.2624e-01,  2.6521e-01,
          2.8496e-01, -1.2451e-02, -1.3918e-01, -4.3315e-01, -3.2328e-01,
         -4.0525e-01, -5.6364e-01, -1.9458e-01,  1.7277e-01, -7.6653e-02,
         -8.4009e-01, -4.8924e-01, -5.2259e-01, -2.4018e-01, -1.3422e-01,
         -2.5713e-01, -3.9580e-01, -2.1015e-01,  3.0509e-01,  1.9825e-02,
          1.1944e-01,  2.0821e-01, -1.4457e-01, -5.0717e-02,  1.4212e-01,
          2.2746e-01,  3.9630e-01,  1.3746e-01, -1.3442e-01,  5.9738e-02,
          1.3215e-01,  2.3195e-01,  1.1297e-01, -1.3476e-01, -8.4912e-02,
         -1.4418e-01,  7.7746e-03,  3.2551e-02, -4.2400e-02],
        [-1.3430e-01,  1.6745e-03, -6.1444e-02, -8.6770e-02, -2.5354e-01,
         -2.8959e-01, -1.1392e-01,  1.6226e-01, -7.4006e-02, -4.2945e-02,
          1.7985e-01, -1.6535e-01, -3.1670e-01, -3.3720e-01,  1.2327e-01,
          3.9052e-02, -1.7418e-01,  3.1527e-01,  2.3478e-01,  5.2930e-02,
         -5.1712e-01, -1.2619e-01, -2.7719e-01, -2.2908e-01,  3.1927e-01,
          1.1614e-01,  1.0719e-01,  5.8525e-02, -1.8509e-02, -1.2449e-01,
          3.9558e-01,  5.8540e-02, -5.8621e-02, -2.5938e-01, -9.5242e-03,
          2.7472e-01,  2.0719e-01,  4.2298e-02, -1.7106e-01, -1.3099e-01,
          6.0768e-02,  3.9138e-02,  1.3860e-01,  1.1450e-01,  1.4041e-01,
          9.1272e-02, -1.9556e-01,  7.4742e-02,  2.1213e-01],
        [ 3.9480e-02,  1.1446e-01,  1.6580e-01,  1.1860e-01, -1.0759e-01,
         -6.7736e-02,  2.7050e-02,  4.6006e-02,  6.9443e-03,  1.1490e-01,
          1.0485e-01, -6.8420e-02,  5.1767e-02,  4.2450e-02,  2.4712e-01,
          4.4434e-02,  1.9570e-01,  2.1654e-01, -3.0506e-01, -2.5705e-01,
         -7.4648e-02,  1.0829e-01,  1.7640e-01,  5.4075e-02, -4.4648e-01,
         -2.4434e-01, -5.6556e-02, -5.1990e-02,  2.7214e-02, -2.0343e-01,
         -4.8875e-01, -4.4128e-01,  1.6433e-01,  2.4555e-01, -2.9136e-01,
          2.9346e-02, -1.1871e-01, -5.6641e-02,  2.2908e-01, -8.3955e-02,
         -2.9896e-02, -2.7271e-01,  9.7108e-02,  9.8121e-02,  2.4413e-01,
          3.7134e-01,  1.0005e-01, -1.7291e-02, -3.4975e-01],
        [ 8.0289e-02, -2.2283e-02,  1.9455e-01,  8.8363e-03,  1.7352e-02,
          1.4172e-01,  1.2224e-01,  1.0893e-01,  3.4431e-02, -1.3168e-01,
         -1.1224e-01, -5.2996e-02, -1.8399e-01, -2.4656e-01, -3.6136e-02,
         -3.6578e-02, -6.7314e-02,  2.3649e-01, -3.0875e-01, -1.7820e-01,
         -3.6988e-01,  3.5422e-01,  3.5673e-01, -6.9727e-02, -2.4172e-02,
          3.4806e-02,  2.4127e-01,  2.6241e-01, -1.2148e-01,  2.6707e-01,
          2.0632e-01, -2.3862e-01,  1.6314e-01,  3.1472e-01, -1.0699e-01,
         -1.2406e-01, -2.0986e-01,  7.8605e-02, -5.3261e-02, -2.4754e-01,
         -1.7936e-01, -6.9086e-02,  2.3897e-01, -8.5310e-02,  5.7440e-02,
          5.4938e-02, -1.1191e-01, -3.6762e-01, -1.8768e-01],
        [-1.3880e-01, -2.0055e-01, -1.7263e-01, -1.4824e-01, -2.5718e-01,
          1.6251e-01, -4.7316e-02, -3.7363e-01, -2.2337e-01, -1.7542e-02,
          1.1360e-01,  5.2052e-02, -9.4742e-02,  1.4076e-01,  2.2761e-02,
          2.5751e-01,  4.3175e-01,  3.3652e-01, -1.2085e-01,  2.0038e-01,
          4.4979e-01,  2.4546e-01,  2.4106e-01, -1.5724e-02, -2.9049e-01,
         -2.4608e-01,  2.1704e-01,  3.4122e-03, -2.6642e-01,  3.8428e-02,
         -1.2516e-01, -4.8542e-01,  1.4873e-01, -2.2521e-01, -2.1636e-01,
          1.5281e-02,  7.8467e-02,  1.8694e-01,  1.7716e-01, -1.0400e-01,
          6.8471e-02, -7.2343e-02, -2.0142e-02, -1.5338e-01,  5.6379e-02,
          1.9152e-01,  8.7895e-02,  2.4832e-02,  4.3118e-02],
        [-1.0482e-01, -5.6536e-02,  1.5307e-01,  4.4212e-02,  1.8921e-02,
         -1.5368e-01,  1.3717e-01, -1.3351e-01, -6.0241e-02, -5.2017e-02,
          3.5049e-01,  2.3310e-01, -6.4367e-02, -5.1762e-01, -2.2052e-01,
         -3.6681e-01, -2.9103e-01, -2.4277e-01,  3.1030e-01,  2.1232e-01,
         -6.2390e-01, -6.8776e-03,  1.6089e-01, -4.1013e-02, -8.6816e-01,
         -1.1848e-01,  2.3874e-01,  2.4065e-01,  2.7760e-02,  2.3483e-01,
         -1.0105e-01, -1.5893e-01,  1.1878e-01, -1.3222e-01, -6.7594e-02,
          1.8976e-01,  1.0084e-01,  6.6538e-03,  3.1589e-03,  9.0909e-02,
          2.3757e-01,  3.0731e-01,  5.0922e-02,  1.7599e-01,  4.8350e-02,
         -2.2997e-01, -1.8230e-01,  1.3683e-01,  1.5039e-01],
        [ 8.6037e-03,  7.1114e-02,  8.7523e-03, -5.4429e-02,  1.1543e-01,
          1.3672e-01,  1.5142e-01, -4.1616e-01, -1.4201e-02, -1.6435e-01,
         -9.8977e-03,  4.1099e-02,  3.9859e-02,  3.9267e-01, -1.0789e-01,
         -3.8317e-02,  1.3974e-03, -1.3197e-01,  2.2770e-01,  6.4397e-04,
          1.4676e-01,  4.4213e-01,  4.7530e-01,  3.3200e-01,  1.5133e-02,
         -1.7770e-01,  1.5816e-01, -2.0687e-02, -1.6566e-01,  1.5477e-01,
         -1.0871e-01, -8.7028e-02,  7.4062e-02,  2.1335e-02, -8.5674e-04,
         -1.3007e-01, -1.5909e-01,  7.8416e-02,  2.6165e-01,  3.3270e-01,
          9.2944e-02, -2.4938e-01, -1.9933e-01, -1.3651e-02, -1.8187e-02,
          2.1452e-02,  8.5035e-02,  1.4545e-01,  3.6735e-01],
        [ 5.4311e-02,  4.9813e-04, -1.3687e-01, -2.0654e-01, -3.3248e-01,
         -4.5471e-01, -2.3430e-01,  4.4307e-01, -5.7243e-02, -3.8390e-02,
          1.4446e-01,  1.4242e-01, -1.2545e-01, -4.0553e-01,  7.7338e-02,
          4.7288e-02, -2.0044e-01,  2.6869e-01,  2.7020e-01, -2.1324e-01,
         -5.2720e-01,  5.1100e-02,  6.0306e-02,  4.0952e-02,  5.3439e-01,
          1.7040e-02, -3.0578e-01, -6.5210e-02, -1.3971e-02, -2.2336e-01,
         -3.1161e-01,  1.6073e-01, -5.1172e-02, -5.2705e-02,  1.0450e-01,
         -1.3781e-01, -1.4869e-01, -4.3109e-01, -2.1424e-01,  3.5410e-02,
         -1.4705e-01, -7.7026e-02, -3.7108e-02,  9.1518e-02,  3.9133e-03,
         -9.1244e-02,  1.9844e-01,  5.2616e-01,  3.7652e-01],
        [ 1.1264e-01,  2.1470e-01,  3.7436e-01,  1.6787e-01,  2.3970e-01,
          4.8106e-01,  2.3530e-01,  4.7259e-02, -1.7684e-02,  3.2590e-01,
          4.5276e-01, -1.9040e-02, -2.4792e-01, -4.1173e-01,  1.6678e-01,
          7.1096e-02, -6.4739e-02,  2.5132e-01, -1.1709e-01, -6.6102e-02,
         -3.0894e-01, -2.2876e-01, -2.6365e-01, -4.8136e-01,  9.7146e-02,
         -6.7802e-02, -3.0712e-02, -5.1252e-02,  8.4078e-02,  1.0596e-01,
          1.8643e-01, -1.6431e-01,  1.0015e-01,  1.0984e-01,  9.9423e-02,
          2.7884e-01,  4.8523e-01,  3.4660e-01, -2.0515e-02,  1.2667e-01,
          2.1527e-01,  6.1522e-02,  2.8446e-01,  8.8294e-02, -1.0095e-02,
         -3.4469e-02, -2.8990e-01, -2.0906e-01, -4.0127e-02],
        [ 8.9752e-02, -2.9891e-03, -1.2320e-01,  2.1862e-01,  3.7018e-01,
          5.6150e-01,  4.3355e-02, -2.8190e-01, -4.6981e-01, -5.9641e-02,
          2.1688e-01,  3.4976e-01,  2.1554e-01,  2.3339e-01, -5.0023e-01,
         -2.1660e-01, -1.2528e-01,  1.8601e-02, -6.1976e-01, -3.1981e-01,
          2.3567e-01, -5.7863e-01, -1.6263e-01, -4.4003e-02,  1.0808e-01,
         -4.0172e-01, -6.7614e-01, -9.4840e-01,  1.3904e-01, -3.0625e-01,
         -3.3863e-01, -1.4629e-01,  9.7058e-02, -7.2467e-04, -9.8465e-01,
          2.5671e-01,  5.1604e-02, -7.0503e-02, -2.3175e-01,  1.2148e-01,
         -1.2997e-01, -3.2187e-01,  4.4914e-02,  1.8098e-01,  8.6428e-02,
          1.0937e-01, -7.0653e-02, -7.3639e-02, -1.8126e-01],
        [ 2.9095e-01,  5.8536e-01,  5.2178e-01,  2.5495e-01,  4.9278e-01,
          4.8400e-01,  1.4945e-01, -1.5162e-01, -1.6033e-02,  1.2436e-01,
          3.3493e-01,  2.2553e-01, -2.6239e-02,  2.0248e-01, -1.2610e-01,
         -2.0335e-01, -5.5511e-02, -3.8492e-01, -1.6661e-01,  3.8191e-01,
          2.2923e-01,  1.6681e-01,  1.0415e-01,  5.6650e-01, -4.5933e-02,
         -2.4416e-01,  3.5457e-01,  2.0576e-02,  5.5424e-01,  4.6627e-01,
          4.5957e-02, -1.6094e-01,  3.0058e-01,  7.2365e-02, -3.4836e-01,
          2.3199e-01,  2.7941e-01, -2.0987e-01,  9.8336e-04,  3.2676e-01,
          1.0689e-01, -9.6604e-02, -9.1446e-02, -1.1289e-01, -2.4492e-02,
         -9.6553e-02, -2.9035e-01,  9.2780e-02,  7.9438e-02],
        [ 2.2579e-01,  3.6548e-01,  9.9966e-02,  9.7339e-02, -2.0391e-01,
         -4.2422e-01,  1.4279e-01,  3.0168e-01,  4.1361e-01,  3.0745e-01,
         -7.0424e-02, -3.5928e-01,  3.1249e-02, -1.1412e-01,  2.3831e-01,
          1.6512e-01,  1.7498e-01,  4.5367e-02, -1.2401e-01,  3.4761e-02,
          1.7511e-02, -5.0988e-01, -2.9967e-01, -6.1255e-01, -3.8836e-02,
          1.7575e-01,  1.2928e-01,  2.0181e-01, -5.5014e-02, -3.2164e-01,
          1.0463e-02,  1.2851e-01, -3.7099e-03,  2.8784e-01,  5.2658e-02,
          1.1718e-01,  3.7016e-02, -8.4046e-02, -1.7010e-01, -4.1949e-01,
         -6.4717e-01, -2.9291e-01,  1.1891e-01,  8.1234e-02, -6.9918e-02,
         -1.8312e-02, -2.8153e-01, -5.5976e-01, -4.8358e-01],
        [ 2.0732e-01,  5.4718e-01,  3.4710e-01, -4.3274e-02,  1.3644e-01,
          1.2384e-01,  2.5519e-01, -1.2113e-01, -1.8449e-01, -1.5092e-02,
          3.6711e-01, -1.0593e-01, -2.7530e-01, -3.1521e-01,  5.8912e-02,
          1.9376e-01, -1.4718e-01, -5.8486e-02, -1.3429e-01,  9.1535e-02,
         -2.7801e-02, -2.4347e-03, -1.0410e-01, -1.4562e-01, -3.5449e-02,
         -1.6552e-01,  2.3039e-01,  4.6046e-01,  6.8071e-01,  4.5411e-01,
         -3.5241e-02,  8.2105e-02,  2.7328e-01,  3.9169e-01,  5.2066e-01,
          2.2066e-01,  2.0655e-01, -3.7905e-02,  1.5064e-01,  5.2925e-01,
          7.3416e-01,  2.9516e-01, -7.7564e-02,  5.2960e-02, -1.5836e-02,
         -3.6830e-02,  1.2982e-01,  4.3698e-01, -4.6501e-02],
        [ 1.5160e-01,  2.8545e-01,  1.0871e-01, -1.4529e-01, -2.6701e-01,
         -2.8964e-01, -1.3519e-01,  5.2708e-01,  1.0045e-01,  1.9457e-01,
          7.6788e-02, -3.0216e-01, -4.0777e-01, -2.2446e-01,  1.7037e-01,
          1.5083e-01, -1.8604e-01, -1.1294e-01, -1.4789e-01, -1.4773e-01,
         -3.5959e-01,  1.7255e-01,  3.6423e-01, -5.3200e-02,  2.2578e-01,
          3.7054e-01,  1.8416e-01, -3.4096e-01,  8.2695e-02, -3.5515e-02,
         -1.2154e-01,  1.3357e-01, -9.1516e-02, -2.9871e-01, -7.8072e-01,
         -1.1369e-01,  5.2211e-02, -1.9205e-02, -6.7326e-02, -7.8284e-02,
         -3.7019e-01, -5.8606e-01,  1.9574e-01,  2.5778e-01,  2.2290e-01,
          4.9965e-02,  1.4120e-01, -7.7071e-02,  9.2470e-02],
        [-5.8547e-02,  7.8994e-02, -6.5959e-03,  2.4967e-02, -1.0199e-01,
         -3.0110e-01, -1.0770e-01,  1.2024e-01, -1.5548e-01, -1.9115e-01,
         -1.0321e-01,  6.8473e-02, -9.2605e-03, -6.0956e-02,  1.4057e-02,
         -4.2577e-01, -3.4000e-01,  1.7515e-01,  9.2507e-02,  4.5966e-02,
          4.1186e-01, -1.9956e-01,  1.2712e-02,  2.6932e-01, -1.8391e-01,
         -2.8646e-01, -3.7223e-01, -1.9111e-01,  6.4429e-01,  2.0166e-01,
         -4.2787e-01, -3.3220e-01,  2.5842e-01, -1.6200e-02, -2.0981e-01,
          3.6839e-01,  1.7668e-01,  1.3686e-01,  8.1636e-02,  9.4580e-03,
         -3.1331e-01, -3.1068e-01,  1.5610e-01,  1.8647e-01, -8.4484e-03,
         -1.3026e-01, -1.7610e-01, -1.7650e-01, -1.4630e-01],
        [ 1.2151e-01,  6.3936e-03,  1.2191e-01,  1.6258e-01, -1.2725e-01,
          9.2123e-02, -9.6307e-02, -1.5124e-01, -3.8660e-01,  8.2608e-02,
         -2.1445e-01, -1.4227e-01,  8.4818e-03, -1.8769e-01, -1.0287e-01,
          6.7709e-02, -1.8817e-01,  6.0810e-02, -2.1902e-01,  2.4293e-02,
          1.1957e-01, -4.3379e-01, -3.2827e-01, -2.0382e-01,  6.1532e-02,
         -4.1297e-01, -3.6801e-01, -1.5446e-01, -3.5981e-02, -2.2615e-01,
          1.0540e-01, -1.1081e-01, -7.5198e-01, -6.6234e-02,  1.3528e-02,
          1.3751e-01,  2.3119e-01,  1.0453e-01, -1.2218e-01,  1.8080e-01,
          5.2170e-01,  2.9508e-01, -4.4823e-02, -3.1662e-02, -7.6357e-02,
         -7.1940e-02,  3.6147e-01,  4.1377e-01,  1.1487e-01],
        [ 1.5920e-01,  1.7855e-01,  4.0550e-02, -2.6133e-01, -3.3973e-01,
          7.1269e-03, -4.8570e-02, -2.4829e-01, -4.1357e-02,  3.1135e-01,
          4.9586e-01,  2.1266e-01,  2.0937e-02, -3.2709e-02, -2.7727e-01,
          8.6392e-02, -3.8669e-02, -1.7351e-01, -1.0880e-01, -4.8433e-02,
         -3.6313e-01,  2.8244e-02, -8.9547e-02, -8.1974e-02,  2.5109e-01,
          7.2383e-02, -5.8405e-02, -2.0543e-01, -1.7131e-01, -1.5550e-01,
          2.0636e-01,  3.9507e-01, -3.1879e-01, -5.7684e-02,  1.6013e-01,
         -1.5081e-02,  6.1048e-02, -7.1304e-02, -1.6824e-02,  1.5459e-01,
          3.9418e-01,  4.3806e-01, -1.2611e-01,  3.0653e-01,  9.2951e-02,
         -6.8780e-02,  1.3890e-01,  3.4626e-01,  4.8973e-01],
        [-1.7168e-02, -6.3632e-02, -1.7372e-02, -1.1417e-01, -3.6046e-02,
          1.9132e-01, -5.2300e-04, -1.7986e-01, -3.3236e-01, -2.6337e-01,
         -1.0188e-01, -1.1393e-01, -1.5067e-01, -1.5462e-01, -1.3385e-01,
          9.3660e-02,  5.6447e-02, -1.7132e-01, -1.1297e-03,  1.1254e-01,
         -6.1173e-01,  5.2105e-01,  4.6302e-01,  1.6533e-01,  7.1864e-02,
          2.1203e-01,  2.9618e-01, -1.2197e-01, -2.6138e-01, -1.2172e-01,
          4.6338e-02,  2.4379e-01, -1.3767e-01,  8.3920e-04, -1.5247e-01,
         -4.8806e-01, -4.6433e-01, -3.4053e-01, -2.4351e-01, -2.2955e-01,
         -1.8193e-01, -2.0595e-01, -1.1113e-01,  2.9447e-02, -1.1262e-01,
         -3.8967e-02, -3.4601e-02,  1.5368e-01,  3.9333e-02],
        [-6.6979e-03, -1.8071e-02,  9.6941e-02, -2.0503e-01, -5.7550e-01,
         -3.9237e-01, -2.9182e-01,  2.0037e-01,  1.3657e-01,  7.8288e-02,
         -1.8677e-01, -3.0215e-01, -2.6434e-01, -2.6721e-01,  5.6399e-02,
         -1.2724e-02, -2.4688e-02,  1.5332e-02, -2.3898e-01, -3.4032e-01,
          1.3685e-01, -3.5592e-01, -7.3886e-02, -9.7343e-03,  2.6367e-01,
         -3.6535e-01, -5.6944e-01,  4.1775e-02, -2.8516e-01, -3.5914e-01,
         -2.2644e-01,  1.0424e-01, -4.8444e-01,  2.4993e-01,  1.4447e-01,
          5.6973e-02,  8.6662e-02,  3.1686e-01,  1.0253e-01, -2.6645e-01,
          5.1518e-02, -1.4858e-01,  1.6371e-01,  6.0861e-02,  1.4798e-01,
          1.3792e-01,  4.9120e-02, -1.2663e-01, -1.0554e-01],
        [ 1.3999e-01,  4.2499e-01,  2.3362e-01,  1.6535e-01,  2.5973e-01,
         -2.1854e-02,  1.6121e-02,  2.9871e-01,  3.7925e-01,  3.3004e-01,
          9.0331e-02, -1.3386e-01, -1.6302e-01, -2.5264e-01,  1.7200e-01,
          8.6147e-02, -2.7254e-01, -1.5867e-02, -1.4452e-01, -4.0685e-01,
         -1.5185e-01, -5.6899e-01, -4.1923e-01, -1.0822e-01,  2.2623e-01,
         -8.9036e-02, -4.7390e-01, -4.4840e-01, -2.0130e-03, -3.3584e-01,
         -5.0004e-01, -2.6269e-01,  1.7236e-01,  2.3898e-01, -1.6310e-01,
          2.5682e-01,  2.2381e-01,  2.0997e-01,  2.6592e-01,  1.8141e-01,
          1.3745e-01, -3.3449e-02,  3.0978e-01,  2.9314e-01,  1.1296e-01,
         -2.5077e-02, -1.7029e-01, -8.6360e-02, -1.3486e-01],
        [ 1.3116e-01,  4.4746e-01,  3.2042e-02, -9.8132e-02,  3.2366e-01,
          4.1377e-01,  1.8044e-01,  2.6025e-01,  3.0138e-02, -1.9695e-02,
         -2.7146e-02, -9.1129e-02,  1.3576e-01,  3.6448e-01, -1.5074e-01,
         -1.7900e-02,  1.9310e-01, -1.4384e-01, -3.5984e-01, -3.8289e-01,
         -9.8269e-02,  2.4963e-01,  2.7574e-01, -2.3576e-02,  2.3098e-02,
          2.6519e-01, -1.5031e-01, -6.5968e-02,  5.7977e-02, -1.1674e-01,
         -2.9918e-01,  3.9691e-01,  3.1305e-01,  4.1144e-01,  3.8338e-01,
         -1.5319e-01, -3.3649e-01, -2.8673e-01, -1.3325e-01, -1.6951e-01,
          8.2815e-02,  5.5323e-01,  9.6923e-02,  2.0376e-01,  8.8029e-02,
         -1.7933e-01,  9.8224e-02,  2.5677e-01,  2.1494e-01],
        [ 5.8256e-02, -1.1916e-01, -2.1167e-01, -3.8097e-03, -3.4571e-02,
         -1.2288e-01, -9.2448e-04,  5.3627e-02, -2.8527e-02,  4.4151e-02,
         -1.3292e-01,  2.2859e-01,  3.8742e-01,  4.4975e-01,  5.4406e-02,
          2.1170e-01,  2.1431e-01, -2.5076e-01, -6.8648e-02,  6.0037e-01,
          1.2883e+00,  4.9611e-02,  7.4902e-03,  2.0137e-01,  2.5677e-01,
         -9.1660e-02,  1.7305e-01,  1.4214e-01,  4.8861e-01,  1.2938e-01,
         -5.0496e-01, -2.8451e-01, -1.0722e-01,  6.3309e-02, -1.4410e-01,
          2.6300e-01,  3.0153e-01,  8.0565e-02,  5.1063e-02,  5.1023e-02,
         -6.0275e-02, -1.3975e-01, -1.9297e-02, -4.0271e-02,  1.7728e-01,
          1.7837e-01,  1.2757e-01, -4.3263e-02, -1.1528e-01]])
[LAYER]: fc1.bias | [SHAPE]: torch.Size([30])
tensor([-0.0717,  0.0811, -0.0409,  0.0999,  0.0778, -0.1196, -0.2877,  0.0798,
         0.1050, -0.2268,  0.1660,  0.5252, -0.2694, -0.1559, -0.4893,  0.1114,
         0.1045,  0.2732, -0.0354,  0.0423, -0.0586,  0.1294,  0.3262,  0.4946,
        -0.1930,  0.2811,  0.1579, -0.2236,  0.2618,  0.0628])
[LAYER]: fc2.weight | [SHAPE]: torch.Size([30, 30])
tensor([[ 3.7197e-01, -3.6752e-01, -9.8614e-02,  5.0943e-01,  1.3781e-01,
          1.9487e-01, -5.4462e-02,  3.4372e-01, -2.1498e-02, -2.5127e-01,
          5.6523e-01,  5.5866e-01,  1.6987e-01, -2.5746e-01, -3.6520e-01,
         -2.3898e-01,  3.0416e-01,  4.5480e-03, -2.0385e-01,  4.0773e-01,
         -1.7430e-01,  1.0309e-02,  3.8026e-01, -3.0207e-01, -5.2629e-01,
         -5.0939e-01, -3.0483e-01,  3.2105e-01, -1.3527e-01, -1.5287e-01],
        [ 1.2387e-01, -1.5997e-01,  2.1875e-01,  4.9623e-01,  3.0895e-01,
         -8.0660e-02,  1.7907e-01, -4.3911e-01, -2.5690e-01, -6.6166e-01,
          3.7967e-01, -3.3671e-01,  4.9528e-02,  1.4548e-01, -1.8983e-01,
         -2.2706e-01, -8.8887e-01, -6.5860e-02, -4.7509e-01,  3.6086e-02,
         -2.6972e-01, -5.6173e-01,  1.9083e-01,  6.6628e-02, -5.8619e-01,
         -7.0548e-02,  2.7546e-01, -2.6770e-01,  2.8597e-01,  6.1991e-01],
        [-4.0738e-01,  3.8600e-01,  1.2893e-01,  1.8431e-01, -4.1010e-01,
          1.5379e-01,  5.2266e-01,  8.7546e-02, -1.1978e-01, -2.7601e-02,
         -1.9835e-01, -4.3368e-01, -1.1365e-01, -4.6931e-02,  1.4058e-01,
         -1.9334e-02,  3.5741e-01,  8.8158e-02,  3.9620e-01,  7.1289e-02,
          8.1279e-01, -1.7677e-01, -3.9949e-01, -4.2225e-01,  1.6813e-01,
         -4.0903e-01, -3.8144e-01,  3.6103e-01,  3.2535e-01, -1.2479e-01],
        [-2.6891e-01,  6.8184e-02,  1.0609e-01,  1.6645e-01, -2.5353e-01,
          3.2787e-01,  5.5153e-01,  3.1671e-01,  3.5742e-01,  5.6683e-01,
         -4.9500e-04,  1.7211e-01, -1.3791e-01,  4.0803e-01, -1.5804e-01,
         -2.3652e-01,  7.1396e-01, -3.8192e-01,  5.1362e-02,  3.7238e-01,
          3.0456e-01, -1.2783e-01,  6.9250e-02, -2.9250e-01, -3.3373e-01,
         -6.3617e-01, -1.0600e-01,  2.3236e-01, -5.6768e-01, -6.7303e-01],
        [ 3.9952e-01, -4.3022e-01,  2.2778e-01, -1.6991e-01,  8.8536e-01,
          2.2782e-01,  1.9144e-01, -2.0972e-01,  2.7044e-01,  4.4109e-01,
          3.7825e-01,  1.6712e-02,  6.9871e-01,  2.4656e-01, -1.4071e-02,
          4.6940e-01,  2.3914e-01,  6.7472e-02, -9.4394e-02, -1.1607e-01,
          5.0388e-01,  3.1261e-01, -4.3215e-02,  2.6890e-01,  3.8434e-01,
          2.8540e-01,  3.4500e-01,  2.2573e-01, -2.0768e-01, -4.7290e-02],
        [ 7.6909e-01, -4.7913e-01,  8.7728e-02, -1.6119e-01,  3.7857e-01,
          5.8472e-01,  2.0089e-01, -9.8821e-02, -3.0575e-01,  4.1018e-01,
         -2.0226e-01, -1.2819e-01,  4.4134e-01,  3.4928e-01,  3.1270e-01,
          4.0514e-01, -2.2604e-01, -6.7816e-01, -2.4020e-01, -1.3822e-01,
         -5.5956e-01,  4.8422e-02, -1.5518e-01, -3.3868e-01, -8.0998e-02,
         -3.7070e-02,  1.6169e-01,  1.9194e-01, -5.6016e-01, -9.1779e-02],
        [ 4.1427e-02,  2.4165e-01,  2.6429e-01,  4.5670e-01, -1.6948e-01,
          4.0741e-02,  6.5806e-01, -2.1537e-01,  1.7183e-01, -3.7375e-01,
          3.7830e-02, -2.7707e-01, -2.6954e-01,  5.9022e-01,  7.3863e-02,
         -1.6494e-01, -3.7481e-01, -7.0291e-01, -5.5693e-01,  4.9072e-01,
          1.1331e-02, -2.2204e-01, -2.3626e-01, -4.3784e-02, -2.3124e-01,
         -4.9583e-02, -4.2859e-03, -6.3185e-02,  1.6928e-01, -1.4159e-01],
        [-3.6791e-01,  1.9374e-01,  9.2404e-02,  4.2077e-01,  1.0078e-02,
         -6.1008e-01,  4.2239e-01, -8.6754e-02,  1.0670e+00,  1.8674e-01,
          2.8711e-02, -4.1806e-01, -3.7583e-01,  3.3592e-01, -4.9717e-01,
         -1.7977e-01,  1.7361e-01,  1.0478e-01, -4.8906e-02,  2.3096e-01,
          4.2317e-01,  3.0318e-01, -1.3855e-02,  5.2358e-01,  2.6563e-01,
         -1.4476e-01,  3.9858e-01,  1.9394e-01, -2.7923e-01, -8.4190e-02],
        [-2.7910e-01,  4.4592e-01, -3.5106e-01, -4.9972e-01,  6.4081e-01,
         -2.9891e-01, -3.4659e-01, -2.1026e-01, -1.5485e-01,  4.0236e-01,
         -2.2754e-02,  2.7536e-01,  6.7629e-01,  3.0430e-01,  1.5795e-01,
         -3.5797e-01,  3.4319e-01,  3.4006e-02, -4.9468e-02, -5.3457e-01,
          2.5511e-02, -3.7963e-01, -2.0914e-02,  1.1423e-01, -3.1349e-01,
         -1.3082e-01, -1.2260e-01, -3.2360e-01, -7.5409e-01,  5.7782e-02],
        [ 4.1177e-02, -2.7435e-02, -1.9919e-02, -4.4889e-01,  3.2034e-01,
          6.8931e-01, -1.6975e-01, -1.4574e-01,  1.9803e-01, -1.7627e-02,
          4.4174e-01,  3.5014e-01,  1.1120e-02, -2.1583e-01, -2.3767e-01,
          4.5026e-01,  8.7215e-02,  2.8170e-01, -4.6321e-01,  1.2639e-01,
         -1.0225e-01,  7.4748e-01, -3.3106e-01,  4.6151e-01, -5.2915e-02,
          2.9789e-01,  6.0454e-01,  1.7124e-01,  3.7886e-01, -4.5107e-01],
        [ 3.9705e-01,  1.5405e-03,  2.2831e-01, -1.9331e-01,  3.0230e-02,
          1.3017e-01,  1.4144e-01,  3.2063e-02, -2.0170e-01, -6.6189e-03,
          7.2806e-02,  1.5343e-01,  5.7689e-01,  4.5002e-01, -1.1112e-01,
         -5.5585e-01,  1.5733e-01, -4.4595e-01, -2.8421e-01,  5.2233e-01,
         -4.2228e-01,  1.3513e-01, -4.8460e-01, -2.6090e-01, -3.4103e-01,
         -3.7592e-01, -1.4480e-01, -6.1364e-01, -3.8501e-01, -6.7433e-01],
        [-1.5343e-01, -2.0948e-01, -1.5730e-01,  9.3533e-02,  1.1262e-02,
         -3.6637e-01,  1.5440e-01,  5.3954e-01,  2.1023e-01,  8.3037e-02,
          2.3829e-01, -3.7112e-01,  2.6151e-01,  3.5980e-01,  4.7747e-01,
         -2.6892e-01,  2.4395e-01,  1.2213e-02, -4.8567e-02, -4.9773e-01,
          5.1015e-01, -3.4494e-01,  8.7680e-01,  2.9672e-03, -7.8612e-02,
         -7.7661e-01,  7.9423e-02,  6.1254e-01, -2.2993e-01,  2.6376e-01],
        [ 4.8306e-01, -5.0521e-01, -1.0495e-01,  2.0472e-01,  1.0568e-01,
         -1.5112e-02, -1.1935e-01, -1.2364e-01,  1.5993e-01, -1.8946e-01,
          3.8543e-01,  3.1790e-01, -3.2877e-01, -4.9263e-01, -4.4247e-01,
          4.3356e-01, -4.3879e-01,  4.1311e-01, -6.0598e-02,  1.4503e-01,
         -4.5475e-01,  5.0147e-01,  6.7564e-01,  1.4419e-01, -3.1639e-01,
          1.1079e-01,  3.4003e-01,  2.9787e-01, -1.6636e-01,  7.4171e-01],
        [-5.1457e-01,  4.7255e-01, -4.1374e-01,  4.8818e-02, -5.6051e-01,
         -3.7964e-01, -2.8180e-01,  9.3183e-02, -4.8162e-01, -2.7619e-01,
          2.4417e-01,  7.1381e-01, -8.2335e-02, -6.0708e-01,  1.3066e-01,
         -4.1047e-01,  1.4733e-01,  4.2197e-01, -6.1961e-02,  2.7948e-01,
         -3.5118e-01,  2.4261e-01, -2.4417e-01,  2.8785e-01, -2.3503e-01,
          3.1722e-01, -7.6062e-02, -2.7487e-01,  2.9069e-01,  1.9119e-02],
        [-4.0926e-01,  1.8258e-01,  4.8877e-02,  1.4777e-01, -4.7803e-01,
          4.9073e-01, -8.3252e-02,  4.0251e-01,  1.3507e-01,  8.1996e-03,
         -9.4329e-02,  1.9468e-01, -6.0775e-01,  2.5698e-01, -5.3156e-03,
         -1.7912e-02,  2.2173e-01,  4.5856e-01,  5.5611e-01, -2.3428e-01,
          3.1383e-01,  4.1066e-01,  6.0582e-01, -1.5789e-02, -3.2432e-01,
         -4.7580e-02, -6.3435e-02,  2.5856e-01,  4.3964e-01, -1.0399e-01],
        [ 3.1976e-01, -3.1023e-01,  5.1886e-02, -3.1580e-01, -2.3904e-02,
          7.3655e-01,  4.2014e-01, -2.4141e-02, -3.9545e-01, -1.7461e-02,
         -7.0988e-02, -2.8785e-01,  9.5556e-02,  9.5024e-03,  4.7250e-01,
          1.9932e-01,  1.9136e-01, -2.6640e-01,  1.6131e-01, -9.2406e-02,
          2.0021e-01, -3.5134e-01,  2.4195e-02, -8.9708e-01,  1.9303e-01,
         -1.6137e-01, -4.7566e-01, -1.1196e-01, -3.1990e-02, -3.2391e-01],
        [-5.0317e-01,  4.4220e-01,  3.3502e-01,  2.4523e-02, -9.3276e-01,
          5.1890e-01, -2.1950e-01,  7.2077e-02, -5.9468e-02, -3.2614e-01,
         -1.2269e-01, -1.9418e-02, -7.3778e-01, -3.3012e-02, -1.7777e-02,
         -2.9265e-01, -5.7532e-01,  7.1734e-02,  1.4919e-01,  2.1278e-01,
         -2.3589e-01, -8.3181e-02, -1.2490e-01, -3.0345e-01, -7.8139e-02,
          3.0066e-01, -1.2206e-01, -1.7383e-01,  5.5499e-01, -2.4311e-01],
        [-2.0364e-01,  3.6387e-01,  2.1106e-01, -2.6608e-01, -6.6272e-01,
          4.4776e-02, -1.1723e-01, -1.0412e-01, -5.4415e-02,  5.0370e-01,
         -6.3225e-01, -3.2915e-01, -3.4431e-01,  1.7041e-01, -2.8503e-02,
         -1.3794e-02,  1.8365e-01, -3.4284e-01,  1.3542e-01, -1.8761e-01,
          2.4174e-01,  3.2186e-01, -6.3186e-01, -1.7756e-01,  8.3356e-01,
          3.2770e-02,  1.2537e-01, -2.9689e-01, -1.7133e-01, -6.7645e-01],
        [-7.7008e-02,  6.4896e-02, -3.8269e-01, -6.4270e-02, -5.9181e-01,
         -3.9111e-01, -6.3321e-01, -2.9099e-01, -3.8774e-01, -2.2963e-01,
         -4.7843e-01, -2.4738e-01, -3.1550e-01, -4.7175e-01,  2.7465e-01,
         -1.1166e-01, -3.0967e-01,  4.1512e-01,  8.7573e-02, -4.5860e-01,
         -2.0763e-01, -3.6298e-01, -2.2508e-01, -1.1252e-01,  3.4549e-01,
         -3.6227e-02,  1.3138e-01, -1.1704e-01,  2.1012e-02,  4.5678e-01],
        [ 3.6069e-01, -4.7846e-02, -3.3301e-01,  2.1572e-01,  2.3210e-01,
         -2.3114e-01, -2.8848e-01,  3.9638e-01,  1.2982e-01, -4.3482e-01,
          9.3863e-01, -3.0425e-02,  3.2879e-01, -9.3099e-02, -2.4445e-01,
          1.6386e-01, -2.4273e-01,  4.8319e-01,  4.0145e-01,  9.8078e-02,
          8.4393e-02, -4.4411e-03,  4.9886e-01,  2.8555e-01, -2.9465e-03,
         -6.8427e-02,  5.5702e-01,  6.2903e-01,  2.6944e-01,  9.0436e-01],
        [ 2.3914e-01, -6.1797e-02, -1.6437e-01, -4.4860e-01, -3.6669e-01,
          3.7351e-02, -8.8742e-01,  3.7123e-01, -5.5617e-01, -5.4621e-02,
         -2.6388e-01,  7.9910e-02,  8.9673e-02, -3.3625e-01,  3.9139e-01,
         -2.6383e-01, -1.6519e-01,  4.7704e-01,  4.0925e-01, -7.0690e-02,
         -2.1370e-01,  4.0250e-01, -4.6490e-01, -2.9184e-01,  3.6274e-01,
          4.8108e-02, -1.6279e-01,  2.3691e-01,  1.9301e-01, -4.1706e-02],
        [ 4.1636e-02,  2.5672e-01, -5.0216e-03, -5.7998e-01,  9.5510e-02,
          2.1939e-01, -7.2378e-01,  6.7247e-01, -3.6919e-01, -1.4908e-01,
          4.6011e-01,  5.9611e-01,  3.4194e-01,  3.6783e-01,  7.7940e-02,
         -4.3049e-01,  5.7105e-01,  2.7441e-01,  2.5049e-01, -2.4052e-01,
         -1.2232e-01, -2.8537e-02,  2.8134e-01,  1.7424e-01, -4.3193e-02,
         -4.7014e-02, -2.4082e-01, -1.5904e-01, -3.9961e-01, -6.1412e-01],
        [-5.8862e-02,  2.6855e-01,  4.7350e-01, -3.5756e-01, -3.0297e-01,
          4.7826e-01, -3.1799e-01,  3.9040e-01, -3.4084e-01, -2.9351e-01,
          6.3877e-02,  6.0285e-01, -1.3441e-01,  4.0931e-01,  4.1688e-01,
         -9.3850e-02, -4.0219e-01,  1.2827e-02,  4.5886e-01, -5.8975e-01,
         -1.0263e-01, -1.6218e-01,  1.9274e-01, -2.0243e-02, -2.8273e-01,
          4.6811e-01, -3.6131e-01, -6.8196e-01,  1.4703e-01, -3.1120e-01],
        [ 4.2167e-02,  5.7893e-02,  1.2914e-01,  2.8369e-01, -1.6272e-01,
         -5.8974e-01,  5.5542e-01, -2.1908e-03, -2.0505e-01, -1.5434e-01,
         -9.2435e-02,  1.3935e-02,  3.0418e-01, -8.4022e-02,  5.8339e-02,
         -4.1764e-01,  7.0287e-02, -3.0556e-01,  2.8489e-01, -2.8792e-01,
          2.4217e-01, -6.8431e-01,  3.8579e-01, -1.9142e-01, -3.9799e-01,
         -5.9232e-01, -3.4547e-01, -9.3584e-02, -2.7201e-01,  3.2109e-01],
        [ 6.7802e-01, -2.7032e-01,  4.1174e-01, -4.9210e-02,  4.8667e-01,
          4.9741e-01, -3.3104e-01, -1.2927e-01, -5.5111e-01, -4.6069e-01,
          1.9320e-01, -7.8473e-02,  6.7881e-02,  6.5942e-01,  4.6836e-01,
          2.6213e-01, -6.7084e-01, -3.4731e-01, -2.1318e-01, -9.0466e-01,
         -2.9595e-01, -1.4241e-01,  1.3167e-01, -1.5761e-01, -7.3229e-02,
          4.3705e-01, -6.8773e-02, -2.4108e-01,  5.7609e-04,  4.8583e-02],
        [-4.9174e-01,  3.6727e-01, -1.9884e-01, -3.1628e-01, -1.8363e-01,
         -3.1872e-01,  6.3141e-01, -1.1285e-01,  4.8108e-01,  2.7454e-02,
         -1.6458e-01, -2.5358e-01, -3.6063e-01,  2.7972e-01, -3.3468e-01,
         -1.5291e-02,  4.5868e-02,  2.5803e-01, -4.4040e-01,  2.4856e-01,
          1.5408e-01, -1.7731e-01, -7.0525e-01,  6.2949e-01,  3.8729e-01,
          1.9679e-01,  2.2993e-01,  2.7848e-02,  2.5496e-01, -2.2686e-01],
        [-4.3395e-01, -3.9230e-03, -7.1855e-01,  1.3697e-01, -2.2774e-01,
         -5.4388e-01,  5.3926e-02,  2.3271e-01, -4.6169e-02,  2.1621e-01,
          2.6393e-01, -4.9685e-01,  5.0381e-01, -3.0137e-01,  5.7299e-01,
         -1.6323e-01,  2.9292e-01, -3.3134e-02,  2.7156e-01, -2.7222e-01,
          7.5550e-01, -3.5805e-01,  1.9811e-01,  2.6629e-01, -8.5859e-02,
         -4.6910e-01, -4.6493e-02,  5.5990e-01, -8.6908e-01,  5.8481e-01],
        [-1.1384e-01,  4.3486e-02, -2.4148e-01, -3.0735e-01, -2.8730e-01,
          3.5202e-01, -5.8577e-01, -2.0797e-02, -4.8980e-01, -3.5819e-01,
         -1.8020e-01, -2.3738e-01,  5.5679e-01, -3.2949e-01,  3.2846e-01,
         -5.6520e-01, -9.4440e-02,  4.7754e-01,  5.0665e-01,  1.4411e-02,
         -6.9524e-02,  7.7073e-02, -6.7844e-01, -1.7907e-01,  5.1496e-01,
          9.7820e-02, -1.8233e-01,  2.4867e-01,  2.0178e-01,  2.2538e-02],
        [ 5.1229e-01, -4.1928e-01,  3.9874e-01,  4.9770e-02,  4.7075e-01,
          9.4088e-02,  5.8872e-02, -1.6042e-01, -1.3749e-01, -1.0993e-01,
         -1.4734e-02,  2.8700e-01, -6.9699e-02,  6.2406e-01, -2.6528e-01,
         -8.5445e-02, -1.3762e-01, -3.3211e-02, -2.6839e-01, -2.6399e-01,
         -1.5600e-01,  1.1358e-01,  4.9598e-02,  2.4147e-01,  2.6564e-02,
          2.1581e-01,  2.3652e-01, -3.4991e-01,  3.3737e-01, -5.2057e-01],
        [-9.5371e-02, -9.0439e-02,  4.2724e-01, -1.6144e-01,  2.5112e-01,
         -1.0323e-01, -3.8924e-01,  1.6623e-01, -5.9958e-01, -4.4140e-01,
          3.6042e-01,  4.0551e-01,  5.4000e-01, -1.0926e-01, -2.7577e-01,
         -5.6739e-01, -1.0296e-01,  5.2415e-01,  3.9512e-01,  1.5818e-01,
          2.3126e-01, -3.1970e-01,  1.8869e-01,  9.3112e-02, -3.5596e-01,
          1.9626e-01, -4.3845e-01, -4.1945e-01,  4.8379e-01,  2.0795e-01]])
[LAYER]: fc2.bias | [SHAPE]: torch.Size([30])
tensor([ 0.1168, -0.0369,  0.0043, -0.1615, -0.2302, -0.2926,  0.0726,  0.1803,
        -0.0250,  0.0539, -0.1431, -0.0971,  0.3526,  0.3561,  0.0593, -0.2292,
        -0.3280, -0.1133,  0.0622, -0.0085, -0.2853,  0.0998, -0.0712, -0.0662,
        -0.2270,  0.1003, -0.1480, -0.4786, -0.1209,  0.3627])
[LAYER]: fc3.weight | [SHAPE]: torch.Size([10, 30])
tensor([[ 0.2251,  0.2724,  0.1959,  0.9101, -0.4734,  0.5716,  0.1785, -0.4885,
          0.9054,  0.0084,  0.6613,  0.4645, -0.5898, -0.1836, -0.0371, -0.0955,
          0.1499, -0.0587, -0.0773,  0.3401, -0.3443,  1.3491,  0.7811,  0.1072,
          0.8664,  0.0079,  0.1194, -0.6622,  0.1290,  0.0278],
        [-0.2592, -0.5112, -0.5067, -0.5949,  0.1833, -0.9077, -0.0498,  0.7180,
         -0.1205,  0.2640, -0.5683, -0.4608,  0.4348,  0.9911, -0.1916, -0.8156,
         -0.4555,  0.0795,  0.4593,  0.3703,  0.0732,  0.2689, -0.5476, -0.2673,
         -0.3925,  0.8107,  0.3725, -0.1890, -0.1356, -0.2477],
        [-0.3496,  0.0937,  0.6687,  0.4493,  0.2642, -0.4891,  0.7952,  0.5626,
          0.0978,  0.0679,  0.0540,  0.6255, -0.7103, -0.2443,  0.3108,  0.3608,
          0.2496,  0.3052, -0.4759, -0.3061, -1.1139, -0.6510, -0.0763,  0.1760,
         -0.1247,  1.0112,  0.1407, -0.8022, -0.0681, -0.4340],
        [ 0.2927, -0.1911,  0.1842,  0.3684,  0.2677,  0.2383, -0.1921,  0.1358,
         -0.6728,  0.0954, -0.5634,  0.1105,  0.7216, -0.3575,  0.7960,  0.2506,
         -0.3470, -0.4691, -0.5882,  0.5464, -0.2525, -0.2847, -0.3110,  0.0553,
         -0.2853, -0.6749,  0.3020, -0.5547, -0.3390, -0.6777],
        [-0.2708,  0.4438,  0.0880, -0.3043, -0.5110,  0.4241,  0.3813, -0.3672,
         -0.6164, -0.1781, -0.2201, -0.2834,  0.2699, -0.1211,  0.0410,  0.2341,
          0.8117,  0.3130,  0.5706, -0.2220,  0.4672, -0.2881,  0.2795, -0.0654,
          0.4763, -0.0630, -0.6365,  0.2143,  0.1645, -0.4018],
        [ 0.2936,  0.2980,  0.0262, -0.5311, -0.2518, -0.5934, -0.5333,  0.0570,
          0.1438, -0.8660, -0.6890,  0.2315,  0.4242, -0.0816, -0.2915, -0.0868,
         -0.0935, -0.7012,  0.3486,  0.8396,  0.0862, -0.1734, -0.4510,  0.8740,
         -0.3787, -0.3372,  0.4262,  0.2389, -0.2013,  1.0505],
        [ 0.3994, -0.4701,  0.1998,  0.2027, -0.6438, -0.6689, -0.5157, -0.2432,
          0.3480,  0.2416,  0.4206,  0.2716, -0.4678,  0.7457,  0.7081, -0.0729,
          0.5106,  0.1332, -0.1530, -0.3452,  0.8567,  1.0540,  0.7501, -0.4241,
         -0.6352,  0.2820, -0.0468,  0.7806, -0.4522,  0.7559],
        [ 0.7518,  0.8780, -0.5530, -0.0172,  0.2465,  0.4278,  0.7562,  0.2628,
         -0.5069,  0.3361,  0.8783, -0.7557,  0.7404, -0.0835, -0.4127,  0.0561,
         -0.3398, -0.8887, -0.6418, -0.3535, -0.7561, -0.4138, -0.1954, -0.0867,
         -0.2026,  0.2417, -0.7626, -0.6860,  0.6744, -0.0353],
        [-0.1600, -0.3145,  0.0184,  0.0774,  0.0113,  0.4917, -0.3701, -0.3571,
          0.5672,  0.0663,  0.0708, -0.1148, -0.5632, -0.1161, -0.6041,  0.0969,
         -0.1059,  0.3152,  0.4342, -0.5044,  0.5388, -0.4353, -0.7990,  0.0527,
         -0.2161, -0.4281,  0.6684,  0.6683, -0.4402, -0.6029],
        [-0.2296, -0.4611, -0.3562, -0.3997,  0.7966,  0.4244, -0.3867, -0.2373,
         -0.1539,  0.4026, -0.0565, -0.1562,  0.1416, -0.6981, -0.1497,  0.1421,
         -0.3020,  0.2214, -0.0643,  0.1805,  0.5048, -0.0430,  0.3233, -0.4266,
          0.7432, -0.5085, -0.5971,  0.4966,  0.7600,  0.3417]])
[LAYER]: fc3.bias | [SHAPE]: torch.Size([10])
tensor([ 0.1022, -0.1005,  0.0165, -0.0494, -0.0205,  0.0638, -0.0495,  0.2818,
        -0.2993,  0.0515])